tree
version=v2
num_class=1
num_tree_per_iteration=1
label_index=0
max_feature_idx=210
objective=regression
feature_names=mean_0_2 diff_0_2_mean mean_0_2_decay median_0_2 min_0_2 max_0_2 std_0_2 mean_0_3 diff_0_3_mean mean_0_3_decay median_0_3 min_0_3 max_0_3 std_0_3 mean_0_4 diff_0_4_mean mean_0_4_decay median_0_4 min_0_4 max_0_4 std_0_4 mean_0_6 diff_0_6_mean mean_0_6_decay median_0_6 min_0_6 max_0_6 std_0_6 mean_0_8 diff_0_8_mean mean_0_8_decay median_0_8 min_0_8 max_0_8 std_0_8 mean_1_2 diff_1_2_mean mean_1_2_decay median_1_2 min_1_2 max_1_2 std_1_2 mean_1_3 diff_1_3_mean mean_1_3_decay median_1_3 min_1_3 max_1_3 std_1_3 mean_1_4 diff_1_4_mean mean_1_4_decay median_1_4 min_1_4 max_1_4 std_1_4 mean_1_6 diff_1_6_mean mean_1_6_decay median_1_6 min_1_6 max_1_6 std_1_6 mean_1_8 diff_1_8_mean mean_1_8_decay median_1_8 min_1_8 max_1_8 std_1_8 mean_2_2 diff_2_2_mean mean_2_2_decay median_2_2 min_2_2 max_2_2 std_2_2 mean_2_3 diff_2_3_mean mean_2_3_decay median_2_3 min_2_3 max_2_3 std_2_3 mean_2_4 diff_2_4_mean mean_2_4_decay median_2_4 min_2_4 max_2_4 std_2_4 mean_2_6 diff_2_6_mean mean_2_6_decay median_2_6 min_2_6 max_2_6 std_2_6 mean_2_8 diff_2_8_mean mean_2_8_decay median_2_8 min_2_8 max_2_8 std_2_8 T-29 T-28 T-27 T-26 T-25 T-24 T-23 T-22 T-21 T-20 T-19 T-18 T-17 T-16 T-15 T-14 T-13 T-12 T-11 T-10 T-9 T-8 T-7 T-6 T-5 T-4 T-3 T-2 T-1 T-0 W-1_T-29 W-1_T-28 W-1_T-27 W-1_T-26 W-1_T-25 W-1_T-24 W-1_T-23 W-1_T-22 W-1_T-21 W-1_T-20 W-1_T-19 W-1_T-18 W-1_T-17 W-1_T-16 W-1_T-15 W-1_T-14 W-1_T-13 W-1_T-12 W-1_T-11 W-1_T-10 W-1_T-9 W-1_T-8 W-1_T-7 W-1_T-6 W-1_T-5 W-1_T-4 W-1_T-3 W-1_T-2 W-1_T-1 W-1_T-0 W-1_T+1 W-1_T+2 W-1_T+3 W-1_T+4 W-1_T+5 W-1_T+6 W-1_T+7 W-1_T+8 W-1_T+9 W-1_T+10 W-1_T+11 W-1_T+12 W-1_T+13 W-1_T+14 W-1_T+15 W-1_T+16 W-1_T+17 W-1_T+18 W-1_T+19 W-1_T+20 W-1_T+21 W-1_T+22 W-1_T+23 W-1_T+24 W-1_T+25 W-1_T+26 W-1_T+27 W-1_T+28 W-1_T+29 month day week hour minute dow total_minutes total_minutes_since_day_1 demand-3500 demand-3000 demand-2800 demand-2500 demand-2000 lat lon grid_id_by_lat grid_id_by_lon
feature_infos=[-0.46861318587446632:6.5463540660768631] [-12.951333419267126:8.5072195637407173] [-0.46862662436478675:6.5457756083030851] [-0.46291359759973749:6.5266358187630402] [-0.41378559318088237:7.0464017192876636] [-0.51681225026054844:6.0491777624992293] [-0.68228065856203413:12.374901666754486] [-0.46964168904084985:6.5648061530069839] [-11.132205108248082:8.6037084787900753] [-0.46964656179032138:6.5636471245829702] [-0.46366599915659479:6.5492749145076008] [-0.40098157756584729:7.2417611252462013] [-0.53097417834586436:5.9163867714917897] [-0.70867563887831375:10.617849679069376] [-0.47032981641655996:6.5816943644183246] [-9.9926249125369964:10.169147105402903] [-0.47037564211336569:6.57985441220612] [-0.46134986468687506:6.5551495782121822] [-0.39084466606768142:7.4186147190031146] [-0.54201288094019506:5.8052204797332232] [-0.71536023845927921:11.062455388258273] [-0.47164899819207734:6.6148431175504054] [-12.837729608589642:8.2630681665272583] [-0.4717807426006429:6.6110189465938047] [-0.45977048309769752:6.5807648252915065] [-0.37509069342743578:7.7467604789008906] [-0.55953475801889163:5.6182529159063472] [-0.70984429342994726:12.307338920118307] [-0.47306249480972734:6.6485961307307555] [-9.1837867942757381:9.0072676840677275] [-0.47325641821628112:6.6417776324318289] [-0.45834369432039246:6.6052754169435] [-0.3626541178962141:8.0623682807496113] [-0.57381378943063699:5.4611331090797917] [-0.69797302895347912:11.212347189414514] [-0.47164899819207734:6.6148431175504054] [-12.837729608589642:8.2630681665272583] [-0.4717807426006429:6.6110189465938047] [-0.45977048309769752:6.5807648252915065] [-0.37509069342743578:7.7467604789008906] [-0.55953475801889163:5.6182529159063472] [-0.70984429342994726:12.307338920118307] [-0.47234075457989583:6.6316106028461528] [-9.5456187386794316:8.6801873782484282] [-0.47250800485331967:6.6264269065745056] [-0.45974485802131482:6.5975741854700027] [-0.36859333025279928:7.9059533255922041] [-0.56695550944387163:5.5368594845399546] [-0.70407814986005768:11.760068442860016] [-0.47306249480972734:6.6485961307307555] [-9.1837867942757381:9.0072676840677275] [-0.47325641821628112:6.6417776324318289] [-0.45834369432039246:6.6052754169435] [-0.3626541178962141:8.0623682807496113] [-0.57381378943063699:5.4611331090797917] [-0.69797302895347912:11.212347189414514] [-0.47463653159158459:6.6828906464335409] [-11.539921331533078:7.9625952803552105] [-0.47482966062739995:6.6720265853145335] [-0.45713910958034437:6.6304715866487056] [-0.3522035946420754:8.3730293514277783] [-0.58635804832128835:5.3236267789259317] [-0.68672964833391725:10.493964531886098] [-0.47639505587817216:6.718360005315426] [-10.400590845646153:7.5239571569693817] [-0.47648441111624895:6.7018931233519599] [-0.4560213257516203:6.6569062079094703] [-0.34295343731704331:8.6835081524628777] [-0.59779862825346908:5.2006992919222164] [-0.67728554852550749:11.269193042290089] [-0.47463653159158459:6.6828906464335409] [-11.539921331533078:7.9625952803552105] [-0.47482966062739995:6.6720265853145335] [-0.45713910958034437:6.6304715866487056] [-0.3522035946420754:8.3730293514277783] [-0.58635804832128835:5.3236267789259317] [-0.68672964833391725:10.493964531886098] [-0.47549861053942288:6.7005073155789976] [-10.921542226401478:8.1765337014965045] [-0.47565219372254253:6.6870428736977097] [-0.45704500843280105:6.64720727482693] [-0.34743491876159449:8.5279726761921459] [-0.59220949511342535:5.2606023457047915] [-0.68173931636622431:11.114879309769428] [-0.47639505587817216:6.718360005315426] [-10.400590845646153:7.5239571569693817] [-0.47648441111624895:6.7018931233519599] [-0.4560213257516203:6.6569062079094703] [-0.34295343731704331:8.6835081524628777] [-0.59779862825346908:5.2006992919222164] [-0.67728554852550749:11.269193042290089] [-0.47830347577645804:6.7549160639168004] [-9.539325348374625:7.2214936665935623] [-0.47816820424969442:6.731020808556865] [-0.45492095414021477:6.6836773962011948] [-0.33460199269036267:8.9962879134218046] [-0.60845958486828211:5.0885623115249246] [-0.66980907123078703:10.96101158414081] [-0.48036144129053598:6.792266341532609] [-8.889941973499413:6.7259597996115152] [-0.47984734540508422:6.7589694326751264] [-0.45389880022692997:6.7085687608485651] [-0.32693640702476162:9.308671525339145] [-0.61852090312643493:4.986410341365378] [-0.6641864699000638:10.352852442054617] [-0.45737448124657487:6.4912613589759847] [-0.45716034595595223:6.495770478555416] [-0.4569612699351539:6.4992717846419739] [-0.45678349732241813:6.5047467768790588] [-0.45660074434563769:6.5080975932445275] [-0.45660186055121665:6.512570229539266] [-0.45654692496674454:6.5145920034051583] [-0.45656351291606845:6.5167761355435347] [-0.45661656622843644:6.5189665226206381] [-0.45660185405343034:6.5189230263592739] [-0.45663604537779678:6.5219555547361301] [-0.45683215663935528:6.5222752340716914] [-0.45695573516375776:6.5235355162561399] [-0.45712692406144501:6.5245572352125087] [-0.4574096307543063:6.526381429602738] [-0.45758273018892404:6.5253852155573338] [-0.45799138135019007:6.5261419262856997] [-0.4583893413547166:6.5252854819881518] [-0.45885975609490587:6.5247335740604608] [-0.45925534641548277:6.5231005553844339] [-0.4597188106994215:6.5231278245966315] [-0.4602667381935025:6.5225619502740848] [-0.46097838408936176:6.5207411587610054] [-0.46171811266536589:6.5181456743474211] [-0.46237157501378767:6.5146203356331158] [-0.46322426176114861:6.5110471998240556] [-0.46470780345928497:6.5079910017684401] [-0.46463416633370208:6.502008753547889] [-0.46503915306692956:6.4956928533268359] [-0.46545507877225184:6.4917444924437522] [-0.47735945973688515:6.603304980989761] [-0.47716664760122146:6.6034545416822423] [-0.47714856386274601:6.6077215113430565] [-0.47705967927226006:6.6110651310493456] [-0.47694936558627193:6.6104441615149003] [-0.47704001000817714:6.6151012206091107] [-0.47705461870883331:6.6158296710560709] [-0.47714730513386128:6.6175915216734564] [-0.47719482570606364:6.6180514706643434] [-0.47740283832177544:6.6184366317064134] [-0.47755404769381771:6.6168348767939653] [-0.47778591079907551:6.6172519972645683] [-0.47809499704580033:6.6173327379309113] [-0.47831665703869253:6.6153875510587614] [-0.47863634557977952:6.615304465846104] [-0.47894912012012886:6.6153858203402081] [-0.4793635280077419:6.6151835461655679] [-0.47962127381581304:6.6146886901205457] [-0.4799813201216987:6.6091012802656399] [-0.48041916291557696:6.610061161353884] [-0.4806275404698433:6.6056087695217931] [-0.48099777206966732:6.6044220434057426] [-0.48147951004144068:6.6001562721416098] [-0.48190997077898162:6.5985591295177182] [-0.48224582275071759:6.5974026833921418] [-0.48268264733703575:6.596803666915422] [-0.48302812791236915:6.5960542499836246] [-0.48341291034692935:6.593943475679259] [-0.48370149276188235:6.5942550488572813] [-0.48409573183693222:6.5931769064911174] [-0.48435850891823856:6.5906989283425057] [-0.48465207826682627:6.58964029925668] [-0.48473840524893658:6.5853280902635394] [-0.48519961955150165:6.5845520233572099] [-0.4853947522745814:6.5810952782503938] [-0.48564563175971193:6.5781010012910999] [-0.48585120522704306:6.5755307424543457] [-0.48604806347431578:6.572016898815388] [-0.48618100924697127:6.5663979537273516] [-0.48614965973892349:6.5609695913793624] [-0.48617413559578776:6.5573353133816239] [-0.48613963396491372:6.5557039547679645] [-0.4859906673912926:6.5531712094155186] [-0.48595687395570369:6.5518768839816728] [-0.48580260962886046:6.5517292152629363] [-0.48563485681303414:6.5501867817966888] [-0.48552198812447472:6.5510442698900233] [-0.48511286024893302:6.5509659182946178] [-0.48473012230457702:6.5513677728868052] [-0.4843639837179623:6.5513239752794146] [-0.48401818225559173:6.5513977760478852] [-0.48380113322327534:6.5506845553155308] [-0.48369544552328153:6.5505960292838665] [-0.48336979390987106:6.5494885558945546] [-0.48319190556732328:6.5502190662585749] [-0.48288051281337913:6.5519569471923953] [-0.48264489718757847:6.5554380360874154] [-0.48241454160683106:6.560191320409313] [-0.48224153538054038:6.5649002132820318] none [-1.2495548616808658:0.7632557485001471] [-3.3277329059437242:-0.14699108554405868] [-1.6216603487293946:1.6192245176483295] [-1.3424539360372392:1.3380080842692252] [-1.6222012741698735:1.0565761213295661] [-1.6736153656534218:1.6710057679168107] [-1.1055065539165747:0.58115032337521] 1:0:-1 1:0:-1 1:0:-1 1:0:-1 1:0:-1 1:0:-1 1:0:-1 1:0:-1 1:0:-1
tree_sizes=2565 2618 2625 2688 2686 2690 2635 2682 2688 2613 2689 2627 2691 2680 2633 2623 2674 2688 2621 2634 2646 2690 2635 2689 2698 2617 2701 2697 2696 2703 2703 2637 2701 2637 2636 2699 2684 2701 2650 2688 2635 2638 2638 2642 2631 2686 2637 2694 2628 2694 2706 2694 2636 2638 2690 2702 2639 2648 2688 2650 2695 2702 2639 2661 2653 2686 2646 2687 2640 2651 2686 2705 2708 2706 2700 2702 2656 2706 2664 2668 2706 2647 2661 2647 2659 2699 2706 2652 2706 2702 2661 2661 2660 2704 2695 2698 2660 2705 2711 2654 2699 2660 2676 2668 2710 2680 2678 2655 2666 2709 2678 2710 2714 2706 2708 2710 2666 2673 2719 2669 2666 2676 2712 2724 2665 2682 2681 2660 2712 2728 2663 2726 2663 2718 2709 2684 2712 2679 2698 2669 2731 2682 2688 2727 2673 2726 2716 2683 2716 2701 2690 2682 2690 2715 2684 2703 2697 2724 2705 2727 2718 2700 2698 2696 2690 2725 2726 2729 2709 2703 2686 2689 2723 2720 2718 2700 2737 2692 2737 2720 2695 2710 2739 2720 2718 2732 2733 2703 2737 2720 2725 2714 2744 2715 2732 2707 2728 2722 2724 2737 2703 2714 2722 2729 2718 2704 2727 2731 2721 2710 2727 2732 2730 2733 2721 2736 2714 2724 2717 2732 2720 2711 2719 2716 2719 2737 2709 2720 2726 2747 2725 2734 2739 2734 2731 2759 2709 2724 2724 2742 2739 2745 2732 2728 2710 2764 2719 2740 2746 2749 2736 2739 2737 2729 2717 2735 2737 2696 2744 2755 2707 2719 2737 2721 2734 2753 2701 2760 2725 2747 2704 2762 2703 2700 2743 2729 2708 2747 2714 2732 2770 2729 2706 2714 2756 2726 2718 2711 2715 2740 2753 2738 2729 2715 2730 2731 2726 2752 2745 2761 2731 2729 2712 2746 2724 2713 2731 2734 2731 2722 2716 2729 2746 2711 2714 2732 2719 2744 2727 2746 2733 2752 2773 2723 2708 2725 2759 2723 2730 2701 2732 2747 2763 2745 2757 2728 2727 2728 2752 2726 2732 2706 2748 2732 2730 2747 2729 2759 2732 2713 2752 2744 2723 2749 2764 2743 2756 2733 2742 2737 2725 2719 2763 2743 2772 2757 2697 2728 2737 2696 2747 2737 2751 2762 2757 2754 2749 2722 2760 2750 2744 2758 2751 2767 2710 2762 2703 2768 2760 2756 2761 2758 2758 2739 2773 2744 2764 2732 2773 2772 2751 2767 2749 2741 2743 2726 2758 2747 2726 2768 2776 2767 2785 2790 2732 2778 2745 2731 2776 2723 2754 2741 2758 2745 2771 2764 2763 2714 2741 2756 2779 2755 2770 2761 2751 2786 2769 2740 2756 2749 2758 2733 2772 2762 2791 2795 2770 2769 2774 2773 2786 2750 2783 2728 2745 2775 2769 2795 2749 2757 2783 2773 2784 2742 2761 2786 2780 2807 2783 2800 2770 2738 2788 2792 2793 2794 2743 2778 2780 2784 2797 2804 2759 2759 2796 2776 2792 2777 2753 2728 2788 2778 2803 2788 2766 2766 2779 2782 2793 2782 2748 2786 2796 2783 2781 2820 2749 2768

Tree=0
num_leaves=31
num_cat=0
split_feature=0 0 0 0 0 0 0 0 0 0 0 0 0 8 43 8 0 8 0 8 0 0 43 8 174 174 173 8 12 8
split_gain=6887.23 1525.87 939.064 217.929 176.845 95.3651 70.0814 30.069 29.3043 20.6622 17.2517 13.892 11.6517 10.5882 7.8055 5.05549 4.88222 4.848 4.42842 4.32846 4.08305 3.84986 3.65343 2.97546 2.92135 2.83584 2.40239 2.35942 1.91339 1.90428
threshold=1.8870635203844539 0.17198588990615057 4.374395141291731 0.85685553603792319 -0.26057178075215331 3.0048560172761927 5.6736926057613779 1.3413522571588408 0.48602335194013124 -0.065774247039587119 -0.40923053875356624 2.3430809244016362 3.6036335577880632 -0.30661585933775465 -3.7355792273185195 1.7010524281982595 4.9241851337658096 0.32874533452007021 1.0977546345765534 2.2360809651035667 0.33076845982118752 0.66740420826341451 2.7450187522052971 1.2896130984514047 0.19594375701417169 0.77099861717015972 -0.070972148628780346 1.7900125073400623 4.4466612700221857 -3.3238929017732954
decision_type=2 2 2 2 2 2 2 2 2 2 2 2 2 2 2 2 2 2 2 2 2 2 2 2 2 2 2 2 2 2
left_child=1 4 5 8 10 11 14 18 20 26 -1 23 19 29 -4 -14 -16 -13 -5 -7 -3 -10 25 -2 -11 -9 -6 -18 -17 -8
right_child=2 3 6 7 9 12 13 22 21 24 -12 17 15 -15 16 28 27 -19 -20 -21 -22 -23 -24 -25 -26 -27 -28 -29 -30 -31
leaf_value=0.062496201057078482 0.065931182055173856 0.063492614321054519 0.068662525955020828 0.064507134059125171 0.062852769593417887 0.067530393201634689 0.070000767675629988 0.065035842474423775 0.063950267188979545 0.063147115157698427 0.06266952895306295 0.066571801585104645 0.068420512004153985 0.07233416953048899 0.069853027229874895 0.069251938537526855 0.070426032943126299 0.067234677558140749 0.064844030665995894 0.068459210954094032 0.06372241904270419 0.064216436038233446 0.065955332092906188 0.066481617527560849 0.063336417910772505 0.065428875175853315 0.062995506749195573 0.071328985817508378 0.070882637420952591 0.071272843615293721
leaf_count=265966 3145 17792 315 9220 35013 1917 158 2779 12470 26342 73399 2315 1482 4359 1088 672 760 2133 6844 686 13852 9765 950 1449 11982 5581 18116 477 82 491
internal_value=0 -0.0233845 0.554031 0.104138 -0.0468434 0.399005 0.835402 0.180556 0.0681494 -0.00781136 -0.0573619 0.338359 0.512325 0.904919 0.703531 0.565337 0.723583 0.378237 0.154336 0.466787 0.0485902 0.0959854 0.225797 0.299749 0.0098993 0.219092 -0.0205867 0.766691 0.632197 0.785585
internal_count=531600 510071 21529 79253 430818 13881 7648 25374 53879 91453 339365 9042 4839 5008 2640 2236 2325 4448 16064 2603 31644 22235 9310 4594 38324 8360 53129 1237 754 649
shrinkage=1


Tree=1
num_leaves=31
num_cat=0
split_feature=2 2 2 2 2 2 2 2 2 2 2 2 2 1 1 5 1 1 1 1 2 2 1 1 5 170 170 11 2 5
split_gain=6759.88 1458.03 968.674 208.442 165.904 93.0667 78.9994 29.8134 26.6348 18.0925 17.4071 14.2191 11.1525 9.691 8.76725 6.54972 5.52863 5.412 4.90474 4.43741 4.25287 3.76402 3.45026 2.95757 2.40274 2.39334 2.33085 2.19005 2.01176 2.00239
threshold=1.830356487963412 0.15838179208298095 4.2773646751819454 0.84971020963523813 -0.25710913704466115 2.9284181286636057 5.6738801127830998 0.47956819792175337 1.2737430121693361 -0.059369182207953362 -0.40794246570972231 2.2309431643510922 3.6000049288131235 -0.3956203147947826 -2.1697668840258042 4.8525706325807594 0.23309508080090352 1.0685562224181486 -0.76499342721285302 0.67082359721836993 0.32214189989731984 0.66181217878038578 0.095139356812810702 -0.32588871325058572 1.6362884719124748 -0.079544520678726083 0.13855742180138336 5.1804088670899562 1.5652808823115072 2.6937501297168405
decision_type=2 2 2 2 2 2 2 2 2 2 2 2 2 2 2 2 2 2 2 2 2 2 2 2 2 2 2 2 2 2
left_child=1 4 5 7 10 11 14 20 22 25 -1 23 17 -8 27 -16 -13 -7 -14 28 -3 -9 -5 -2 -21 -6 -11 -4 -10 -18
right_child=2 3 6 8 9 12 13 21 19 26 -12 16 18 -15 15 -17 29 -19 -20 24 -22 -23 -24 -25 -26 -27 -28 -29 -30 -31
leaf_value=-0.00060495681375752591 0.0025394821045717471 0.00036732307148372787 0.0056708117660669057 0.0013377199211655477 -0.00024832148396096909 0.004246647052478493 0.0078384516455910422 0.00082534719065658095 0.0018474931107291793 3.2599585117427611e-05 -0.00043116819665652679 0.0033099435461872231 0.0049263824574132956 0.0091409310647787689 0.0066712042889320112 0.007788052292887703 0.0037392279625900332 0.0051390544410865255 0.0059383257283787032 0.0021994166866688546 0.00059760440807627433 0.0010877858277546523 0.0016450739782242255 0.0030696718575925278 0.0027082200580731274 -0.00010765180886318482 0.00020259652523226091 0.0068906206129795283 0.0022132354543223927 0.0043406984798344981
leaf_count=266911 1883 18730 579 7639 34063 1923 660 12638 3949 22388 73669 2677 808 4348 1058 1052 1426 1060 1194 2164 14199 9765 7116 2440 1661 19121 12863 201 2488 927
internal_value=0 -0.0235609 0.539714 0.100068 -0.046715 0.384803 0.820939 0.0658178 0.175822 -0.00812025 -0.0567366 0.325976 0.495177 0.896928 0.689259 0.722804 0.362161 0.456376 0.552991 0.21497 0.046662 0.0939739 0.148595 0.283873 0.242036 -0.0197747 0.0094631 0.598515 0.198886 0.397619
internal_count=531600 509364 22236 80349 429015 14338 7898 55332 25017 88435 340580 9353 4985 5008 2890 2110 5030 2983 2002 10262 32929 22403 14755 4323 3825 53184 35251 780 6437 2353
shrinkage=0.01


Tree=2
num_leaves=31
num_cat=0
split_feature=2 2 2 2 2 2 2 2 2 2 2 2 2 8 50 2 22 2 8 2 2 8 2 22 170 174 8 2 174 197
split_gain=6625.36 1429.02 949.397 204.294 162.602 91.2141 77.4267 29.2195 26.1042 17.7319 17.0635 13.9577 10.93 9.26569 7.71836 5.17375 4.31876 4.16764 3.97349 3.86445 3.68852 3.56109 3.06119 2.62539 2.34511 2.32575 2.16915 1.97718 1.89574 1.88372
threshold=1.830356487963412 0.15838179208298095 4.2773646751819454 0.84971020963523813 -0.25710913704466115 2.9284181286636057 5.6738801127830998 0.47956819792175337 1.2737430121693361 -0.059369182207953362 -0.41002479642108586 2.2970749204952798 3.6000049288131235 -0.30661585933775465 -3.5124705445470741 4.8908733404667446 2.7410731322139177 0.32214189989731984 1.0901174512983081 1.5652808823115072 0.66181217878038578 3.3023759381990545 1.0647850815974591 2.8414669963657837 -0.079544520678726083 0.19992829081978894 1.7900125073400623 -0.34075476520331299 0.91145116983120789 -0.14212595320912913
decision_type=2 2 2 2 2 2 2 2 2 2 2 2 2 2 2 2 2 2 2 2 2 2 2 2 2 2 2 2 2 2
left_child=1 4 5 7 10 11 14 17 22 24 -1 23 16 -8 -4 -16 -7 -3 28 -10 -9 29 -5 -2 -6 -11 -17 -12 -13 -14
right_child=2 3 6 8 9 12 13 20 19 25 27 18 21 -15 15 26 -18 -19 -20 -21 -22 -23 -24 -25 -26 -27 -28 -29 -30 -31
leaf_value=-0.00059941458106507327 0.0027602546497740837 0.00036364983636425738 0.0054242225488026945 0.0013464082191672431 -0.0002458382705955732 0.0042950697684670603 0.0077438527951164847 0.00081709372401879573 0.001973042777725152 3.9173053809425495e-05 -0.00047620938273265558 0.0029736309019442932 0.0055638275472261424 0.0090430193594216533 0.0065490601726015309 0.0071336949033102975 0.0051717098041563951 0.000591628363404591 0.004024106146865292 0.0023727928479502555 0.0010769079756498556 0.0063117441293947842 0.0016391183553770511 0.0034183484303437288 -0.00010657529077581293 0.00021627820032016541 0.0079782754050893804 -0.00037255390385028636 0.0035617919578888641 0.004864747607596003
leaf_count=265347 4164 18730 348 8470 34063 2224 630 12638 6279 24401 40710 762 902 4378 1233 812 759 14199 1642 3983 9765 408 6285 719 19121 10850 497 34523 2066 692
internal_value=0 -0.0233253 0.534317 0.0990674 -0.0462479 0.380955 0.812729 0.0651596 0.174064 -0.00803905 -0.0561692 0.322716 0.490225 0.887959 0.682366 0.701525 0.451812 0.0461954 0.363135 0.21282 0.0930341 0.547461 0.147109 0.285716 -0.019577 0.00936847 0.745436 -0.0428644 0.340331 0.526034
internal_count=531600 509364 22236 80349 429015 14338 7898 55332 25017 88435 340580 9353 4985 5008 2890 2542 2983 32929 4470 10262 22403 2002 14755 4883 53184 35251 1309 75233 2828 1594
shrinkage=0.01


Tree=3
num_leaves=31
num_cat=0
split_feature=134 2 134 134 2 134 134 134 134 134 2 134 134 134 134 3 2 134 134 2 134 134 173 173 134 134 2 172 173 172
split_gain=6552.84 1374.54 970.195 196.846 159.374 86.0182 82.3613 27.1345 25.3455 18.5153 15.7176 11.9412 11.8474 11.0151 4.2165 3.68118 3.58259 3.57471 3.48881 3.34431 2.54992 1.86487 1.67147 1.41173 1.38214 1.37835 1.29418 1.15837 1.07681 1.0603
threshold=1.8175827792586132 0.15838179208298095 4.1447373498793061 0.82271813550818884 -0.26348283886260288 5.3639696992623529 2.8622110755357397 1.2699966186808453 0.45419348855022357 -0.046124985804836406 -0.41223611295007029 2.2988936687614752 6.1049144026607651 3.4003584433908021 4.6751421395854216 0.60292197934820801 0.33963827908628297 1.5578290135016128 1.0050237692902007 -0.12567144242197895 0.13104097481613403 -0.3279950454141401 2.5307008619258253 0.22240560291063846 3.7833300267587542 2.5144495679067118 -0.46638945463667786 -0.076895471498174078 0.91667063779481672 0.33981714330384322
decision_type=2 2 2 2 2 2 2 2 2 2 2 2 2 2 2 2 2 2 2 2 2 2 2 2 2 2 2 2 2 2
left_child=1 4 6 8 10 14 11 18 16 19 26 22 -7 -8 -4 -10 23 -9 -5 -6 27 -12 -2 -3 -15 -13 -1 -11 -17 -18
right_child=2 3 5 7 9 12 13 17 15 20 21 25 -14 24 -16 28 29 -19 -20 -21 -22 -23 -24 -25 -26 -27 -28 -29 -30 -31
leaf_value=-0.00060661924434024744 0.0027191581128327698 0.00026407629236842095 0.0061383180843130923 0.0012622756347381054 -0.00025233030514432533 0.0078180940187532848 0.0042767766654896802 0.0019259582663513899 0.00074833760583466202 -3.4885682085493578e-05 -0.00047110688978022335 0.0033433851939371068 0.0089728620834817491 0.0049856319515442357 0.006938479608607607 0.00093116992844483732 0.00047254835427900348 0.002307010710716954 0.0015603442950180085 -8.9712175410588531e-05 0.00023683020363351144 -0.00036852685497428954 0.0031305113315626006 0.00044072725969391082 0.0054644912433877233 0.0037235144261444962 -0.00055435005123035319 0.00010575200217796857 0.0011399840400132379 0.00066267767378269953
leaf_count=199707 3834 9909 1291 7523 37155 1116 2665 6258 11827 10718 44293 1735 4412 1352 1364 7558 5964 4115 8364 19434 9690 30344 1363 8656 1131 2224 64001 13673 3822 6102
internal_value=0 -0.0233336 0.528281 0.096921 -0.0457854 0.802907 0.371173 0.167909 0.0622961 -0.00854954 -0.0557639 0.314264 0.873974 0.472388 0.65494 0.0872383 0.0433992 0.207712 0.14192 -0.0196483 0.00987919 -0.0429403 0.282704 0.034644 0.520375 0.355693 -0.0593934 0.00439524 0.10013 0.05687
internal_count=531600 509113 22487 80098 429015 8183 14304 26260 53838 90670 338345 9156 5528 5148 2655 23207 30631 10373 15887 56589 34081 74637 5197 18565 2483 3959 263708 24391 11380 12066
shrinkage=0.01


Tree=4
num_leaves=31
num_cat=0
split_feature=134 134 134 134 0 134 134 134 134 0 9 134 134 134 134 0 134 3 134 134 0 134 169 134 170 170 173 174 169 169
split_gain=6422.44 1347.08 950.888 186.565 161.934 84.3058 80.7217 26.5994 22.7264 19.6767 15.5447 11.703 11.611 10.7953 4.132 3.74385 3.50298 3.43003 3.42066 3.40793 3.06123 2.09634 1.6766 1.44043 1.38245 1.36637 1.29425 1.27814 1.05525 1.03944
threshold=1.8175827792586132 0.17666503684573684 4.1447373498793061 0.82271813550818884 -0.26348015449257672 5.3639696992623529 2.8622110755357397 1.2699966186808453 0.47158736727459832 -0.061587157512583847 -0.40856786823180702 2.2988936687614752 6.1049144026607651 3.4003584433908021 4.6751421395854216 0.33076845982118752 1.5578290135016128 0.60292197934820801 1.0050237692902007 -0.14280387775147638 0.068286979607136936 -0.3279950454141401 2.6108879224539048 -0.46542166093309117 3.9923475784692379 2.7141957719476157 0.26118447708218412 0.19594375701417169 1.5049101136878162 1.0866502385820078
decision_type=2 2 2 2 2 2 2 2 2 2 2 2 2 2 2 2 2 2 2 2 2 2 2 2 2 2 2 2 2 2
left_child=1 4 6 8 10 14 11 18 15 19 23 22 -7 -8 -4 26 -9 -10 -5 -6 -11 -12 -2 -1 -15 -13 -3 -22 -20 -19
right_child=2 3 5 7 9 12 13 16 17 20 21 25 -14 24 -16 -17 -18 29 28 -21 27 -23 -24 -25 -26 -27 -28 -29 -30 -31
leaf_value=-0.00059673713493577757 0.0026960409281596809 0.00027952859982339887 0.0060769349957602052 0.0012496645866868327 -0.00026443420236081118 0.0077399131690409021 0.0042340089365918371 0.0019066986764836836 0.00074561332181693281 1.3236609344272619e-05 -0.00046705003460105802 0.0033768711597847805 0.0088831332687318923 0.0049887902514510656 0.0068690948752014513 0.00058311180884430185 0.0022839405936724254 0.00093738466676977089 0.0014763532024679824 -0.00010137196932673684 0.0001273288387972952 -0.00035710214047454078 0.0031184245736774387 -0.00052867264114251277 0.0055008644846421253 0.0037654701254897466 0.00045440599040945747 0.000307476590279998 0.0017343922847809692 0.0011596790129510838
leaf_count=228639 3933 10002 1291 7528 33369 1116 2665 6258 10938 20704 43134 2487 4412 1693 1364 12361 4115 8225 6147 21109 10806 29702 1264 36856 790 1472 7636 6429 2218 2937
internal_value=0 -0.0231003 0.522998 0.097499 -0.0450406 0.794878 0.367461 0.166223 0.0628515 -0.00793905 -0.0551751 0.311121 0.865234 0.467664 0.648391 0.0449133 0.205635 0.0872013 0.140499 -0.0201251 0.00955938 -0.0422214 0.279877 -0.0587288 0.515171 0.352136 0.0355238 0.0194528 0.154477 0.0995876
internal_count=531600 509113 22487 78365 430748 8183 14304 26266 52099 92417 338331 9156 5528 5148 2655 29999 10373 22100 15893 54478 37939 72836 5197 265495 2483 3959 17638 17235 8365 11162
shrinkage=0.01


Tree=5
num_leaves=31
num_cat=0
split_feature=134 2 134 134 2 134 134 134 134 134 2 134 134 134 2 2 134 134 2 134 9 134 134 134 174 134 175 134 175 174
split_gain=6294.63 1320.68 932.032 189.015 153.047 93.3754 67.3179 26.0642 24.3248 16.7094 16.3828 13.0267 12.4728 10.6625 3.54972 3.43666 3.43267 3.35715 2.89122 2.42232 1.75769 1.65813 1.63664 1.60026 1.57568 1.49331 1.43983 1.1865 1.12289 1.02945
threshold=1.8175827792586132 0.15838179208298095 4.3013945541002458 0.82271813550818884 -0.25515315885702033 2.9155374042563995 6.1049144026607651 1.2699966186808453 0.45419348855022357 -0.046124985804836406 -0.4001784648577244 2.3272487302319864 3.5212581227640594 4.9829250705142423 0.59850292489051504 0.33963827908628297 1.5578290135016128 1.0343951501387736 -0.12567144242197895 0.13104097481613403 -0.45205778603033558 3.9381665968322457 -0.28096813195060788 5.3639696992623529 2.497287769769418 2.6514178959644727 0.15716492851247996 3.2184281151537708 0.049868811199276435 0.28483010909936696
decision_type=2 2 2 2 2 2 2 2 2 2 2 2 2 2 2 2 2 2 2 2 2 2 2 2 2 2 2 2 2 2
left_child=1 4 5 8 10 11 13 17 15 18 20 24 27 -4 -10 26 -9 -5 -6 28 -1 -14 -12 -15 -2 -13 -3 -7 -11 -17
right_child=2 3 6 7 9 12 -8 16 14 19 22 25 21 23 -16 29 -18 -19 -20 -21 -22 -23 -24 -25 -26 -27 -28 -29 -30 -31
leaf_value=-0.00059191042659919961 0.0026816746657287818 0.00024936857635411534 0.0062851376825563098 0.0012557816211017712 -0.00024167400006209382 0.0041372461205692245 0.0087943020823697884 0.0018876316822632137 0.00073223512472709923 -1.3713641928179236e-05 -0.00043653262015338345 0.0033763734238522066 0.0050674223981447952 0.0070552299560500617 0.00098064536858925248 0.00045985834372298833 0.0022611011986983973 0.0015486799163097363 -8.8215769808644898e-05 0.00023183895539234488 -0.00052698050633486621 0.0055994126668135174 -0.00032579116122653253 0.0076625139754946513 0.0030681092645178476 0.0037712889105009223 0.00042735131997337936 0.0045584737829876586 0.00012621166031000116 0.00064743322119997597
leaf_count=219962 3953 9125 1498 8555 34295 1625 4412 6258 11727 14344 50126 2398 1406 732 11480 5779 4115 7332 19434 9690 52530 1036 18645 1116 1477 1648 9440 1186 9989 6287
internal_value=0 -0.0228693 0.517768 0.0950058 -0.0448768 0.370012 0.798291 0.164567 0.0610765 -0.0076261 -0.0544554 0.310721 0.476969 0.691301 0.0855118 0.0425635 0.203579 0.139096 -0.0186168 0.0097303 -0.0579393 0.529312 -0.0406509 0.742197 0.278679 0.353723 0.033987 0.431497 0.00437274 0.0557594
internal_count=531600 509113 22487 80098 429015 14729 7758 26260 53838 87752 341263 9476 5253 3346 23207 30631 10373 15887 53729 34023 272492 2442 68771 1848 5430 4046 18565 2811 24333 12066
shrinkage=0.01


Tree=6
num_leaves=31
num_cat=0
split_feature=2 2 2 2 2 2 2 2 2 2 2 2 2 43 43 2 2 50 43 2 50 2 2 177 171 2 50 200 9 171
split_gain=6115.03 1318.61 875.706 179.662 159.95 84.1494 71.4381 24.3368 24.1123 18.3326 16.0562 12.927 10.0761 8.0124 7.33278 5.03697 3.90196 3.73708 3.65611 3.56768 3.17719 2.8359 2.6438 2.53029 2.16375 2.00824 1.954 1.88731 1.72259 1.64449
threshold=1.830356487963412 0.17826300949495558 4.2773646751819454 0.84971020963523813 -0.25515315885702033 2.9284181286636057 5.6738801127830998 0.50501382452366972 1.2737430121693361 -0.059369182207953362 -0.4001784648577244 2.2309431643510922 3.6000049288131235 -0.39071005184134711 -3.7355792273185195 4.8908733404667446 0.33963827908628297 2.8938298068208499 1.2925172019095319 1.5652808823115072 -0.61292148016154135 1.0647850815974591 0.66181217878038578 0.12560227070867722 -0.086306514776397586 6.0590379803889549 2.7219721865528683 -0.071717875364521025 -0.45473808878510125 -0.2551270009994116
decision_type=2 2 2 2 2 2 2 2 2 2 2 2 2 2 2 2 2 2 2 2 2 2 2 2 2 2 2 2 2 2
left_child=1 4 5 7 10 11 14 16 21 24 28 26 17 -8 -4 -16 -3 -7 27 -10 -14 -5 -9 -11 -6 -15 -2 -13 -1 -12
right_child=2 3 6 8 9 12 13 22 19 23 29 18 20 25 15 -17 -18 -19 -20 -21 -22 -23 -24 -25 -26 -27 -28 -29 -30 -31
leaf_value=-0.00058659169151827832 0.0026071781339558086 0.00037320761386265897 0.0051951998223151476 0.001293518221189715 -0.00023616570542759092 0.0041314319911771877 0.0072786860148794158 0.00080451034007586995 0.0018960139005685078 3.8830698054405768e-05 -0.00043782102422232539 0.0034299230498706259 0.0046976978340647693 0.007990996289568451 0.0062849839457100442 0.0071785122559620785 0.00059484700942857036 0.004943500577629387 0.0037849677228589886 0.0022802310020885209 0.0055446630749986115 0.0015753602717711293 0.0010337149912168053 0.00020906458840686611 -0.00010207788581919522 0.0087254088192499218 0.0031966471608227431 0.0029178181938206153 -0.00052409483710993531 -0.00033361769030005857
leaf_count=215845 3646 17799 350 8470 33215 2213 466 10630 6279 23790 45423 1871 674 416 1240 1300 14545 770 1959 3983 1328 6285 9765 14054 19286 4126 677 1200 56647 23348
internal_value=0 -0.022409 0.513326 0.0974657 -0.0440049 0.366037 0.780716 0.0643564 0.167264 -0.00658691 -0.0539108 0.310098 0.470991 0.852978 0.655494 0.67423 0.0472878 0.434105 0.344603 0.204514 0.525952 0.141357 0.0914252 0.010205 -0.0186909 0.865814 0.269949 0.322982 -0.05736 -0.0402444
internal_count=531600 509364 22236 77756 431608 14338 7898 52739 25017 90345 341263 9353 4985 5008 2890 2540 32344 2983 5030 10262 2002 14755 20395 37844 52501 4542 4323 3071 272492 68771
shrinkage=0.01


Tree=7
num_leaves=31
num_cat=0
split_feature=134 134 134 134 2 134 134 134 134 2 2 134 134 134 2 134 134 134 3 168 2 173 134 134 134 9 134 176 179 134
split_gain=6047.98 1268.85 895.506 175.622 153.3 89.7157 64.6484 25.0516 21.3722 17.6132 15.7388 12.5011 11.9801 10.2542 3.56476 3.3043 3.22859 3.20968 3.20173 2.42229 1.90427 1.66744 1.58719 1.54318 1.43447 1.30264 1.14166 1.117 1.11245 1.0991
threshold=1.8175827792586132 0.17666503684573684 4.3013945541002458 0.82271813550818884 -0.25515315885702033 2.9155374042563995 6.1049144026607651 1.2699966186808453 0.47158736727459832 -0.04168381423509275 -0.40964684321031503 2.3272487302319864 3.5212581227640594 4.9829250705142423 0.30595489255976671 1.5031944868063634 1.0050237692902007 -0.14280387775147638 0.65028826980138998 0.21588804760866573 -0.34075476520331299 2.5307008619258253 3.9381665968322457 5.3639696992623529 2.6514178959644727 -0.45622019404959474 3.2184281151537708 0.38242923082212715 0.041955837980996898 -0.0057840034079505486
decision_type=2 2 2 2 2 2 2 2 2 2 2 2 2 2 2 2 2 2 2 2 2 2 2 2 2 2 2 2 2 2
left_child=1 4 5 8 10 11 13 16 14 17 25 21 26 -4 28 -9 -5 -6 27 29 -12 -2 -14 -15 -13 -1 -7 -10 -3 -11
right_child=2 3 6 7 9 12 -8 15 18 19 20 24 22 23 -16 -17 -18 -19 -20 -21 -22 -23 -24 -25 -26 -27 -28 -29 -30 -31
leaf_value=-0.00058105307225130747 0.0026245986116458886 0.0002331026376361256 0.006160688407032767 0.0012124766301418841 -0.00024501660179859406 0.0040552243513212755 0.0086200877555991338 0.0018181176723979897 0.00064094115145899824 -3.6163524276977476e-05 -0.00045352110856938354 0.0033092826567403815 0.004967418529231043 0.0069153436839254822 0.00055261809461464311 0.0021767117946104144 0.0014992539188704212 -9.0735951442953995e-05 0.00099112379027262816 0.00023135740555109589 -0.00035214279282470574 0.0030233715284768846 0.0054881110995950392 0.0075119016631957029 0.0036964963333120625 -0.00052463249821660125 0.0044686157011362597 0.00082969262282649712 0.00040487914376988968 0.00010801817711169313
leaf_count=213548 3970 6640 1498 7528 31585 1625 4412 5240 5822 8991 40437 2398 1406 732 14072 5133 8365 23917 9076 11273 35206 1460 1036 1116 1648 52072 1186 7202 9287 13719
internal_value=0 -0.0224167 0.507522 0.0946284 -0.0437105 0.36269 0.782494 0.161307 0.0610123 -0.0068661 -0.0533717 0.304572 0.467531 0.677646 0.043616 0.199557 0.136342 -0.0178534 0.0846264 0.0110786 -0.0406337 0.273182 0.518832 0.72756 0.3467 -0.0569992 0.422964 0.0745317 0.0333265 0.00509359
internal_count=531600 509113 22487 78365 430748 14729 7758 26266 52099 89485 341263 9476 5253 3346 29999 10373 15893 55502 22100 33983 75643 5430 2442 1848 4046 265620 2811 13024 15927 22710
shrinkage=0.01


Tree=8
num_leaves=31
num_cat=0
split_feature=134 134 134 134 134 134 134 134 134 7 3 134 134 134 134 134 3 3 7 134 134 172 134 173 174 170 170 172 177 172
split_gain=5927.62 1243.6 877.742 172.127 148.012 77.7799 74.4898 24.5666 20.9463 18.3569 15.1433 10.8019 10.7002 9.97271 3.95507 3.83616 3.3899 3.13742 2.55479 2.49114 2.42459 2.35858 1.98302 1.55439 1.38854 1.33894 1.32439 1.15797 1.07367 1.03127
threshold=1.8175827792586132 0.17666503684573684 4.1447373498793061 0.82271813550818884 -0.23511857484803633 5.3639696992623529 2.8622110755357397 1.3136456352421579 0.47158736727459832 -0.3961762268246744 -0.04231779998248502 2.2988936687614752 6.4434024218301955 3.4003584433908021 1.0402416261032601 4.6751421395854216 0.35605628723517574 0.65028826980138998 -0.2719632741257772 1.5578290135016128 -0.14280387775147638 0.20468965743994652 -0.46542166093309117 2.5307008619258253 0.19082515191701552 3.9923475784692379 2.7141957719476157 3.0884359115724624 0.44323731547637724 -0.016809237563801604
decision_type=2 2 2 2 2 2 2 2 2 2 2 2 2 2 2 2 2 2 2 2 2 2 2 2 2 2 2 2 2 2
left_child=1 4 6 8 9 15 11 14 16 22 20 23 27 -8 -5 -4 24 28 -11 -9 -6 -12 -1 -2 -3 -15 -13 -7 -10 -22
right_child=2 3 5 7 10 12 13 19 17 18 21 26 -14 25 -16 -17 -18 -19 -20 -21 29 -23 -24 -25 -26 -27 -28 -29 -30 -31
leaf_value=-0.00057301471435783672 0.0025845893427373012 0.00026635760228124929 0.0058373153386284083 0.0012220613433150047 -0.00023747688336474111 0.0071647466957177842 0.0040672269860460766 0.0018634173468947421 0.00064508472807232929 -0.00042158692844923888 5.1281646783635052e-05 0.0032406811671392187 0.0085810129300092648 0.0047889798514355727 0.0015288848681311207 0.0066008022627479165 0.00057426912841671094 0.00098121254077922519 -0.00029181438705895324 0.0021947316929894893 -0.00014595338057040724 0.00023127011849697935 -0.0004992553454920256 0.0029815365667082505 0.00043822534293508136 0.0052931052469000033 0.0036233943806070353 0.0077763563875506182 0.00082920053628490319 -1.262896746765429e-05
leaf_count=230130 3834 9662 1291 8772 24150 457 2665 5198 6461 51189 22614 2487 4030 1693 8181 1364 10789 9076 21921 4115 16289 10940 44090 1363 9548 790 1472 1041 6563 9425
internal_value=0 -0.0221926 0.502447 0.0936822 -0.0432734 0.763662 0.353012 0.159693 0.0604022 -0.0523587 -0.00544457 0.29889 0.83124 0.449271 0.137013 0.622955 0.0431798 0.0837802 -0.0382676 0.200981 -0.016508 0.0109965 -0.0561155 0.26887 0.0351782 0.494937 0.338298 0.758977 0.0737864 -0.00970857
internal_count=531600 509113 22487 78365 430748 8183 14304 26266 52099 347330 83418 9156 5528 5148 16953 2655 29999 22100 73110 9313 49864 33554 274220 5197 19210 2483 3959 1498 13024 25714
shrinkage=0.01


Tree=9
num_leaves=31
num_cat=0
split_feature=2 2 2 2 2 2 2 2 2 2 2 2 2 22 2 1 1 1 1 1 2 2 1 2 1 172 172 173 169 1
split_gain=5758.3 1287.03 773.14 183.614 150.539 83.9967 51.8076 25.0985 24.7753 17.3591 15.1592 12.4077 9.8257 7.17933 4.96179 4.79045 4.7533 4.6225 3.88889 3.86891 3.64465 3.29362 3.03518 2.94851 2.6988 2.2084 2.13066 1.8945 1.81163 1.77966
threshold=1.9056776851182853 0.17826300949495558 4.46842031072942 0.87456715211436065 -0.24029477593180262 3.0629083128144159 6.0590379803889549 0.50501382452366972 1.3339718178036388 -0.39840620402170451 -0.04168381423509275 2.366095033339616 3.7787824886279071 -3.383854913696593 4.8908733404667446 1.6224863767186981 -0.49837900931250517 0.22782407046910594 -0.4111080280050215 0.69285695005295056 0.33963827908628297 1.1022212176720909 0.57718731584365235 0.66181217878038578 2.5918125823364035 -0.069403923298403628 0.20468965743994652 0.75529772869771405 -0.22965619920918814 0.092345687263143642
decision_type=2 2 2 2 2 2 2 2 2 2 2 2 2 2 2 2 2 2 2 2 2 2 2 2 2 2 2 2 2 2
left_child=1 4 5 7 9 11 13 20 21 -1 25 22 15 -4 -15 -7 -13 -14 -8 27 -3 29 -2 -9 -16 -6 -12 -10 -11 -5
right_child=2 3 6 8 10 12 18 23 19 28 26 16 17 14 24 -17 -18 -19 -20 -21 -22 -23 -24 -25 -26 -27 -28 -29 -30 -31
leaf_value=-0.00055623311533324919 0.0025548024855545333 0.00036274612616898254 0.0054479143733246957 0.0011530169606414895 -0.00021061949364871259 0.004127390889192682 0.007410220319662637 0.00078125654799932802 0.0016714536110011397 -0.00041619379839759996 5.7801446206606221e-05 0.0031296066418848162 0.0048551094014926037 0.0062401245690320243 0.0069288532042475507 0.0050133314833745056 0.0037848104257526857 0.0058424772891453852 0.0084871292398832465 0.0023288322620242711 0.00057701074163723489 0.001591634462788297 0.003084822859979029 0.0010167215815603647 0.0077783407026262436 -7.3259327582329302e-05 0.00022808641739177315 0.0020433770477085158 -0.00030763322767113035 0.001442923663174369
leaf_count=273663 2720 17799 401 4489 32207 1962 369 10630 2129 49943 23321 1936 987 822 1284 894 2625 924 4011 3603 14545 6490 1822 10861 536 18782 10950 4015 22742 4138
internal_value=0 -0.0212598 0.50951 0.0963499 -0.0427046 0.370108 0.769986 0.063521 0.16743 -0.0519716 -0.00505964 0.313783 0.477665 0.669728 0.688691 0.440471 0.35067 0.533252 0.83964 0.206766 0.04591 0.142068 0.276742 0.0900255 0.717903 -0.0160022 0.011221 0.19145 -0.0382227 0.129207
internal_count=531600 510307 21293 78699 431608 13870 7423 53835 24864 346348 85260 9103 4767 3043 2642 2856 4561 1911 4380 9747 32344 15117 4542 21491 1820 50989 34271 6144 72685 8627
shrinkage=0.01


Tree=10
num_leaves=31
num_cat=0
split_feature=134 134 134 134 9 134 134 134 134 134 9 134 134 134 0 134 134 9 3 3 134 134 173 134 173 134 173 134 170 173
split_gain=5695.1 1194.95 843.334 165.368 143.331 94.2279 51.2512 23.6116 20.1256 16.7987 14.4269 13.6611 11.7505 6.9543 3.21873 3.11572 3.03485 3.03466 2.98464 2.87874 2.25685 2.13484 1.59336 1.43408 1.38943 1.34351 1.13799 1.08155 1.0788 1.02415
threshold=1.8175827792586132 0.17666503684573684 4.4363540094105849 0.82271813550818884 -0.25923561155859404 2.9155374042563995 6.1049144026607651 1.2699966186808453 0.47158736727459832 -0.051137391035366082 -0.40802535295351888 3.5212581227640594 2.3272487302319864 4.9829250705142423 0.31425894973170448 1.5031944868063634 1.0050237692902007 -0.1119521842509983 0.60292197934820801 0.050161208916676255 4.0591478882663274 -0.3279950454141401 2.5307008619258253 5.3639696992623529 2.2442695664007637 -0.46542166093309117 0.31992805831883175 3.2184281151537708 1.9995964936836821 -0.19811688331540966
decision_type=2 2 2 2 2 2 2 2 2 2 2 2 2 2 2 2 2 2 2 2 2 2 2 2 2 2 2 2 2 2
left_child=1 4 5 8 10 12 13 16 14 17 25 27 22 -4 26 -9 -5 29 -10 -11 -13 -12 -2 -15 -14 -1 -3 -7 -17 -6
right_child=2 3 6 7 9 11 -8 15 18 19 21 20 24 23 -16 28 -18 -19 -20 -21 -22 -23 -24 -25 -26 -27 -28 -29 -30 -31
leaf_value=-0.00056204145729332419 0.0025461755571347341 0.00026385023222191709 0.0060786341924041736 0.0011765928984410314 -0.00028171619884406014 0.0039346210799194297 0.0083649430389525353 0.0017643551856431504 0.00070330280702936765 1.1921297584127184e-05 -0.00044138861901317614 0.0048821934792449917 0.0031883975214685753 0.0067136130549135756 0.00053873773549542429 0.0020214158707752691 0.0014547144866181138 -7.386058739734428e-05 0.00093690338702197978 0.00019264756440594917 0.0054841194100579242 -0.00033196618539670396 0.0029361494066168187 0.007289113648582958 0.0035638023999981124 -0.00049650428833391365 0.00043701360818988239 0.004337268900157629 0.0023494012283907383 -0.00017472794900588403
leaf_count=228767 3970 10276 1189 7528 20138 1625 4412 5240 10938 18734 42485 1770 2155 732 13450 3705 8365 18028 11162 16975 981 31476 1460 1116 1891 37175 6273 1186 1428 16970
internal_value=0 -0.0217529 0.492494 0.0918328 -0.0424173 0.356194 0.767655 0.156535 0.0592126 -0.00712903 -0.0518487 0.459532 0.295539 0.667649 0.0423305 0.193671 0.132298 -0.0180824 0.0821287 0.00978332 0.509684 -0.0394821 0.265103 0.706116 0.336385 -0.055288 0.0329489 0.41045 0.211266 -0.0232789
internal_count=531600 509113 22487 78365 430748 15038 7449 26266 52099 90845 339903 5562 9476 3037 29999 10373 15893 55136 22100 35709 2751 73961 5430 1848 4046 265942 16549 2811 5133 37108
shrinkage=0.01


Tree=11
num_leaves=31
num_cat=0
split_feature=2 2 2 2 2 2 2 2 2 2 2 2 2 8 15 2 8 22 2 2 15 2 2 175 22 2 177 15 15 173
split_gain=5532.33 1160.57 829.531 159.927 135.579 82.9718 64.6656 23.7247 19.6585 17.4991 14.1085 11.5422 9.10547 7.94131 6.61766 5.10234 3.84446 3.76705 3.52131 3.45815 3.13887 2.65206 2.50648 2.36412 2.26009 2.05895 1.931 1.86683 1.86369 1.79731
threshold=1.7733751019949042 0.15838179208298095 4.2773646751819454 0.78806756737923034 -0.27750844530022717 2.9284181286636057 5.6738801127830998 1.2064280675862451 0.40907089051534723 -0.082890745463038637 2.2309431643510922 -0.41827507174326212 3.6000049288131235 -0.30661585933775465 -4.7469126345041017 4.8908733404667446 1.4136023183927331 2.7410731322139177 1.4716688176777246 0.59279661833039221 -0.81670438149168934 0.96075611999556232 0.031328278738115854 0.18045841096585125 2.7410731322139177 -0.187697683880821 1.3762913264082015 2.4653920939820093 6.0905273234194208 0.95244262739994034
decision_type=2 2 2 2 2 2 2 2 2 2 2 2 2 2 2 2 2 2 2 2 2 2 2 2 2 2 2 2 2 2
left_child=1 4 5 8 11 10 14 21 23 25 24 -1 17 -8 -4 27 26 -7 -9 -10 -14 -5 -11 -3 29 -6 -12 -16 -22 -2
right_child=2 3 6 7 9 12 13 18 19 22 16 -13 20 -15 15 -17 -18 -19 -20 -21 28 -23 -24 -25 -26 -27 -28 -29 -30 -31
leaf_value=-0.00054953496590662439 0.0021252498731082598 0.00028220129124376163 0.0048645328371962416 0.0011278628008533976 -0.00026338216916461081 0.0039210823852243908 0.0070605803576726765 0.0017061528354379897 0.00066454174229214652 -5.5810709529187736e-06 0.00280966929909722 -0.00040794347148055259 0.004472452414721953 0.0082636448268533138 0.0056741888350468573 0.0068475829793707187 0.0036813062791845302 0.0047402292743266338 0.0020626298837539475 0.00089988049851033255 0.0051628072231324684 0.0013883594050650614 0.00015380848439566647 0.00047111693108357905 0.0030425630510853442 -0.00014060546655757407 0.0032945335715154596 0.0064806816655250737 0.006369130057947976 0.0025755704290988646
leaf_count=258900 1280 12895 316 7504 29644 2224 630 6276 14305 21593 1456 74284 721 4378 839 1288 1621 759 5038 11252 1134 8351 18571 13982 745 26023 1953 447 147 3044
internal_value=0 -0.0216851 0.479916 0.0892113 -0.0422617 0.342438 0.742476 0.151485 0.0569437 -0.00911063 0.290321 -0.0517967 0.448021 0.81123 0.623335 0.64014 0.327883 0.412951 0.186489 0.0768155 0.500276 0.126507 0.00681174 0.0380479 0.253049 -0.0205987 0.308745 0.595452 0.530124 0.244227
internal_count=531600 508618 22982 79603 429015 15084 7898 27169 52434 95831 10099 333184 4985 5008 2890 2574 5030 2983 11314 25557 2002 15855 40164 26877 5069 55667 3409 1286 1281 4324
shrinkage=0.01


Tree=12
num_leaves=31
num_cat=0
split_feature=134 134 134 134 134 134 134 134 134 7 3 134 134 134 134 3 3 5 169 7 134 134 134 169 134 176 174 176 175 134
split_gain=5471.86 1148.14 810.17 158.913 136.833 90.5519 49.2681 22.7076 19.3356 16.853 13.8214 13.1314 11.2742 6.68086 3.64908 3.06795 2.82717 2.37511 2.32197 2.31783 2.30741 2.16527 1.86538 1.64469 1.3844 1.36981 1.31236 1.06632 1.05362 1.04253
threshold=1.8175827792586132 0.17666503684573684 4.4363540094105849 0.82271813550818884 -0.23511857484803633 2.9155374042563995 6.1049144026607651 1.3136456352421579 0.47158736727459832 -0.3961762268246744 -0.04231779998248502 3.5212581227640594 2.3272487302319864 4.9829250705142423 1.0402416261032601 0.35605628723517574 0.65028826980138998 -0.16103264708242129 0.24234280329938845 -0.27228890290087476 1.5578290135016128 4.0591478882663274 -0.46542166093309117 2.6108879224539048 5.3639696992623529 2.140211076431211 0.19082515191701552 0.38242923082212715 -0.025661311640006585 0.041959569943823584
decision_type=2 2 2 2 2 2 2 2 2 2 2 2 2 2 2 2 2 2 2 2 2 2 2 2 2 2 2 2 2 2
left_child=1 4 5 8 9 12 13 14 15 22 17 -7 23 -4 -5 26 27 -6 29 -11 -9 -13 -1 -2 -15 -14 -3 -10 -19 -12
right_child=2 3 6 7 10 11 -8 20 16 19 18 21 25 24 -16 -17 -18 28 -20 -21 -22 -23 -24 -25 -26 -27 -28 -29 -30 -31
leaf_value=-0.00055064166939792895 0.0024977517391956759 0.00025565701015973439 0.0059578486595262097 0.0011741027620804038 -0.0002317873556396123 0.0040233193711374038 0.0081993679728625795 0.0017904472849141653 0.00060805584557965884 -0.00040529071251122389 -1.1097125265024401e-05 0.0047859676816621741 0.0031252042984694882 0.0065793503480937963 0.0014689115869141942 0.00055051203224162361 0.00094122348818379453 -0.0001421871146802636 0.00023211804616888037 -0.00028173806663421574 0.0021094612114344762 0.0053757182898324565 -0.00047906999394521334 0.0029040729878125368 0.0071450016829168496 0.0034983805490640691 0.00042284660380979079 0.00079259062007731667 -1.0199326020410709e-05 0.0001250514816354301
leaf_count=230130 4080 9662 1189 8772 23343 2811 4412 5198 5822 51109 12920 1770 2183 732 8181 10789 9076 16558 10155 22001 4115 981 44090 1350 1116 1863 9548 7202 9963 10479
internal_value=0 -0.0213223 0.482745 0.0900165 -0.041578 0.349152 0.752442 0.153444 0.0580392 -0.0503135 -0.00520555 0.450455 0.289691 0.654389 0.131637 0.0414913 0.0805017 -0.015776 0.0105031 -0.036811 0.193141 0.499627 -0.0539134 0.259877 0.692094 0.329704 0.0338756 0.07101 -0.0092604 0.00498756
internal_count=531600 509113 22487 78365 430748 15038 7449 26266 52099 347330 83418 5562 9476 3037 16953 29999 22100 49864 33554 73110 9313 2751 274220 5430 1848 4046 19210 13024 26521 23399
shrinkage=0.01


Tree=13
num_leaves=31
num_cat=0
split_feature=134 134 134 134 134 134 134 134 134 16 3 134 134 134 134 3 134 134 3 134 172 134 16 171 173 170 172 173 171 171
split_gain=5362.97 1125.29 794.066 155.75 134.109 70.4018 67.4564 22.2615 18.9502 16.6755 13.5457 9.74318 9.71478 9.05336 3.47687 3.00939 2.94013 2.86226 2.77621 2.24224 2.21144 2.1253 1.947 1.45687 1.29905 1.24161 1.1199 1.10251 1.01204 1.00589
threshold=1.8175827792586132 0.17666503684573684 4.1447373498793061 0.82271813550818884 -0.23511857484803633 5.3639696992623529 2.8622110755357397 1.2699966186808453 0.47158736727459832 -0.38701621703649086 -0.04231779998248502 2.2988936687614752 6.4434024218301955 3.4003584433908021 4.6751421395854216 0.328114174500513 1.5578290135016128 1.0050237692902007 0.60292197934820801 -0.14280387775147638 0.20468965743994652 -0.46542166093309117 -0.26124958640522083 2.8161081933934136 5.4865408370084729 2.7141957719476157 3.0884359115724624 0.32625490973892596 1.3464725633555972 0.75247148672936992
decision_type=2 2 2 2 2 2 2 2 2 2 2 2 2 2 2 2 2 2 2 2 2 2 2 2 2 2 2 2 2 2
left_child=1 4 6 8 9 14 11 17 15 21 19 23 26 -8 -4 27 -9 -5 -10 -6 -12 -1 -11 -2 -15 -13 -7 -3 -19 -20
right_child=2 3 5 7 10 12 13 16 18 22 20 25 -14 24 -16 -17 -18 28 29 -21 -22 -23 -24 -25 -26 -27 -28 -29 -30 -31
leaf_value=-0.00054495715257009295 0.0024716578372167854 0.00026148603865611049 0.0055514375975111675 0.0011415372215620174 -0.00022583899153624069 0.0067998362738533151 0.0038684137114804191 0.001742477332533225 0.00068313483981611222 -0.00039180534350607954 4.7132880893622093e-05 0.0030792324964569718 0.0081626254006591688 0.004605104461896512 0.0062785842918580579 0.00052811931369831425 0.0020883666026157884 0.0013340494946292103 0.00082465375054369388 -9.076320708192413e-05 0.00022148934370197222 -0.00047135648220029969 -0.00027273259810716707 0.0028904088105807376 0.0052240116050918037 0.0034500644832809006 0.0074015682171332392 0.00042852737896175775 0.0015721107998995277 0.0010191799973284575
leaf_count=231350 4130 10771 1291 7528 24150 457 2665 6258 10938 48331 22614 2487 4030 2066 1364 12715 4115 5636 6350 25714 10940 48051 19598 1067 417 1472 1041 6513 2729 4812
internal_value=0 -0.0211091 0.477917 0.0891163 -0.0411622 0.72637 0.335783 0.151909 0.0574588 -0.0498104 -0.00515349 0.284279 0.790665 0.427387 0.592501 0.0410764 0.187969 0.128374 0.0796967 -0.0156183 0.010398 -0.0532299 -0.0357452 0.255763 0.470904 0.321711 0.7218 0.0324431 0.141171 0.0908515
internal_count=531600 509113 22487 78365 430748 8183 14304 26266 52099 347330 83418 9156 5528 5148 2655 29999 10373 15893 22100 49864 33554 279401 67929 5197 2483 3959 1498 17284 8365 11162
shrinkage=0.01


Tree=14
num_leaves=31
num_cat=0
split_feature=2 2 2 2 2 2 2 2 2 2 2 2 2 1 1 1 1 1 0 2 1 175 1 1 2 173 29 200 178 173
split_gain=5209.43 1093.2 780.772 150.606 127.613 78.156 60.8893 22.9693 17.7964 16.4354 13.3051 10.873 8.56966 7.72089 7.16393 4.34255 4.33507 3.97675 3.87349 3.29225 2.99816 2.98202 2.84649 2.69518 2.3661 2.02153 1.78972 1.57628 1.54605 1.45847
threshold=1.7733751019949042 0.15838179208298095 4.2773646751819454 0.84971020963523813 -0.27750844530022717 2.9284181286636057 5.6738801127830998 0.46064607741435665 1.2737430121693361 -0.082890745463038637 2.2309431643510922 -0.41827507174326212 3.6000049288131235 -0.3956203147947826 -2.1697668840258042 1.0009454931063078 0.23309508080090352 -0.76499342721285302 4.9241851337658096 0.66181217878038578 0.12460165136820442 0.18045841096585125 -0.25811644497024355 0.095139356812810702 0.039045808880309889 -0.11077821168633525 -4.6190854343175296 0.24514096886844841 0.83321818596698949 -0.31208237686693113
decision_type=2 2 2 2 2 2 2 2 2 2 2 2 2 2 2 2 2 2 2 2 2 2 2 2 2 2 2 2 2 2
left_child=1 4 5 7 11 10 14 21 23 25 22 -1 15 27 26 -7 28 -14 -16 -9 -10 -3 -2 -5 -11 -6 -4 -8 -12 -13
right_child=2 3 6 8 9 12 13 19 20 24 16 29 17 -15 18 -17 -18 -19 -20 -21 -22 -23 -24 -25 -26 -27 -28 -29 -30 -31
leaf_value=-0.00053328072413150434 0.0021915469739160758 0.00029330660515543104 0.0043126150062855551 0.0011738741536638628 -0.0002459439850263838 0.0037188689990938178 0.0071637867242097851 0.00071325262580689604 0.0016870127021430099 -1.3987801977620911e-06 0.0025737302747548076 -0.0004313669938678671 0.0043111417404754033 0.0080247149957136596 0.0059524728460286658 0.004515191681008242 0.003496410046144845 0.005222985685445756 0.0068151259019238056 0.000952742982256536 0.0020439448820360885 0.00049000613864473672 0.0026704760507280001 0.0014458505476289912 0.00015457452023029581 -0.00011989976409345603 0.0054825449712940901 0.0060560773950484063 0.0030831922467196315 -0.00033943654686442227
leaf_count=258900 2276 14446 170 7639 35308 1901 480 14238 4900 22857 931 45580 808 4348 1134 1082 2353 1194 976 9765 4616 16883 2793 7116 17307 20359 610 180 1746 28704
internal_value=0 -0.0210427 0.465699 0.086587 -0.0410132 0.332324 0.720427 0.0577762 0.152269 -0.00885056 0.281741 -0.0502639 0.434797 0.787144 0.604815 0.400771 0.31822 0.485497 0.63515 0.0810683 0.186015 0.0399307 0.245544 0.130504 0.00658114 -0.0199846 0.522756 0.686168 0.290601 -0.0395844
internal_count=531600 508618 22982 79603 429015 15084 7898 55332 24271 95831 10099 333184 4985 5008 2890 2983 5030 2002 2110 24003 9516 31329 5069 14755 40164 55667 780 660 2677 74284
shrinkage=0.01


Tree=15
num_leaves=31
num_cat=0
split_feature=2 2 2 2 2 2 2 2 2 2 2 2 2 15 2 1 1 1 1 1 2 1 171 1 1 172 174 173 5 171
split_gain=5105.92 1141.57 685.055 162.838 133.47 74.47 46.0925 22.8704 21.3313 15.3933 13.3824 11.0444 8.71247 6.68662 4.74063 4.3422 4.26897 4.18335 3.48256 3.44608 3.24534 2.82162 2.78146 2.71043 2.38702 2.24319 1.8499 1.79283 1.78444 1.73512
threshold=1.9056776851182853 0.17826300949495558 4.46842031072942 0.88299934878165842 -0.24029477593180262 3.0629083128144159 6.0590379803889549 0.50501382452366972 1.3339718178036388 -0.39840620402170451 -0.031244388855594593 2.366095033339616 3.7787824886279071 -4.3831824562073818 4.8908733404667446 2.4074212227034373 -0.49837900931250517 0.22782407046910594 -0.4111080280050215 0.69285695005295056 0.33963827908628297 0.095139356812810702 0.71624294461168103 0.57718731584365235 2.5918125823364035 -0.069403923298403628 0.19594375701417169 0.75529772869771405 1.6689303757876452 -0.2551270009994116
decision_type=2 2 2 2 2 2 2 2 2 2 2 2 2 2 2 2 2 2 2 2 2 2 2 2 2 2 2 2 2 2
left_child=1 4 5 7 9 11 13 20 21 -1 25 23 15 -4 -15 -7 -13 -14 -8 27 -3 -5 -9 -2 -16 -6 -12 -10 -21 -11
right_child=2 3 6 8 10 12 18 22 19 29 26 16 17 14 24 -17 -18 -19 -20 28 -22 -23 -24 -25 -26 -27 -28 -29 -30 -31
leaf_value=-0.00052381095750583188 0.0024046795572178195 0.00034162705955416992 0.0049901918233304782 0.0012100243038967338 -0.00019617989011229094 0.003932925186697963 0.0069730753356686782 0.00075305234927201424 0.0015661219573042653 -0.00039622814587537497 5.9278418645243306e-05 0.0029458125559771861 0.0045675764457825596 0.005854641691634529 0.0065262059019636056 0.0048596552321139505 0.0035669600540541471 0.0055071906976047018 0.0079926277671452332 0.0019726281419302607 0.00054391516636783516 0.0014882218241077173 0.00098215002626660672 0.002905836769519732 0.007323180176803298 -6.076939047037021e-05 0.00022141540133409999 0.0019280880848096585 0.002421490036293042 -0.00029302244514794399
leaf_count=273663 2720 17799 345 7649 33188 2193 369 12446 2129 47125 21589 1936 987 855 1306 663 2625 924 4011 1827 14545 7109 9404 1822 537 19790 10693 4015 1776 25560
internal_value=0 -0.0200193 0.479781 0.0907456 -0.040216 0.34856 0.724971 0.0601552 0.158398 -0.048942 -0.00476904 0.295524 0.449836 0.630401 0.647201 0.414806 0.33033 0.50219 0.790673 0.194728 0.0432595 0.134403 0.0851653 0.260572 0.675842 -0.0145597 0.0112984 0.180266 0.219388 -0.0359935
internal_count=531600 510307 21293 78699 431608 13870 7423 54194 24505 346348 85260 9103 4767 3043 2698 2856 4561 1911 4380 9747 32344 14758 21850 4542 1843 52978 32282 6144 3603 72685
shrinkage=0.01


Tree=16
num_leaves=31
num_cat=0
split_feature=134 134 134 134 2 134 134 134 134 2 134 134 2 134 134 2 134 134 2 134 134 171 171 176 134 176 177 171 176 171
split_gain=5050.58 1060.17 748.063 153.782 120.548 83.6543 45.47 20.9909 19.764 16.1893 12.0933 10.3954 9.8746 6.19116 3.3672 3.01331 2.98633 2.77268 2.38497 2.13407 1.97927 1.45959 1.41224 1.31282 1.26047 1.10082 1.07695 0.98336 0.974884 0.952348
threshold=1.8175827792586132 0.15810639332305862 4.4363540094105849 0.82271813550818884 -0.28244940619215725 2.9155374042563995 6.1049144026607651 1.3136456352421579 0.45419348855022357 -0.073368516125368211 3.5212581227640594 2.3272487302319864 -0.42188639484110696 4.9829250705142423 1.0402416261032601 0.30595489255976671 0.64322281430549033 -0.15591168542039516 0.070721942940417434 1.5578290135016128 4.0591478882663274 2.5538798342199791 -0.25341482546873828 2.140211076431211 5.3639696992623529 0.27155159385911859 0.76513479655875305 1.4679750968744107 0.42820845860792661 0.5815023086264316
decision_type=2 2 2 2 2 2 2 2 2 2 2 2 2 2 2 2 2 2 2 2 2 2 2 2 2 2 2 2 2 2
left_child=1 4 5 8 12 11 13 14 15 17 26 21 -1 -4 -5 25 28 -6 -11 -9 -12 -2 -14 -13 -15 -3 -7 -16 -10 -17
right_child=2 3 6 7 9 10 -8 19 16 18 20 23 22 24 27 29 -18 -19 -20 -21 -22 -23 -24 -25 -26 -27 -28 -29 -30 -31
leaf_value=-0.00052348729857689639 0.002396142523844123 0.00022659503032190762 0.0057231781721315631 0.0011283125868602308 -0.00025016041667900383 0.0034712438352366604 0.0078778610970227161 0.0017207521292568759 0.00057929218102941533 4.5540552267707383e-06 0.0045986179360477933 0.002998626341576553 -0.0004211219127256134 0.006324182406189989 0.0013397865461025665 0.00043040540373523315 0.00089646047365700074 -0.00010822704125947089 0.0001681463092432468 0.0020277093740384959 0.0051628308071091271 0.00277011006353647 -0.00032487083764305247 0.0033641267667054108 0.0068644855264908102 0.00038950944271534861 0.0039657725365882255 0.0015840812360147464 0.00075046828237404191 0.00061240116155414782
leaf_count=255876 3975 10663 1189 8772 36763 567 4412 5198 6730 23060 1770 2183 53482 732 5776 8771 9764 22383 14825 4115 981 1455 21960 1863 1116 7096 2244 2405 6993 4481
internal_value=0 -0.0204851 0.463789 0.0846088 -0.0403003 0.335418 0.722943 0.14747 0.0543123 -0.00929735 0.432788 0.278267 -0.0493799 0.628743 0.126502 0.0377266 0.0762111 -0.0196448 0.00685703 0.185638 0.479981 0.249635 -0.0393105 0.316692 0.665047 0.0291691 0.386602 0.14116 0.0666521 0.0491945
internal_count=531600 509113 22487 80764 428349 15038 7449 26266 54498 97031 5562 9476 331318 3037 16953 31011 23487 59146 37885 9313 2751 5430 75442 4046 1848 17759 2811 8181 13723 13252
shrinkage=0.01


Tree=17
num_leaves=31
num_cat=0
split_feature=134 134 134 134 0 134 134 134 134 134 134 134 134 134 3 3 3 0 134 134 134 134 134 173 16 173 174 178 170 179
split_gain=4950.07 1039.12 733.176 143.896 124.4 81.989 44.5646 23.3605 15.2867 13.9201 13.5512 11.8521 10.1913 6.06736 3.85677 2.72199 2.46918 2.3625 2.09101 1.93928 1.84921 1.73884 1.45071 1.40163 1.35533 1.34118 1.24249 1.06147 0.965503 0.961435
threshold=1.8175827792586132 0.17666503684573684 4.4363540094105849 0.90216752584247339 -0.25139692903316108 2.9155374042563995 6.1049144026607651 0.52371574753342176 1.3136456352421579 -0.051137391035366082 -0.4159896466775756 3.5212581227640594 2.2988936687614752 4.9829250705142423 0.35605628723517574 0.68405504916429527 0.089532958566369156 -0.12550910829496745 1.5578290135016128 4.0591478882663274 -0.28096813195060788 1.1027834821256646 2.6514178959644727 2.5307008619258253 -0.44626125749957879 0.31992805831883175 2.8369616551397265 4.3593200190100934 0.59591550502708712 0.18687478313072811
decision_type=2 2 2 2 2 2 2 2 2 2 2 2 2 2 2 2 2 2 2 2 2 2 2 2 2 2 2 2 2 2
left_child=1 4 5 7 10 12 13 14 21 17 24 27 23 -4 25 29 -11 -6 -10 -13 -12 -5 -14 -2 -1 -3 -15 -7 -16 -9
right_child=2 3 6 8 9 11 -8 15 18 16 20 19 22 26 28 -17 -18 -19 -20 -21 -22 -23 -24 -25 -26 -27 -28 -29 -30 -31
leaf_value=-0.00052507292980492415 0.002357865805094961 0.00026294966076260745 0.0056659463907711835 0.0012071417557559692 -0.00021734520898371968 0.0037332625317848269 0.0077990822654795027 0.00059946131303288447 0.0017035446108048589 2.8839846888812157e-05 -0.00039287466708231385 0.0045526317570590029 0.0029695628510582068 0.0062087606276574206 0.00048213437788881193 0.00096186930987290106 0.00020282993465220336 -7.8192478424294728e-05 0.0020074322922868184 0.0051112024994922102 -0.00027990701317612889 0.0014377213829265989 0.003351829593924317 0.0027351930504083983 -0.00046420205842056161 0.00043200689092847121 0.0067674850058305844 0.004239994320889999 0.00065618716509123845 0.00079876096786090744
leaf_count=223330 3834 12097 1189 7437 32482 2289 4412 3672 5198 22836 54089 1770 2631 607 8844 10008 12930 19941 4115 981 20234 6020 1648 1363 44906 7951 1241 522 5229 7794
internal_value=0 -0.0202802 0.459151 0.0856407 -0.0395502 0.332064 0.715714 0.0582141 0.152605 -0.00605276 -0.0481738 0.42846 0.275484 0.622456 0.0419419 0.0840698 0.00917401 -0.0164413 0.183782 0.475182 -0.036212 0.131029 0.311679 0.245683 -0.0514882 0.0329997 0.658396 0.382736 0.0546806 0.0734935
internal_count=531600 509113 22487 78365 430748 15038 7449 55595 22770 88189 342559 5562 9476 3037 34121 21474 35766 52423 9313 2751 74323 13457 4279 5197 268236 20048 1848 2811 14073 11466
shrinkage=0.01


Tree=18
num_leaves=31
num_cat=0
split_feature=2 2 2 2 2 2 2 2 2 2 2 2 2 1 1 5 1 1 1 1 2 1 2 1 175 169 5 5 173 71
split_gain=4808.06 1009.05 720.222 139.142 117.73 72.2018 56.2639 20.7129 17.0862 15.7966 10.4589 9.84687 9.49753 7.15478 6.68886 4.81987 4.54443 3.9002 3.51758 3.12912 2.99768 2.62367 2.53255 2.46161 2.13972 1.86415 1.84715 1.79848 1.79381 1.57373
threshold=1.7733751019949042 0.15838179208298095 4.2773646751819454 0.78806756737923034 -0.28244940619215725 2.8262864595817416 5.6738801127830998 1.2064280675862451 0.40907089051534723 -0.095421345809139954 3.4321684244266413 2.2309431643510922 -0.41827507174326212 -0.3956203147947826 -2.1697668840258042 4.8525706325807594 -0.70627429447625989 1.6471779403973323 0.41406801220489214 0.69285695005295056 0.59279661833039221 -0.25811644497024355 0.031328278738115854 0.63065287325147124 0.18045841096585125 -0.13321435859364536 4.0728152868540768 1.5397985770953213 0.75529772869771405 -4.3798874088051187
decision_type=2 2 2 2 2 2 2 2 2 2 2 2 2 2 2 2 2 2 2 2 2 2 2 2 2 2 2 2 2 2
left_child=1 4 5 8 12 11 14 23 24 25 17 21 -1 -8 29 -16 -12 -7 -13 28 -10 -2 -11 -5 -3 -6 -18 -21 -9 -4
right_child=2 3 6 7 9 10 13 19 20 22 16 18 -14 -15 15 -17 26 -19 -20 27 -22 -23 -24 -25 -26 -27 -28 -29 -30 -31
leaf_value=-0.00051235124365688143 0.0021054713483507005 0.00026116323156056518 0.0039527098623414834 0.0010878831118740393 -0.00024824591990795094 0.0034548891870040854 0.006589672137164708 0.001408298153007438 0.00061965392271963471 -1.2590494489560669e-05 0.0040507308362323921 0.0027529556592096717 -0.00038259645995186633 0.007709424611602558 0.0056242449421062355 0.0065831058665033531 0.004703886323568658 0.004249071854075877 0.0033248141534817526 0.0017528034208581622 0.00083890976775097617 0.0025654767996308452 0.00014341064230475751 0.0013511636139519026 0.0004410077954657647 -0.00012756083618998222 0.0055152790208868388 0.0021742263147570781 0.001736997410231882 0.0052094622514013093
leaf_count=258900 2276 12895 120 10347 33585 2123 660 2705 14305 24318 1068 2445 72418 4348 1058 1052 1170 882 1950 2087 11252 2793 18571 5508 13982 21223 377 2032 4490 660
internal_value=0 -0.0202158 0.4474 0.0831887 -0.0394024 0.3193 0.692051 0.141276 0.0530904 -0.00889225 0.4091 0.265974 -0.048399 0.756185 0.580915 0.610231 0.455411 0.368799 0.300668 0.173985 0.0716186 0.235893 0.00549582 0.117935 0.0354722 -0.0201514 0.490162 0.19607 0.161342 0.501612
internal_count=531600 508618 22982 79603 429015 15084 7898 27169 52434 97697 5620 9464 331318 5008 2890 2110 2615 3005 4395 11314 25557 5069 42889 15855 26877 54808 1547 4119 7195 780
shrinkage=0.01


Tree=19
num_leaves=31
num_cat=0
split_feature=2 2 2 2 2 2 2 2 2 2 2 2 2 43 2 22 8 8 178 175 22 2 22 172 172 43 172 177 2 8
split_gain=4712.52 1053.72 631.937 150.449 123.166 68.7592 42.6404 20.49 20.2658 14.2636 12.3414 10.2509 8.04515 6.38099 4.00658 3.50653 3.19632 3.12041 3.08609 3.02165 2.82126 2.80426 2.78933 2.58465 2.08476 2.05874 2.02554 1.90844 1.74349 1.67996
threshold=1.9056776851182853 0.17826300949495558 4.46842031072942 0.87456715211436065 -0.24029477593180262 3.0629083128144159 6.0590379803889549 0.50501382452366972 1.3339718178036388 -0.39143179570830705 -0.03898616719662077 2.4872281965890557 3.7787824886279071 -2.719632721291013 4.8908733404667446 3.5525678851208147 0.96921650183362751 -0.22163611585358478 0.68551168825807163 0.30828826806479209 1.1744153701312332 1.1022212176720909 2.8414669963657837 0.65523560298287387 1.5481075611895767 2.7450187522052971 -0.10129851366625468 0.12560227070867722 -0.45393868985523705 2.1966974970614053
decision_type=2 2 2 2 2 2 2 2 2 2 2 2 2 2 2 2 2 2 2 2 2 2 2 2 2 2 2 2 2 2
left_child=1 4 5 7 9 11 13 19 21 28 26 22 15 -4 -15 -7 -14 -8 -10 -3 -13 -5 24 -9 -2 -20 -6 -12 -1 -16
right_child=2 3 6 8 10 12 17 23 18 -11 27 20 16 14 29 -17 -18 -19 25 -21 -22 -23 -24 -25 -26 -27 -28 -29 -30 -31
leaf_value=-0.00051481086440356802 0.0022201490177634403 0.00032505572079864829 0.0050243679031966226 0.0011670988883457939 -0.00019575079336030187 0.0038093631655049566 0.0067132472178420511 0.00071120498102775654 0.0016307091143406799 -0.00034025307581127338 4.3414301459854605e-05 0.0030272908538032917 0.0044870120560369332 0.0056690622345736278 0.0062887701785380029 0.0046886318893386769 0.0053243746365290237 0.0076776250409812405 0.0019388115763556766 0.0005198129437391473 0.0036039898199470423 0.0014437297708189865 0.003080023810461345 0.00093232646935676085 0.0026528533813228511 0.0025140585510708981 -6.7210632553423027e-05 0.00019941734130496841 -0.00045239770713358948 0.0069377031339251469
leaf_count=220976 1963 17318 504 8627 30511 2284 370 11482 3472 68030 20857 2152 1139 796 1099 572 772 4010 5563 15026 1425 6490 903 10009 2660 712 21006 12886 57342 644
internal_value=0 -0.0192326 0.460928 0.0871848 -0.0386366 0.334896 0.69642 0.0574677 0.151528 -0.0470191 -0.00458503 0.283933 0.432213 0.605458 0.625908 0.398546 0.482529 0.759616 0.187108 0.0415534 0.325704 0.128586 0.256895 0.0814188 0.246912 0.200408 -0.0143339 0.010299 -0.0501952 0.652854
internal_count=531600 510307 21293 78699 431608 13870 7423 53835 24864 346348 85260 9103 4767 3043 2539 2856 1911 4380 9747 32344 3577 15117 5526 21491 4623 6275 51517 33743 278318 1743
shrinkage=0.01


Tree=20
num_leaves=31
num_cat=0
split_feature=5 7 5 5 7 5 5 7 7 7 7 8 5 43 8 5 8 176 12 18 176 173 175 29 179 173 170 29 5 176
split_gain=4598.01 1003.73 640.861 134.085 124.234 58.1188 56.2079 18.4425 17.6551 13.4544 13.3352 12.9187 9.51338 8.92842 6.42719 5.51659 4.34136 4.30867 3.98308 3.93988 3.37042 3.16811 2.79884 2.72768 2.72277 2.51656 2.41886 2.13525 1.95816 1.80083
threshold=1.9416979911514971 0.18512573391093404 4.2553810292056538 0.91607264431208679 -0.24828253184412716 5.7746192591668075 3.0637454620567364 1.3217809592003269 0.49761148897366736 -0.046038371683072364 -0.40129541067005042 -2.6064381974808435 2.4102423628600778 -3.7355792273185195 -1.1528582491420889 4.8525706325807594 -1.5671416164137679 0.29100632491634765 3.6552874258426526 3.406727236970593 0.29100632491634765 0.71386548745101208 0.60127047729328276 1.9387186588988532 0.18687478313072811 0.23603571542719584 -0.079544520678726083 -0.1587087776876191 1.6689303757876452 -0.25827993009292632
decision_type=2 2 2 2 2 2 2 2 2 2 2 2 2 2 2 2 2 2 2 2 2 2 2 2 2 2 2 2 2 2
left_child=1 4 6 8 10 13 12 17 20 26 -1 -7 22 -4 19 -15 -14 -5 -16 -8 -3 -9 -2 -19 -10 -11 -6 -13 -23 -12
right_child=2 3 5 7 9 11 14 21 24 25 29 27 16 15 18 -17 -18 23 -20 -21 -22 28 -24 -25 -26 -27 -28 -29 -30 -31
leaf_value=-0.00049852446696525669 0.0019766193324454056 0.0003120310124066452 0.0042005359868128459 0.00097701777893734708 -0.00020114305656015953 0.0053474489608396816 0.0030028028469465239 0.0015215478538760272 0.00062195471891670164 4.8074769621413963e-05 -0.00038282065027088913 0.0066508817815692668 0.0025575389076865503 0.0053673116352174668 0.0040946847109447617 0.0062574303152118527 0.0032551185141495957 0.0012739172946391708 0.004867151756285471 0.0040321111033965904 0.00052355938981943535 0.0017831291283696607 0.0025519430815601975 0.0016721943063564646 0.00086655727161208678 0.00023209450719799025 -6.0490100215877397e-05 0.0075719613252288815 0.0021375204193379198 -0.00027780829388658422
leaf_count=270954 1110 16148 372 4368 32914 292 690 2819 6775 25271 47376 271 1245 1287 1917 1535 3226 9538 1036 820 14356 3988 3715 2126 14338 10706 19840 4383 2625 25559
internal_value=0 -0.0192774 0.448683 0.0858552 -0.0380091 0.671096 0.3171 0.145243 0.0565576 -0.0046442 -0.046618 0.739016 0.272802 0.56592 0.409369 0.585148 0.306087 0.124584 0.436569 0.356176 0.0411582 0.180358 0.241959 0.134651 0.0788066 0.0102835 -0.0148246 0.751833 0.19238 -0.0346021
internal_count=531600 509701 21899 77081 432620 8140 13759 25464 51617 88731 343889 4946 9296 3194 4463 2822 4471 16032 2953 1510 30504 9432 4825 11664 21113 35977 52754 4654 6613 72935
shrinkage=0.01


Tree=21
num_leaves=31
num_cat=0
split_feature=134 134 134 134 2 134 134 134 134 2 134 134 134 134 170 134 134 134 168 134 134 170 173 134 16 175 2 134 177 170
split_gain=4570.66 959.93 676.904 133.092 115.335 75.6463 41.0541 19.0011 16.1981 13.0833 11.9491 10.9526 9.4184 5.62596 2.63834 2.54561 2.41444 2.38255 2.30968 2.24568 1.77308 1.62409 1.34288 1.32766 1.25477 1.18625 1.13489 1.13418 1.06 1.00821
threshold=1.8175827792586132 0.17666503684573684 4.4363540094105849 0.82271813550818884 -0.25515315885702033 2.9155374042563995 6.1049144026607651 1.2699966186808453 0.47158736727459832 -0.059369182207953362 -0.4159896466775756 3.5212581227640594 2.2988936687614752 4.9829250705142423 0.44214397886766593 1.5031944868063634 1.0050237692902007 0.64322281430549033 0.21588804760866573 -0.14280387775147638 4.0591478882663274 -0.23544121474569471 2.5307008619258253 2.6514178959644727 -0.44626125749957879 2.749999033222188 0.26706812925345391 -0.010025427344327768 0.76513479655875305 1.9995964936836821
decision_type=2 2 2 2 2 2 2 2 2 2 2 2 2 2 2 2 2 2 2 2 2 2 2 2 2 2 2 2 2 2
left_child=1 4 5 8 10 12 13 16 14 19 24 28 22 -4 26 -9 -5 -10 27 -6 -13 -12 -2 -14 -1 -15 -3 -11 -7 -17
right_child=2 3 6 7 9 11 -8 15 17 18 21 20 23 25 -16 29 -18 -19 -20 -21 -22 -23 -24 -25 -26 -27 -28 -29 -30 -31
leaf_value=-0.00050459419555346505 0.00226399537811836 0.00022991478615757722 0.0054441144531067933 0.0010554553848120666 -0.00021786224357109996 0.0032855135139334139 0.0074934086253560898 0.0015808765671081763 0.00064319925467267098 -5.2438888045709595e-05 -0.00038067613983742223 0.0043754378810609128 0.0028544471256720934 0.0059715714912329399 0.00050331360032805899 0.0018077506302911208 0.0013038369908685875 0.00085359326088385536 0.00019756609482333119 -8.3290176582971848e-05 0.00490991794658971 -0.00027572750665961034 0.0026334989695691573 0.0032204858927582887 -0.00044604260897921114 0.0065127847741292223 0.00038637828081200434 8.4910802063223589e-05 0.0037762414111710968 0.0021251235376978147
leaf_count=223330 3834 9600 1189 7528 30885 567 4412 5240 12336 10530 51742 1770 2631 630 10964 3705 8365 9764 11976 21186 981 21159 1363 1648 45032 1218 9435 14908 2244 1428
internal_value=0 -0.0194875 0.441204 0.0823177 -0.0380087 0.319091 0.687725 0.140365 0.0530528 -0.00604966 -0.0463889 0.411685 0.264743 0.598213 0.0379046 0.173683 0.118619 0.0736153 0.00823146 -0.0163109 0.456603 -0.0350216 0.23609 0.299542 -0.0494769 0.632828 0.0307468 0.00280552 0.367726 0.189604
internal_count=531600 509113 22487 78365 430748 15038 7449 26266 52099 89485 341263 5562 9476 3037 29999 10373 15893 22100 37414 52071 2751 72901 5197 4279 268362 1848 19035 25438 2811 5133
shrinkage=0.01


Tree=22
num_leaves=31
num_cat=0
split_feature=0 0 0 0 0 0 0 0 0 0 0 0 1 1 4 5 5 1 1 1 1 1 4 0 175 172 5 172 169 0
split_gain=4431.6 982.255 602.348 134.555 120.292 61.3129 45.4702 18.6832 17.693 13.7317 12.2858 9.10291 8.6621 7.21698 5.86004 5.49215 4.6933 3.89911 3.76549 3.48711 3.33964 3.14435 2.99266 2.96745 2.63595 2.14609 1.90316 1.88034 1.65685 1.63491
threshold=1.8870635203844539 0.19052436062683628 4.374395141291731 0.88328331155593187 -0.23784028585946584 3.0048560172761927 6.0310629355300529 0.48602335194013124 1.3413522571588408 -0.39395805591892935 -0.029405985976011028 2.4100542576577921 1.0685562224181486 -2.1445893095543855 3.6686381476445162 4.8525706325807594 3.8371236827137332 -0.4244896043742869 -0.63409350350938565 0.12460165136820442 0.90642893052780071 0.095139356812810702 4.8780787050690195 0.68367512097463234 0.30828826806479209 -0.069403923298403628 1.6689303757876452 0.20468965743994652 -0.20457348476983342 -0.4533494312260003
decision_type=2 2 2 2 2 2 2 2 2 2 2 2 2 2 2 2 2 2 2 2 2 2 2 2 2 2 2 2 2 2
left_child=1 4 5 7 9 11 13 24 21 29 25 20 14 22 -7 -15 -14 -8 -13 -10 -2 -5 -4 -9 -3 -6 -21 -12 -11 -1
right_child=2 3 6 8 10 12 17 23 19 28 27 18 16 15 -16 -17 -18 -19 -20 26 -22 -23 -24 -25 -26 -27 -28 -29 -30 -31
leaf_value=-0.00049946132203313798 0.0022554710007243774 0.00031327793150400136 0.0044949635267565562 0.0011176889510260786 -0.0001831613797899484 0.003451958250416698 0.0064279047808281468 0.00068344136951987305 0.0016262926836830799 -0.00036153164394936671 5.888832682427854e-05 0.0027061094613839765 0.0042332925082798996 0.0054551007322050857 0.0043607058468218829 0.0064651249436168739 0.0052791133187812204 0.0074511089738352604 0.0033420380839138974 0.001829389219536648 0.0027937147637742987 0.0014097496180383016 0.0056550983643617152 0.00091238029031750361 0.00050444359503437088 -5.0278154595784561e-05 0.0022482242475533494 0.00021926678338212135 -0.00025300152725397403 -0.00043788151357634941
leaf_count=221966 3385 15744 484 7812 32804 1928 414 13407 4846 50404 22352 1586 1041 862 1132 1455 738 4014 2299 2482 1772 7107 419 9973 13594 19739 1982 11123 20005 54731
internal_value=0 -0.018758 0.444419 0.0853571 -0.0372546 0.320258 0.66977 0.0570047 0.147047 -0.0455518 -0.00377327 0.271626 0.411129 0.57932 0.378814 0.608936 0.466714 0.735544 0.308243 0.181284 0.244042 0.125682 0.503328 0.0781098 0.0401856 -0.0133241 0.201535 0.0112179 -0.0330695 -0.0487281
internal_count=531600 510071 21529 76947 433124 13881 7648 52718 24229 347106 86018 9042 4839 3220 3060 2317 1779 4428 3885 9310 5157 14919 903 23380 29338 52543 4464 33475 70409 276697
shrinkage=0.01


Tree=23
num_leaves=31
num_cat=0
split_feature=134 134 134 134 2 134 134 134 134 2 134 134 134 134 134 134 2 2 134 134 134 173 176 174 171 166 173 185 176 173
split_gain=4391.17 922.565 650.248 133.987 104.549 72.7419 39.4746 18.2806 17.2336 14.6347 10.5172 9.05247 7.95464 5.42116 2.89972 2.61576 2.54877 2.53685 2.20103 1.87291 1.69932 1.37198 1.26097 1.18147 1.10664 1.052 1.01994 1.00422 0.975586 0.966558
threshold=1.8175827792586132 0.15810639332305862 4.4363540094105849 0.82271813550818884 -0.28899747968530104 2.9155374042563995 6.1049144026607651 1.3136456352421579 0.45419348855022357 -0.095421345809139954 3.5212581227640594 2.3272487302319864 -0.41942044334596218 4.9829250705142423 1.0402416261032601 0.64322281430549033 0.039045808880309889 0.30595489255976671 -0.18927384887672508 1.5578290135016128 4.0591478882663274 2.5307008619258253 2.140211076431211 2.8369616551397265 -0.27698515285785769 -0.38446175078467465 0.17236961666676706 3.8026581650832942 0.27155159385911859 0.64991780331279136
decision_type=2 2 2 2 2 2 2 2 2 2 2 2 2 2 2 2 2 2 2 2 2 2 2 2 2 2 2 2 2 2
left_child=1 4 5 8 12 11 13 14 17 18 27 21 25 -4 -5 29 -11 28 -6 -9 -12 -2 -13 -15 -14 -1 -18 -7 -3 -10
right_child=2 3 6 7 9 10 -8 19 15 16 20 22 24 23 -16 -17 26 -19 -20 -21 -22 -23 -24 -25 -26 -27 -28 -29 -30 -31
leaf_value=-0.00049292328320220706 0.0022300645808269381 0.00021168622508008827 0.0053348004980885355 0.0010534750698059088 -0.0002528307270596383 0.0034990771718997416 0.0073449280074479248 0.001605169530315615 0.00055508217046436195 -2.0737227235042067e-05 0.0042892310966206135 0.0027883875328131055 -0.00038982592060858324 0.0058367127160460401 0.0013165528285350827 0.00083689509449146927 7.739430322317061e-05 0.00045698305653916853 -0.00012706222646050266 0.001893009047973805 0.004812664949808889 0.0025924742352982904 0.003146763014348681 0.0063818773617675285 -0.00029882615091101483 -0.00042838367207138759 0.00023126662103081894 0.0039525614662959084 0.00036531494474176067 0.00073081032844631954
leaf_count=236660 3970 10663 1189 8772 31621 2155 4412 5198 8533 23730 1770 2183 42662 607 8181 9764 11631 13252 25462 4115 981 1460 1863 1241 20237 29179 7167 656 7096 5190
internal_value=0 -0.0191011 0.432455 0.0789355 -0.0375856 0.31277 0.674073 0.137612 0.0506556 -0.00920024 0.40357 0.259475 -0.0461867 0.586298 0.118043 0.0711068 0.00485696 0.0351663 -0.0196731 0.173235 0.447589 0.232751 0.29534 0.620281 -0.0360548 -0.0485839 0.013606 0.360491 0.0273072 0.0621542
internal_count=531600 509113 22487 80764 428349 15038 7449 26266 54498 99611 5562 9476 328738 3037 16953 23487 42528 31011 57083 9313 2751 5430 4046 1848 62899 265839 18798 2811 17759 13723
shrinkage=0.01


Tree=24
num_leaves=31
num_cat=0
split_feature=134 134 134 134 134 134 134 134 134 9 134 134 134 134 134 134 134 9 9 134 173 171 173 170 170 174 173 173 170 134
split_gain=4303.82 924.734 614.061 130.957 109.787 66.3405 38.6885 19.9296 15.0169 13.3707 10.9257 10.3073 7.80299 5.31268 3.09659 2.37961 2.37514 2.16913 2.01241 1.68504 1.66796 1.60331 1.58786 1.57063 1.18348 1.15737 1.00903 1.00773 1.00688 0.998448
threshold=1.8626560091252919 0.18126068873302895 4.4363540094105849 0.90216752584247339 -0.23511857484803633 2.9155374042563995 6.1049144026607651 0.52371574753342176 1.3879785491062024 -0.38894133421688953 -0.047137456061548233 3.5212581227640594 2.4199786804822687 4.9829250705142423 0.35154415961915536 0.68218580202082957 1.1300606545993477 0.089492538925949147 -0.12347860390436918 -0.46542166093309117 5.4865408370084729 -0.23717000206118313 1.7026609923509211 2.6045586710621054 0.38984840807569715 2.8369616551397265 1.9224328783174887 1.0535169269214906 0.59591550502708712 3.9381665968322457
decision_type=2 2 2 2 2 2 2 2 2 2 2 2 2 2 2 2 2 2 2 2 2 2 2 2 2 2 2 2 2 2
left_child=1 4 5 7 9 12 13 14 16 19 18 -7 23 -4 24 -9 -5 -12 -6 -1 29 -11 -10 -2 -3 -15 -14 -17 -16 -13
right_child=2 3 6 8 10 11 -8 15 22 21 17 20 26 25 28 27 -18 -19 -20 -21 -22 -23 -24 -25 -26 -27 -28 -29 -30 -31
leaf_value=-0.00048840542806898144 0.0022709934845772232 0.00024842015857490354 0.0052814525016172276 0.0011386377527484728 -0.00019155232358614122 0.0035688572393929737 0.0072714789502207845 0.00067649323678677499 0.0016820057373526953 -0.00035651241412261567 2.8846092092047439e-05 0.0041050727762660735 0.0027947156233412607 0.0057783455692563069 0.00044146358284116477 0.00082396269459453989 0.0013916035216620553 0.00019104325727544141 -5.554509482760433e-05 -0.00042219466334844191 0.0049230911981227787 -0.00025367765168774273 0.0019763280184428378 0.0026495227076011691 0.00041606527867167376 0.0063180586325843717 0.0031519931662800783 0.0010356482553338401 0.00061731056106417031 0.0045395631356378316
leaf_count=232045 4061 12065 1189 8274 30705 2811 4412 10536 5320 44604 22890 1180 1488 607 9590 7609 6887 13168 17241 47055 559 23626 2878 1541 6724 1241 1797 3329 5156 1012
internal_value=0 -0.0186501 0.434102 0.0812797 -0.036806 0.313864 0.667332 0.0546384 0.144018 -0.0446531 -0.00436089 0.399534 0.260246 0.580435 0.0393956 0.0784425 0.125355 0.00880788 -0.0142645 -0.0477243 0.443113 -0.0320904 0.178533 0.237512 0.0308415 0.614078 0.299016 0.088839 0.0502949 0.430567
internal_count=531600 509702 21898 78368 431334 14449 7449 55009 23359 347330 84004 5562 8887 3037 33535 21474 15161 36058 47946 279100 2751 68230 8198 5602 18789 1848 3285 10938 14746 2192
shrinkage=0.01


Tree=25
num_leaves=31
num_cat=0
split_feature=5 7 5 5 7 4 5 4 7 7 1 16 1 1 4 5 1 5 5 4 4 176 4 5 4 178 170 178 4 1
split_gain=4159.9 908.342 579.216 121.358 112.412 56.1428 50.9133 18.1152 16.0123 13.5288 11.084 10.685 9.16458 8.85973 8.42163 7.77564 4.99871 3.71847 3.5769 3.26446 3.18968 3.1185 2.86452 2.64482 2.63282 2.54303 2.53849 2.40727 2.3631 2.15401
threshold=1.9416979911514971 0.18512573391093404 4.2553810292056538 0.91607264431208679 -0.26210408565785032 5.3942292037179937 3.0637454620567364 1.230578871632426 0.49761148897366736 -0.048128327443849088 -2.0459391300920693 -0.4056749733475174 -1.6111602311463205 -1.5450226458398617 6.5721881169422449 2.4102423628600778 0.21201572219530693 4.8525706325807594 3.7294495077308016 1.6063641875870702 1.9794907830474833 0.29100632491634765 3.9121119910732598 1.2174716806438985 0.81935746158918465 0.51362677719450289 -0.089583790457067186 0.010848558091938654 3.0051389907161723 0.69285695005295056
decision_type=2 2 2 2 2 2 2 2 2 2 2 2 2 2 2 2 2 2 2 2 2 2 2 2 2 2 2 2 2 2
left_child=1 4 6 8 11 10 12 16 21 26 22 -1 20 28 29 -14 24 -12 -15 -9 -2 -3 -4 -18 -5 -10 -6 -11 -8 -7
right_child=2 3 5 7 9 14 13 19 25 27 17 -13 15 18 -16 -17 23 -19 -20 -21 -22 -23 -24 -25 -26 -27 -28 -29 -30 -31
leaf_value=-0.00047548065041083058 0.0016956494943394015 0.00029557477929188081 0.0032681879953481256 0.00072846018928623914 -0.0002027306782264468 0.0060570255174435452 0.0026940187490188425 0.001580349930803353 0.00063637816354602096 1.7307845869742419e-05 0.0052936665639708646 -0.00033805145494663269 0.0024688889793635831 0.0039426079251585 0.0072273342068042232 0.0031492218249287831 0.0012133938606885657 0.0062270206885690071 0.0046608291532257541 0.0019606748247236235 0.0024121183440497023 0.00049911675231176244 0.0046225237521656691 0.0016124583642393696 0.0011180761193477953 0.0008572553208415518 -6.4441155223990063e-05 0.00018111850170242166 0.0035489119649387913 0.0068098415040527653
leaf_count=266960 1170 16148 200 2573 35708 953 509 6581 10258 18864 1046 72043 3606 1944 3815 3168 4702 731 1092 3483 1352 14356 748 2613 5512 10855 21528 17517 918 647
internal_value=0 -0.018336 0.426772 0.0816763 -0.0361555 0.638219 0.301678 0.138176 0.0538035 -0.00547683 0.521116 -0.0446275 0.259516 0.389496 0.697149 0.278706 0.116597 0.567762 0.420094 0.171197 0.207974 0.0391367 0.43368 0.135594 0.0994083 0.074994 -0.0150716 0.00961806 0.324398 0.636145
internal_count=531600 509701 21899 77081 432620 8140 13759 25464 51617 93617 2725 339003 9296 4463 5415 6774 15400 1777 3036 10064 2522 30504 948 7315 8085 21113 57236 36381 1427 1600
shrinkage=0.01


Tree=26
num_leaves=31
num_cat=0
split_feature=134 134 134 134 2 134 134 134 134 2 134 134 134 134 134 168 172 134 134 134 173 171 173 172 134 168 177 167 173 171
split_gain=4135.16 869.118 612.158 127.424 97.1954 68.4615 37.1848 17.1842 16.6167 13.4247 9.89993 8.53887 7.52689 5.08999 2.65431 2.4195 2.41947 2.33369 2.15954 2.09051 1.62756 1.27187 1.22141 1.19084 1.12225 1.10266 1.03287 1.03143 0.986964 0.97222
threshold=1.8175827792586132 0.15391927657603427 4.4363540094105849 0.82271813550818884 -0.28899747968530104 2.9155374042563995 6.1049144026607651 1.2699966186808453 0.44393575387075185 -0.095421345809139954 3.5212581227640594 2.2988936687614752 -0.41942044334596218 4.9829250705142423 0.64322281430549033 0.11030288718075541 0.31394069256702534 1.5031944868063634 1.0050237692902007 -0.18927384887672508 5.4865408370084729 2.8161081933934136 2.0583466469526512 3.0884359115724624 -0.010025427344327768 -0.28912855479654809 0.76513479655875305 -0.39360421073880952 0.64991780331279136 1.7587464880438903
decision_type=2 2 2 2 2 2 2 2 2 2 2 2 2 2 2 2 2 2 2 2 2 2 2 2 2 2 2 2 2 2
left_child=1 4 5 8 12 11 13 18 16 19 26 21 27 -4 28 24 -3 -9 -5 -6 -12 -2 -13 -15 -11 -14 -7 -1 -10 -19
right_child=2 3 6 7 9 10 -8 17 14 15 20 22 25 23 -16 -17 -18 29 -20 -21 -22 -23 -24 -25 -26 -27 -28 -29 -30 -31
leaf_value=-0.00047900203565470181 0.0021649720792682025 0.00025582728496977432 0.0051771247881966746 0.0010050181718143419 -0.00024553953621107036 0.0031113769912950997 0.0071273658386788799 0.0015030452217666774 0.00053385245109055968 -8.0273209339662598e-05 0.0042193669550814224 0.0026754843541682933 -0.00037950399682748341 0.0056579405491510902 0.00081262150481880506 0.00014089550143401899 0.00043597982570705483 0.0017015333989927395 0.0012400934924945964 -0.00012290301370400427 0.0048294007293013643 0.0025568071638269745 0.003017568096583483 0.0062016523937789758 5.3698576154460201e-05 -0.00028930882740366452 0.0035959596780864205 -0.00041790311352811189 0.00070667765906387483 0.0019937349677118681
leaf_count=233463 4130 17362 1189 7528 31621 567 4412 5240 9129 13345 2192 2100 42095 623 9764 16291 13351 3316 8365 25445 559 1067 2179 1225 12371 20804 2244 32376 5430 1817
internal_value=0 -0.0185359 0.419659 0.0762437 -0.036548 0.303533 0.654094 0.133557 0.048891 -0.00908732 0.391621 0.251828 -0.0448239 0.568901 0.0684341 0.00449541 0.033414 0.165245 0.112875 -0.0190857 0.434333 0.224542 0.284968 0.601836 -0.00158244 -0.0349672 0.349822 -0.0471561 0.059831 0.180497
internal_count=531600 509113 22487 81302 427811 15038 7449 26266 55036 99073 5562 9476 328738 3037 24323 42007 30713 10373 15893 57066 2751 5197 4279 1848 25716 62899 2811 265839 14559 5133
shrinkage=0.01


Tree=27
num_leaves=31
num_cat=0
split_feature=134 134 134 134 2 134 134 134 134 134 134 134 134 134 134 134 134 2 134 171 171 171 171 176 171 0 176 171 171 171
split_gain=4052.88 841.825 612.048 121.533 95.2606 53.5365 53.0322 17.7643 14.511 13.1947 7.92453 7.37651 7.31831 6.92167 2.59021 2.55963 2.47258 2.46044 2.26613 2.09832 1.91768 1.3454 1.16545 1.07479 1.05213 0.98564 0.905282 0.904286 0.86742 0.864576
threshold=1.7932041669811325 0.15391927657603427 4.1447373498793061 0.79281524903247236 -0.28899747968530104 5.3639696992623529 2.8622110755357397 1.2365094452562964 0.4149621758512328 -0.09149499390511108 2.2988936687614752 -0.41942044334596218 6.4434024218301955 3.4003584433908021 4.6751421395854216 0.61577885813805044 1.5031944868063634 0.031328278738115854 0.9692201650941904 0.36464701947064743 -0.084442508312891754 2.8161081933934136 3.9463965963891376 2.140211076431211 -0.29641149545932161 -0.4678788517142724 2.4707477386116099 0.62299474303092706 1.4644974370415256 0.75247148672936992
decision_type=2 2 2 2 2 2 2 2 2 2 2 2 2 2 2 2 2 2 2 2 2 2 2 2 2 2 2 2 2 2
left_child=1 4 6 8 11 14 10 18 19 20 21 25 26 -8 -4 27 -9 -11 -5 -3 -6 -2 -15 -12 -13 -1 -7 -10 -20 -17
right_child=2 3 5 7 9 12 13 16 15 17 23 24 -14 22 -16 29 -18 -19 28 -21 -22 -23 -24 -25 -26 -27 -28 -29 -30 -31
leaf_value=-0.00047835751963085527 0.0021297975451054917 0.00024707525478833336 0.0048240641228087088 0.00095722067982271673 -0.00022890675977467185 0.0059052913987713311 0.0033612400657212532 0.0014696507057689696 0.00050368050530496622 -1.9773144275322102e-05 0.0026446434136984647 -0.00037664282018709788 0.0070974303929888585 0.0039443889538355184 0.0054525993796628071 0.00069245153460554404 0.0017744033931092421 0.00013694823298435044 0.0011333568360200508 0.00042532346819034665 -0.00010443347559545966 0.0025240938529092903 0.0044128570126778137 0.0029802525789169262 -0.00028970781687768756 -0.00043365871464507203 0.0064450434824928297 0.00066456823297716689 0.0013617609396381228 0.00088458133629656542
leaf_count=197372 4405 17241 1291 7667 38738 466 2665 6114 9508 24351 2167 40855 4030 1676 1364 5883 4818 17374 6526 10955 18610 1107 807 1792 22044 68467 1032 5818 2336 4121
internal_value=0 -0.0184844 0.412456 0.0750054 -0.0361825 0.631443 0.289877 0.129095 0.0472551 -0.00899645 0.24546 -0.0443757 0.687514 0.371594 0.514697 0.0646447 0.160396 0.00454845 0.108394 0.031633 -0.0188514 0.220899 0.409665 0.279655 -0.0346175 -0.0466845 0.627714 0.0564756 0.119356 0.0771597
internal_count=531600 508798 22802 80987 427811 8183 14619 27461 53526 99073 9471 328738 5528 5148 2655 25330 10932 41725 16529 28196 57348 5512 2483 3959 62899 265839 1498 15326 8862 10004
shrinkage=0.01


Tree=28
num_leaves=31
num_cat=0
split_feature=134 134 134 134 134 134 134 134 134 16 134 134 134 134 5 134 134 169 169 134 169 169 169 134 180 171 173 134 173 134
split_gain=3972.37 853.906 566.621 120.812 101.528 61.3064 35.7359 18.4453 13.8436 12.0537 10.2134 10.0266 6.72565 4.89345 2.91916 2.19136 2.17709 2.09698 1.85042 1.64336 1.55879 1.5448 1.53271 1.40154 1.22113 1.14158 1.11226 1.07861 0.967924 0.907333
threshold=1.8626560091252919 0.18126068873302895 4.4363540094105849 0.90216752584247339 -0.23650938241738376 3.0521226591561477 6.1049144026607651 0.52371574753342176 1.3879785491062024 -0.38701621703649086 -0.047137456061548233 2.4199786804822687 3.7833300267587542 4.9829250705142423 0.3199760681533062 0.68218580202082957 1.1300606545993477 0.078702538522883211 -0.11008438499620747 -0.46542166093309117 1.9805644800152791 2.6108879224539048 -0.1570152114496226 3.4003584433908021 1.7896524897100268 0.49364784966265435 5.4865408370084729 5.3639696992623529 1.0535169269214906 2.1607341617630333
decision_type=2 2 2 2 2 2 2 2 2 2 2 2 2 2 2 2 2 2 2 2 2 2 2 2 2 2 2 2 2 2
left_child=1 4 5 7 9 11 13 14 16 19 18 21 23 -4 -3 -9 -5 -12 -6 -1 -10 29 -11 -7 -13 -16 -14 -15 -17 -2
right_child=2 3 6 8 10 12 -8 15 20 22 17 24 26 27 25 28 -18 -19 -20 -21 -22 -23 -24 -25 -26 -27 -28 -29 -30 -31
leaf_value=-0.00046953215351579105 0.0020617897343457934 0.00027719585466050214 0.0050737719933359035 0.0010944047970501043 -0.00019024264512941771 0.0034360424460516859 0.0069858150721163713 0.00065059326593014475 0.0016307203311640157 -0.00033657401771332632 1.5870036744695813e-05 0.0027500666409947068 0.0042758812190994552 0.0055962747830103658 0.00039691539876481123 0.00079086471022000711 0.001336731580395748 0.00017035736202210521 -6.377120829287627e-05 -0.00040465853865121382 0.0019447605660387294 0.0025578113348081939 -0.00022443161053586417 0.0038792462381341403 0.0031021671260843117 0.00056011366837701801 0.0048663637326714004 0.0060970621315702316 0.00099845016783879116 0.0023738105642038721
leaf_count=231350 2544 15467 1189 8274 28323 1581 4412 10536 5995 51070 19951 1913 1441 732 10495 7609 6887 16107 20099 48012 2203 1509 16422 1352 2136 7573 424 1116 3329 1549
internal_value=0 -0.0179175 0.417052 0.0781092 -0.0353644 0.301551 0.641092 0.0525204 0.138369 -0.0429371 -0.0042725 0.255612 0.393956 0.557574 0.0378552 0.0754223 0.120448 0.00848791 -0.0137747 -0.0458383 0.171511 0.228168 -0.0309288 0.364034 0.293581 0.0465318 0.441012 0.58987 0.0854044 0.217987
internal_count=531600 509702 21898 78368 431334 14449 7449 55009 23359 346854 84480 9651 4798 3037 33535 21474 15161 36058 48422 279362 8198 5602 67492 2933 4049 18068 1865 1848 10938 4093
shrinkage=0.01


Tree=29
num_leaves=31
num_cat=0
split_feature=134 134 134 134 2 134 134 134 134 2 134 134 134 134 134 134 169 169 134 134 134 169 170 170 169 2 168 9 134 174
split_gain=3893.36 808.687 587.975 116.747 91.602 51.3928 50.9588 15.656 15.2295 12.7485 7.59474 7.08474 7.05512 6.62045 2.49207 2.48522 2.3883 2.37207 2.03292 1.95495 1.91572 1.36797 1.15827 1.07535 1.05643 1.02342 0.981335 0.97525 0.973755 0.956026
threshold=1.7932041669811325 0.15391927657603427 4.1447373498793061 0.82271813550818884 -0.28899747968530104 5.3639696992623529 2.8622110755357397 0.44393575387075185 1.2699966186808453 -0.098035918699587984 2.2988936687614752 -0.41942044334596218 6.4434024218301955 3.4003584433908021 0.64322281430549033 4.6751421395854216 0.078702538522883211 0.43733714841241184 1.0050237692902007 1.5031944868063634 -0.18927384887672508 2.6108879224539048 3.9923475784692379 2.7141957719476157 -0.22965619920918814 0.22121525923612453 -0.39607413431721999 0.19230940427767043 -0.010025427344327768 2.8369616551397265
decision_type=2 2 2 2 2 2 2 2 2 2 2 2 2 2 2 2 2 2 2 2 2 2 2 2 2 2 2 2 2 2
left_child=1 4 6 7 11 15 10 17 18 20 21 26 29 -8 -9 -4 28 25 -5 -10 -6 -2 -15 -12 -13 -3 -1 -18 -11 -7
right_child=2 3 5 8 9 12 13 14 19 16 23 24 -14 22 -16 -17 27 -19 -20 -21 -22 -23 -24 -25 -26 -27 -28 -29 -30 -31
leaf_value=-0.00046509826329024036 0.0020761589284115306 0.00017892099603563291 0.0047287165759655045 0.00097513083455657765 -0.00023893811465335396 0.005769922693740632 0.0032952462553446781 0.00058071043093672816 0.0014582459584130899 -7.9985337917001049e-05 0.0026119657213397257 -0.00036323419861786075 0.006956597766346731 0.0038651073476925657 0.00078844418302837437 0.0053445316411969944 9.6513293805391693e-05 0.00044501628915713092 0.0012033075138907535 0.001739456572388639 -0.0001207477409758791 0.0024499114814867892 0.0043347884646699397 0.0029577067292943272 -0.00026706088936851916 0.0003248451927702919 -0.00040683318324737631 0.00029077396019592454 4.6780547697793134e-05 0.0063237985448277656
leaf_count=231652 4198 8965 1291 7528 31504 467 2665 14559 5240 13264 2487 47269 4030 1693 9764 1364 14255 10710 8365 4818 24968 1314 790 1472 15630 11038 34187 3276 11806 1031
internal_value=0 -0.018117 0.404257 0.0735144 -0.0354633 0.618895 0.284113 0.0474394 0.128813 -0.00880421 0.240572 -0.0434976 0.673833 0.364218 0.0664101 0.504509 0.00427159 0.0324156 0.109523 0.159295 -0.0186683 0.216526 0.401454 0.274052 -0.0339336 0.0259444 -0.0457605 0.0132815 -0.00202886 0.615113
internal_count=531600 508798 22802 80987 427811 8183 14619 55036 25951 99073 9471 328738 5528 5148 24323 2655 42601 30713 15893 10058 56472 5512 2483 3959 62899 20003 265839 17531 25070 1498
shrinkage=0.01


Tree=30
num_leaves=31
num_cat=0
split_feature=134 134 134 134 134 134 134 134 134 134 16 134 134 134 167 3 167 167 134 134 134 167 134 134 180 183 3 180 134 134
split_gain=3815.99 820.294 544.324 111.899 103.489 58.9011 34.343 13.9439 13.2986 12.5049 11.743 9.63765 6.47209 4.70471 2.50417 2.24461 1.99401 1.82424 1.77881 1.71209 1.60137 1.49248 1.36656 1.32848 1.18522 1.05282 1.01652 0.934532 0.906202 0.871242
threshold=1.8626560091252919 0.22741571488113371 4.4363540094105849 -0.23511857484803633 0.90216752584247339 3.0521226591561477 6.1049144026607651 0.54264161638758235 1.3593903511493164 -0.0077791736418610282 -0.38618575465939858 2.4199786804822687 3.7833300267587542 4.9829250705142423 -0.010799554760490824 0.39440637495730207 0.18167609816881047 0.92115975957429608 1.1300606545993477 1.6604054469861416 -0.46542166093309117 -0.10480584641415923 2.1607341617630333 3.4003584433908021 1.7896524897100268 0.8746306201210583 -0.15121184228196655 0.15154562414248099 0.68218580202082957 5.3639696992623529
decision_type=2 2 2 2 2 2 2 2 2 2 2 2 2 2 2 2 2 2 2 2 2 2 2 2 2 2 2 2 2 2
left_child=1 3 5 10 7 11 13 15 18 14 20 22 23 -4 26 27 -11 28 -6 -10 -1 -12 -2 -7 -13 -15 -5 -3 -9 -27
right_child=2 4 6 9 8 12 -8 17 19 16 21 24 -14 25 -16 -17 -18 -19 -20 -21 -22 -23 -24 -25 -26 29 -28 -29 -30 -31
leaf_value=-0.00046021982432843417 0.0021051244778082139 0.00025567342440022063 0.0049724737906325653 -0.00020988549758259426 0.0010725396013329582 0.0033687295626134983 0.0068470718452229027 0.00059999236605366398 0.0015634827557995271 6.4749512877536704e-05 -0.00032509363738325434 0.002694469375130066 0.0043229462686756341 0.0052884558692034905 -1.8304519715682975e-05 0.00051442489687435818 0.00022242270361919094 0.00088765677077623831 0.0012982116401386795 0.0018618543942829566 -0.00039638686835206943 -0.00020424007715739973 0.0024264055197198492 0.0038004756478052697 0.0030414802802609777 0.0055948923670594607 -0.00010375603997391404 0.00040548390970204296 0.00076679762628254909 0.0060984804198261381
leaf_count=231458 3317 8097 1189 21227 8274 1581 4412 6713 5945 20879 54576 1913 1865 359 17661 12007 13345 6655 6223 2917 48411 12885 2285 1352 2136 586 16524 9159 6746 903
internal_value=0 -0.0175613 0.40876 -0.0339289 0.0807682 0.295554 0.628348 0.0548203 0.135618 -0.00242408 -0.0420594 0.250525 0.38613 0.546472 -0.0117176 0.0408732 0.0126231 0.0751115 0.116941 0.166169 -0.0449178 -0.0302011 0.223617 0.356775 0.287753 0.578143 -0.0163432 0.0335189 0.0683599 0.590029
internal_count=531600 509702 21898 436966 72736 14449 7449 49377 23359 89636 347330 9651 4798 3037 55412 29263 34224 20114 14497 8862 279869 67461 5602 2933 4049 1848 37751 17256 13459 1489
shrinkage=0.01


Tree=31
num_leaves=31
num_cat=0
split_feature=2 2 2 2 2 2 2 2 2 2 2 2 2 43 43 2 29 2 29 179 43 176 173 174 29 172 173 172 2 29
split_gain=3706.05 778.87 553.934 107.608 90.6823 55.7279 43.5602 15.9971 13.2939 12.761 8.08576 7.67869 6.82319 5.28384 5.02741 2.9786 2.8002 2.67884 2.46024 2.37646 2.13806 2.11275 1.90332 1.78996 1.71533 1.71286 1.68012 1.4779 1.46851 1.46542
threshold=1.7733751019949042 0.15838179208298095 4.2773646751819454 0.78806756737923034 -0.28899747968530104 2.8262864595817416 5.6738801127830998 1.1871520008292429 0.40907089051534723 -0.095421345809139954 3.4321684244266413 2.2309431643510922 -0.42371670386534588 -0.39071005184134711 -3.7355792273185195 4.8908733404667446 -0.61292148016154135 1.4716688176777246 3.0574110300078012 0.18687478313072811 2.9568646555719504 0.0078107377869914519 1.3333452642782864 0.044797378119418307 2.7219721865528683 -0.091299239395955287 1.3047807547186479 1.2519170260652916 0.59279661833039221 6.1293992340252972
decision_type=2 2 2 2 2 2 2 2 2 2 2 2 2 2 2 2 2 2 2 2 2 2 2 2 2 2 2 2 2 2
left_child=1 4 5 8 12 11 14 22 23 25 18 24 -1 -8 -4 -16 -12 -9 -7 -10 26 -11 -5 -3 27 -6 -13 -2 -21 -18
right_child=2 3 6 7 9 10 13 17 19 21 16 20 -14 -15 15 -17 29 -19 -20 28 -22 -23 -24 -25 -26 -27 -28 -29 -30 -31
leaf_value=-0.00045106869629355916 0.0017433714903483187 0.0001999431266819695 0.0039686607723789557 0.00095944180609214519 -0.00021886316375497195 0.0030816996858761925 0.0056209477982104086 0.0013879114115088863 0.00049653983693386742 -1.6866820089790538e-05 0.003535750648434009 0.0022235960645232869 -0.00034198042963532848 0.0067422422734206081 0.0048984876032317839 0.0055870080114557201 0.0041275119482697331 0.0016936489202284764 0.0037658042814339983 0.00061175925220874068 0.0031076623456508111 0.0001250439398257893 0.0012120960162492369 0.00037190811624459474 0.0025034130974518698 -0.00010143349849930419 0.0026891851240048756 0.0021330779958920539 0.0008016296997933797 0.0050425801994186817
leaf_count=254289 1564 9542 350 11151 38595 2314 466 6822 8858 23323 872 1174 74449 4542 1240 1300 1541 5038 691 8899 816 19566 4158 17335 786 18793 2405 2719 7800 202
internal_value=0 -0.0177486 0.392796 0.0730997 -0.0346053 0.280453 0.607355 0.124184 0.04663 -0.00827711 0.35935 0.233601 -0.0426364 0.66379 0.509559 0.525088 0.400087 0.151779 0.323901 0.0629773 0.264251 0.0047873 0.102806 0.0310856 0.207026 -0.0180408 0.253646 0.199077 0.0700447 0.423356
internal_count=531600 508618 22982 79603 429015 15084 7898 27169 52434 100277 5620 9464 328738 5008 2890 2540 2615 11860 3005 25557 4395 42889 15309 26877 5069 57388 3579 4283 16699 1743
shrinkage=0.01


Tree=32
num_leaves=31
num_cat=0
split_feature=134 134 134 134 134 134 134 134 134 134 134 16 134 134 134 10 169 169 134 169 169 169 134 134 179 134 169 175 169 3
split_gain=3666.4 788.285 523.003 111.533 93.8108 56.5956 33.0092 17.0168 12.7861 12.0837 9.25216 8.27973 6.21725 4.51855 2.74051 2.31162 2.08991 2.03795 2.01007 1.50363 1.46088 1.28739 1.27842 1.26712 1.22389 1.06612 1.06534 1.05823 0.961906 0.945487
threshold=1.8626560091252919 0.18126068873302895 4.4363540094105849 0.90216752584247339 -0.26728356813675308 3.0521226591561477 6.1049144026607651 0.52371574753342176 1.3879785491062024 -0.051137391035366082 2.4199786804822687 -0.40274510586753848 3.7833300267587542 4.9829250705142423 0.32293856662733428 -0.16570450997728545 1.0866502385820078 0.2535751804287914 1.1300606545993477 1.9805644800152791 2.6108879224539048 -0.27140561085776799 3.4003584433908021 0.71828275699317679 1.1700649744743143 -0.46542166093309117 0.45065358724473031 2.5042699189890376 4.4729147914776748 0.050161208916676255
decision_type=2 2 2 2 2 2 2 2 2 2 2 2 2 2 2 2 2 2 2 2 2 2 2 2 2 2 2 2 2 2
left_child=1 4 5 7 11 10 13 14 18 15 20 25 22 -4 -3 -6 23 29 -5 -10 -2 -13 -7 -9 -12 -1 -16 -15 -14 -11
right_child=2 3 6 8 9 12 -8 16 19 17 24 21 28 27 26 -17 -18 -19 -20 -21 -22 -23 -24 -25 -26 -27 -28 -29 -30 -31
