tree
version=v2
num_class=1
num_tree_per_iteration=1
label_index=0
max_feature_idx=210
objective=regression
feature_names=mean_0_2 diff_0_2_mean mean_0_2_decay median_0_2 min_0_2 max_0_2 std_0_2 mean_0_3 diff_0_3_mean mean_0_3_decay median_0_3 min_0_3 max_0_3 std_0_3 mean_0_4 diff_0_4_mean mean_0_4_decay median_0_4 min_0_4 max_0_4 std_0_4 mean_0_6 diff_0_6_mean mean_0_6_decay median_0_6 min_0_6 max_0_6 std_0_6 mean_0_8 diff_0_8_mean mean_0_8_decay median_0_8 min_0_8 max_0_8 std_0_8 mean_1_2 diff_1_2_mean mean_1_2_decay median_1_2 min_1_2 max_1_2 std_1_2 mean_1_3 diff_1_3_mean mean_1_3_decay median_1_3 min_1_3 max_1_3 std_1_3 mean_1_4 diff_1_4_mean mean_1_4_decay median_1_4 min_1_4 max_1_4 std_1_4 mean_1_6 diff_1_6_mean mean_1_6_decay median_1_6 min_1_6 max_1_6 std_1_6 mean_1_8 diff_1_8_mean mean_1_8_decay median_1_8 min_1_8 max_1_8 std_1_8 mean_2_2 diff_2_2_mean mean_2_2_decay median_2_2 min_2_2 max_2_2 std_2_2 mean_2_3 diff_2_3_mean mean_2_3_decay median_2_3 min_2_3 max_2_3 std_2_3 mean_2_4 diff_2_4_mean mean_2_4_decay median_2_4 min_2_4 max_2_4 std_2_4 mean_2_6 diff_2_6_mean mean_2_6_decay median_2_6 min_2_6 max_2_6 std_2_6 mean_2_8 diff_2_8_mean mean_2_8_decay median_2_8 min_2_8 max_2_8 std_2_8 T-29 T-28 T-27 T-26 T-25 T-24 T-23 T-22 T-21 T-20 T-19 T-18 T-17 T-16 T-15 T-14 T-13 T-12 T-11 T-10 T-9 T-8 T-7 T-6 T-5 T-4 T-3 T-2 T-1 T-0 W-1_T-29 W-1_T-28 W-1_T-27 W-1_T-26 W-1_T-25 W-1_T-24 W-1_T-23 W-1_T-22 W-1_T-21 W-1_T-20 W-1_T-19 W-1_T-18 W-1_T-17 W-1_T-16 W-1_T-15 W-1_T-14 W-1_T-13 W-1_T-12 W-1_T-11 W-1_T-10 W-1_T-9 W-1_T-8 W-1_T-7 W-1_T-6 W-1_T-5 W-1_T-4 W-1_T-3 W-1_T-2 W-1_T-1 W-1_T-0 W-1_T+1 W-1_T+2 W-1_T+3 W-1_T+4 W-1_T+5 W-1_T+6 W-1_T+7 W-1_T+8 W-1_T+9 W-1_T+10 W-1_T+11 W-1_T+12 W-1_T+13 W-1_T+14 W-1_T+15 W-1_T+16 W-1_T+17 W-1_T+18 W-1_T+19 W-1_T+20 W-1_T+21 W-1_T+22 W-1_T+23 W-1_T+24 W-1_T+25 W-1_T+26 W-1_T+27 W-1_T+28 W-1_T+29 month day week hour minute dow total_minutes total_minutes_since_day_1 demand-3500 demand-3000 demand-2800 demand-2500 demand-2000 lat lon grid_id_by_lat grid_id_by_lon
feature_infos=[-0.46904218268655301:6.5407690750795613] [-8.9036088823035211:7.1699425479506118] [-0.46905705697316147:6.5401807696253531] [-0.46332370160260272:6.5215130415311959] [-0.41429556264371209:7.0407455502945613] [-0.51718071496896212:6.0434124032891976] [-0.68223371377160213:9.7197493142497962] [-0.46994298111370852:6.5590587905518154] [-10.421787027184296:7.96121711844666] [-0.46996848180401635:6.5579137780653607] [-0.46396591863621156:6.5434684418646958] [-0.40137951177973541:7.2356630112615061] [-0.53120301558895411:5.9113020409708517] [-0.70844488424912588:10.943517389996581] [-0.47087179173899851:6.5764694917050663] [-11.082528384222371:7.6723384959113368] [-0.47088702841383212:6.5745329462350899] [-0.46186925855740874:6.5497019852207004] [-0.39144631398405333:7.4129042233836389] [-0.54258242849011284:5.8002048306154945] [-0.71607363975373495:10.341148872255232] [-0.47226184201939408:6.6101349130691238] [-9.0107424005805807:12.603518808500356] [-0.47235374792393559:6.6061041297591707] [-0.46038571776776172:6.5757574012564159] [-0.37562865632128878:7.7418890634064157] [-0.56023230902320964:5.6144445723707479] [-0.71055587733329473:12.408481808061717] [-0.47371014251134125:6.644469541368994] [-8.5041145827594509:9.5973213866351994] [-0.47385943421279847:6.6372742418494539] [-0.45901136199141201:6.6008707580638912] [-0.36315082517355518:8.0585617606292494] [-0.57458079418206232:5.4577048411499369] [-0.69893899461171616:11.283731972263675] [-0.47226184201939408:6.6101349130691238] [-9.0107424005805807:12.603518808500356] [-0.47235374792393559:6.6061041297591707] [-0.46038571776776172:6.5757574012564159] [-0.37562865632128878:7.7418890634064157] [-0.56023230902320964:5.6144445723707479] [-0.71055587733329473:12.408481808061717] [-0.47297530982370961:6.6271895109757217] [-11.251522078358613:8.3189180286056814] [-0.47309937580517786:6.6217210487732983] [-0.46040554130872174:6.5931236195800036] [-0.36906891036630446:7.9005183620484214] [-0.56770161101796057:5.5331310646101644] [-0.70493992713897746:11.554113151047103] [-0.47371014251134125:6.644469541368994] [-8.5041145827594509:9.5973213866351994] [-0.47385943421279847:6.6372742418494539] [-0.45901136199141201:6.6008707580638912] [-0.36315082517355518:8.0585617606292494] [-0.57458079418206232:5.4577048411499369] [-0.69893899461171616:11.283731972263675] [-0.47528149563842098:6.6796966136891198] [-10.497535083461559:9.0537331001301133] [-0.47543873112923318:6.6681287317345905] [-0.45776824570317004:6.626461395537091] [-0.35252904819724751:8.3702556346605181] [-0.58714254695703694:5.3203790479701949] [-0.68755838860505281:10.371319305045636] [-0.47702603983455366:6.715661521581997] [-10.766318655589336:8.3366653367920076] [-0.47709162908033148:6.6983222283880783] [-0.45662396038126601:6.6533731679674641] [-0.34322804213881364:8.6813720196760169] [-0.59862075619887611:5.1975892340778351] [-0.67812444387382975:10.68922011378648] [-0.47528149563842098:6.6796966136891198] [-10.497535083461559:9.0537331001301133] [-0.47543873112923318:6.6681287317345905] [-0.45776824570317004:6.626461395537091] [-0.35252904819724751:8.3702556346605181] [-0.58714254695703694:5.3203790479701949] [-0.68755838860505281:10.371319305045636] [-0.47613018282023084:6.697500789943069] [-11.312771830179729:9.0411657713989051] [-0.47625699395630694:6.6832797265484967] [-0.45765480873351411:6.6434141059384473] [-0.34776521730790377:8.5256882821190008] [-0.59298264544826396:5.2573298978397691] [-0.68258498292123071:10.034504873791688] [-0.47702603983455366:6.715661521581997] [-10.766318655589336:8.3366653367920076] [-0.47709162908033148:6.6983222283880783] [-0.45662396038126601:6.6533731679674641] [-0.34322804213881364:8.6813720196760169] [-0.59862075619887611:5.1975892340778351] [-0.67812444387382975:10.68922011378648] [-0.47891854841353465:6.7526902528803703] [-9.8801006338858084:7.5078935868502787] [-0.47877255481465741:6.7277330641577846] [-0.45552073940714699:6.6810916086677734] [-0.33480250024718383:8.9940359039100564] [-0.60928729492234324:5.0860231651477212] [-0.67069955596721476:10.90868291504083] [-0.48094788094145013:6.7905212016834779] [-9.2080481057126118:7.8801182494015238] [-0.48044431843384588:6.7559456080998279] [-0.45444433399215678:6.7070066175024348] [-0.32708081744187512:9.3085613625666284] [-0.61935809399174402:4.9842230663880374] [-0.66507539490417955:10.543190367885131] [-0.45716034595595223:6.495770478555416] [-0.4569612699351539:6.4992717846419739] [-0.45678349732241813:6.5047467768790588] [-0.45660074434563769:6.5080975932445275] [-0.45660186055121665:6.512570229539266] [-0.45654692496674454:6.5145920034051583] [-0.45656351291606845:6.5167761355435347] [-0.45661656622843644:6.5189665226206381] [-0.45660185405343034:6.5189230263592739] [-0.45663604537779678:6.5219555547361301] [-0.45683215663935528:6.5222752340716914] [-0.45695573516375776:6.5235355162561399] [-0.45712692406144501:6.5245572352125087] [-0.4574096307543063:6.526381429602738] [-0.45758273018892404:6.5253852155573338] [-0.45799138135019007:6.5261419262856997] [-0.4583893413547166:6.5252854819881518] [-0.45885975609490587:6.5247335740604608] [-0.45925534641548277:6.5231005553844339] [-0.4597188106994215:6.5231278245966315] [-0.4602667381935025:6.5225619502740848] [-0.46097838408936176:6.5207411587610054] [-0.46171811266536589:6.5181456743474211] [-0.46237157501378767:6.5146203356331158] [-0.46322426176114861:6.5110471998240556] [-0.46470780345928497:6.5079910017684401] [-0.46463416633370208:6.502008753547889] [-0.46503915306692956:6.4956928533268359] [-0.46545507877225184:6.4917444924437522] [-0.46591281955909813:6.4854024316944754] [-0.47716664760122146:6.6034545416822423] [-0.47714856386274601:6.6077215113430565] [-0.47705967927226006:6.6110651310493456] [-0.47694936558627193:6.6104441615149003] [-0.47704001000817714:6.6151012206091107] [-0.47705461870883331:6.6158296710560709] [-0.47714730513386128:6.6175915216734564] [-0.47719482570606364:6.6180514706643434] [-0.47740283832177544:6.6184366317064134] [-0.47755404769381771:6.6168348767939653] [-0.47778591079907551:6.6172519972645683] [-0.47809499704580033:6.6173327379309113] [-0.47831665703869253:6.6153875510587614] [-0.47863634557977952:6.615304465846104] [-0.47894912012012886:6.6153858203402081] [-0.4793635280077419:6.6151835461655679] [-0.47962127381581304:6.6146886901205457] [-0.4799813201216987:6.6091012802656399] [-0.48041916291557696:6.610061161353884] [-0.4806275404698433:6.6056087695217931] [-0.48099777206966732:6.6044220434057426] [-0.48147951004144068:6.6001562721416098] [-0.48190997077898162:6.5985591295177182] [-0.48224582275071759:6.5974026833921418] [-0.48268264733703575:6.596803666915422] [-0.48302812791236915:6.5960542499836246] [-0.48341291034692935:6.593943475679259] [-0.48370149276188235:6.5942550488572813] [-0.48409573183693222:6.5931769064911174] [-0.48435850891823856:6.5906989283425057] [-0.48465207826682627:6.58964029925668] [-0.48473840524893658:6.5853280902635394] [-0.48519961955150165:6.5845520233572099] [-0.4853947522745814:6.5810952782503938] [-0.48564563175971193:6.5781010012910999] [-0.48585120522704306:6.5755307424543457] [-0.48604806347431578:6.572016898815388] [-0.48618100924697127:6.5663979537273516] [-0.48614965973892349:6.5609695913793624] [-0.48617413559578776:6.5573353133816239] [-0.48613963396491372:6.5557039547679645] [-0.4859906673912926:6.5531712094155186] [-0.48595687395570369:6.5518768839816728] [-0.48580260962886046:6.5517292152629363] [-0.48563485681303414:6.5501867817966888] [-0.48552198812447472:6.5510442698900233] [-0.48511286024893302:6.5509659182946178] [-0.48473012230457702:6.5513677728868052] [-0.4843639837179623:6.5513239752794146] [-0.48401818225559173:6.5513977760478852] [-0.48380113322327534:6.5506845553155308] [-0.48369544552328153:6.5505960292838665] [-0.48336979390987106:6.5494885558945546] [-0.48319190556732328:6.5502190662585749] [-0.48288051281337913:6.5519569471923953] [-0.48264489718757847:6.5554380360874154] [-0.48241454160683106:6.560191320409313] [-0.48224153538054038:6.5649002132820318] [-0.482013659448216:6.5677902928345047] none [-1.2555640952266365:0.75951946666123626] [-3.377948729193764:-0.15623603376578868] [-1.6156425048456464:1.6254255761426577] [-1.336344265844865:1.3441314497222088] [-1.6177649639815193:1.05704632545527] [-1.6661766720591817:1.6762537415294161] [-1.1062557169753302:0.58209267350577443] 1:0:-1 1:0:-1 1:0:-1 1:0:-1 1:0:-1 1:0:-1 1:0:-1 1:0:-1 1:0:-1
tree_sizes=2582 2630 2606 2673 2685 2681 2644 2688 2678 2625 2699 2620 2694 2691 2631 2637 2683 2689 2617 2625 2639 2684 2626 2678 2691 2627 2700 2691 2687 2688 2701 2647 2691 2638 2646 2689 2683 2697 2644 2676 2645 2633 2632 2643 2629 2697 2632 2685 2655 2691 2701 2697 2640 2646 2698 2697 2640 2632 2690 2636 2699 2696 2635 2654 2641 2701 2651 2687 2645 2647 2694 2703 2698 2701 2693 2700 2652 2700 2636 2676 2692 2653 2663 2651 2650 2703 2701 2659 2704 2706 2654 2677 2653 2703 2716 2699 2648 2700 2688 2668 2713 2669 2675 2671 2721 2684 2671 2674 2662 2711 2674 2724 2719 2704 2715 2711 2683 2678 2702 2678 2666 2685 2717 2708 2673 2668 2677 2680 2704 2725 2682 2735 2669 2715 2715 2677 2718 2666 2677 2687 2738 2683 2671 2712 2698 2720 2713 2680 2722 2680 2686 2691 2676 2718 2695 2677 2679 2727 2680 2739 2708 2684 2690 2702 2701 2725 2718 2727 2731 2692 2685 2682 2738 2722 2718 2695 2738 2711 2730 2728 2686 2694 2717 2724 2742 2714 2718 2695 2742 2731 2727 2716 2730 2708 2721 2716 2720 2696 2727 2720 2712 2724 2699 2715 2743 2704 2718 2715 2733 2705 2735 2722 2723 2746 2736 2719 2724 2717 2723 2739 2714 2711 2751 2723 2724 2724 2726 2705 2726 2753 2732 2723 2713 2750 2730 2748 2738 2703 2748 2716 2735 2756 2726 2720 2737 2721 2729 2729 2746 2730 2732 2744 2721 2733 2750 2721 2727 2727 2731 2734 2724 2724 2746 2729 2752 2746 2734 2755 2755 2733 2714 2738 2728 2715 2715 2718 2715 2744 2702 2746 2747 2726 2733 2737 2731 2721 2709 2700 2743 2725 2743 2724 2717 2728 2728 2717 2717 2718 2705 2754 2747 2729 2708 2755 2726 2721 2718 2702 2734 2724 2726 2727 2735 2742 2765 2725 2719 2735 2762 2737 2722 2710 2752 2724 2738 2754 2735 2766 2739 2725 2728 2719 2732 2749 2754 2692 2756 2736 2755 2721 2763 2704 2733 2734 2734 2729 2726 2753 2730 2740 2756 2748 2735 2767 2757 2742 2736 2736 2736 2738 2696 2753 2740 2734 2759 2737 2723 2757 2740 2753 2739 2735 2743 2740 2753 2747 2752 2742 2758 2734 2709 2756 2779 2759 2730 2769 2743 2727 2779 2779 2743 2728 2739 2757 2755 2743 2732 2748 2751 2777 2754 2745 2738 2754 2722 2746 2752 2758 2722 2780 2760 2756 2783 2727 2735 2737 2770 2734 2741 2768 2757 2740 2768 2736 2750 2752 2771 2746 2779 2758 2779 2754 2744 2755 2776 2792 2775 2742 2796 2749 2780 2725 2788 2781 2770 2790 2732 2779 2738 2773 2764 2781 2754 2776 2790 2776 2783 2779 2790 2799 2810 2791 2767 2777 2781 2783 2786 2771 2759 2781 2760 2779 2783 2766 2781 2767 2734 2775 2777 2765 2791 2735 2771 2737 2773 2800 2792 2763 2724 2762 2750 2764 2779 2799 2759 2775 2789 2747 2793 2781 2751 2761 2791 2782 2774 2798 2749 2768 2767 2810 2746 2794 2802 2758 2783 2777 2710 2789 2782 2747 2792 2768 2754 2771 2771 2795 2775 2809 2779 2810 2805 2796 2741 2822 2777 2779 2843 2767 2774 2799 2767 2780 2750 2715 2708 2776 2782 2770 2793 2792 2772 2761 2731 2759 2802 2758 2811 2777 2780 2811 2782 2818 2775 2747 2719 2802 2790 2777 2793 2752 2757 2772 2767 2794 2695 2736 2734 2734 2812 2688 2776 2787 2695 2753

Tree=0
num_leaves=31
num_cat=0
split_feature=0 0 0 0 0 0 0 0 0 0 0 0 0 8 29 0 8 8 8 0 0 0 0 174 8 8 173 12 0 12
split_gain=6897.69 1537.87 931.112 215.085 183.729 84.3425 82.1549 31.2574 27.4093 20.4188 19.0798 12.0754 9.84138 9.47984 9.08903 6.75807 5.09095 4.36002 4.26601 4.23554 4.12101 3.8971 3.29691 3.03623 2.39032 2.37779 2.26392 2.12598 2.04585 2.00891
threshold=1.8987270294792427 0.18329653014591488 4.2360248964069784 0.85395840647342991 -0.25047286577747102 5.7312048576225676 2.9550372495057089 1.3140013425389727 0.50215706900845869 -0.062507731041760425 -0.40714570846058534 2.2639715598176835 3.5807114396393858 -0.30829135938970559 -3.3068807025601088 4.9007737673763598 0.33501680352127988 -0.090193513422991686 2.9482109383222266 0.33076007460759543 1.5961074108386115 1.0744318602542309 0.6724176189490304 0.19414232064355919 1.8503078256517946 0.049131444611525944 -0.068756506019695615 3.2359831729409829 -0.32552432574775847 2.5758675017592569
decision_type=2 2 2 2 2 2 2 2 2 2 2 2 2 2 2 2 2 2 2 2 2 2 2 2 2 2 2 2 2 2
left_child=1 4 6 8 10 14 11 21 19 26 -1 25 17 -7 -4 -16 -13 -8 -14 -3 -9 -5 -10 -11 -17 -2 -6 -19 -12 -18
right_child=2 3 5 7 9 13 12 20 22 23 28 16 18 -15 15 24 29 27 -20 -21 -22 -23 -24 -25 -26 -27 -28 -29 -30 -31
leaf_value=0.062644135234109416 0.065935818324960455 0.063649467082492223 0.06883238428834168 0.064639426763104663 0.063010282588338809 0.071151039933631727 0.067443594710453469 0.065323819842501504 0.06411415601133684 0.063303537682150551 0.062782306120318196 0.066648245801933251 0.068544986905431024 0.072494849621667162 0.069922274550184599 0.070596078987957375 0.066997774639040691 0.067889808862867343 0.069645619910906176 0.063882018064910631 0.065733911544163914 0.064959122730653976 0.06436807736745373 0.063493377040051258 0.071462630104231789 0.066440611558571921 0.063152128681913514 0.068652226606534097 0.062889868422585815 0.067590183582731958
leaf_count=267370 1784 16436 410 8587 32893 600 1267 5844 11463 26610 45690 2570 1526 4306 1319 840 1154 798 462 15165 4273 6954 9384 12507 523 2009 17449 693 29544 1170
internal_value=0 -0.0233466 0.555771 0.105787 -0.0466906 0.825907 0.394932 0.180818 0.0690803 -0.00633209 -0.0572288 0.337118 0.500755 0.907446 0.696531 0.717764 0.369981 0.462035 0.554473 0.0505025 0.224098 0.152644 0.0972415 0.0108195 0.767254 0.294715 -0.0196593 0.498813 -0.0431495 0.403998
internal_count=531600 510169 21431 78106 432063 7998 13433 25658 52448 89459 342604 8687 4746 4906 3092 2682 4894 2758 1988 31601 10117 15541 20847 39117 1363 3793 50342 1491 75234 2324
shrinkage=1


Tree=1
num_leaves=31
num_cat=0
split_feature=2 2 2 2 2 2 2 2 2 2 2 2 2 1 1 5 1 1 1 2 1 2 1 1 170 29 170 5 2 5
split_gain=6771.21 1422.82 1014.02 194.591 168.029 99.4336 82.1468 29.6368 23.2508 18.2776 17.7403 15.3851 11.9809 9.16889 8.59596 7.81229 5.32502 5.27626 5.22412 4.12469 3.95177 3.66687 3.63103 3.42196 2.3654 2.35277 2.3508 2.03907 2.02232 1.87217
threshold=1.7732683515649146 0.16095593354822887 4.2449189011683162 0.84912686416759997 -0.25555320982974744 2.8815150424112574 5.7315316542584087 0.46751112619544061 1.2674668213474698 -0.059288292041888589 -0.41059824406892403 2.2350884818910632 3.5433477593732996 -2.1724212252265969 -0.41342986742606264 4.8703761323308585 -0.76245699509267495 1.9142178361157087 0.23251234589148359 0.66647969954895392 0.6880758856825876 0.31657986594743287 -0.25964892705963316 0.095509648019996049 0.12138562339538446 -4.8882324453542179 -0.079158318803743605 4.1262842242313278 -0.34102754429876198 1.6103559447420264
decision_type=2 2 2 2 2 2 2 2 2 2 2 2 2 2 2 2 2 2 2 2 2 2 2 2 2 2 2 2 2 2
left_child=1 4 5 7 10 11 13 21 23 26 -1 22 17 25 -8 -15 -14 -7 -13 -9 -10 -3 -2 -5 -11 -4 -6 -18 -12 -22
right_child=2 3 6 8 9 12 14 19 20 24 28 18 16 15 -16 -17 27 -19 -20 -21 29 -23 -24 -25 -26 -27 -28 -29 -30 -31
leaf_value=-0.00060692667907929002 0.0025063382927573864 0.0003659946469370673 0.0047799440736609293 0.0013344470451916611 -0.00024770198287843209 0.0042447379182225893 0.0078739090478124694 0.00082053332127371556 0.0019600056838297761 3.1612390392485715e-05 -0.00048170937405730627 0.0032876699669399964 0.0048630957298500593 0.0066605551453657033 0.0091491694420728492 0.0078445150113410876 0.0056695987272202663 0.0051904738449769687 0.0039549988029936537 0.0010919567948373665 0.0021822398299640756 0.00058397916060474759 0.003045611948498588 0.0016416934429202001 0.00020020831212275167 0.0062405652564601543 -0.00010766224227666765 0.0066399895627025172 -0.00037757737464662436 0.0026499920606178379
leaf_count=264723 2276 17860 133 7580 33703 2240 605 13908 6140 22025 40944 2547 860 1145 4302 1094 995 807 2198 9486 2053 13785 2817 7065 13650 697 18975 282 35197 1508
internal_value=0 -0.0239993 0.530745 0.0989879 -0.0467461 0.377737 0.81892 0.066057 0.173435 -0.00787985 -0.0568204 0.318669 0.489832 0.690572 0.899194 0.723905 0.547309 0.449522 0.359679 0.0930592 0.211429 0.0460952 0.280462 0.148267 0.00961207 0.600651 -0.0197259 0.588389 -0.0433573 0.238032
internal_count=531600 508602 22998 79385 429217 15022 7976 55039 24346 88353 340864 9838 5184 3069 4907 2239 2137 3047 4745 23394 9701 31645 5093 14645 35675 830 52678 1277 76141 3561
shrinkage=0.01


Tree=2
num_leaves=31
num_cat=0
split_feature=2 2 2 2 2 2 2 2 2 2 2 2 2 8 50 2 8 2 2 2 22 2 22 8 2 8 171 170 5 11
split_gain=6636.6 1473.09 903.7 204.616 177.278 89.3268 70.4155 29.4532 26.2811 20.6437 17.3882 13.9625 9.60229 8.30789 7.39632 5.09157 4.21443 3.95506 3.89475 3.64312 3.58519 3.34787 3.33993 3.22654 2.83238 2.30889 2.30549 2.30343 2.17049 2.13271
threshold=1.8889466277872022 0.18441629409110274 4.3476314936363467 0.88716653022682845 -0.25555320982974744 3.0305213901175843 5.7315316542584087 0.50260739153801037 1.330079404863082 -0.059288292041888589 -0.40874915200886236 2.4272139246937718 3.5433477593732996 -0.28086892162517646 -3.3068807025601088 4.9231438347266971 0.81811070534022512 0.33513991609177718 0.68663561032330245 1.5619584091625249 1.1639418402216326 1.091926368900084 2.9352104812498321 2.2306593354763096 0.058605998868928838 1.891801621507027 1.7443548330021803 -0.079158318803743605 4.1262842242313278 3.7384492620551106
decision_type=2 2 2 2 2 2 2 2 2 2 2 2 2 2 2 2 2 2 2 2 2 2 2 2 2 2 2 2 2 2
left_child=1 4 5 7 10 11 14 17 21 27 -1 22 23 -8 -4 -16 29 -3 -9 -10 -13 -5 26 -7 -11 -17 -2 -6 -18 -14
right_child=2 3 6 8 9 12 13 18 19 24 -12 20 16 -15 15 25 28 -19 -20 -21 -22 -23 -24 -25 -26 -27 -28 -29 -30 -31
leaf_value=-0.0006004130404599538 0.002653428664389194 0.00038972957663981316 0.0055733640977599164 0.0013896873643882129 -0.0002452249628443419 0.004338208874732517 0.0077869927946288709 0.00085186873273422094 0.0020133476622758461 3.0772573795737943e-05 -0.00042766269468986215 0.0035407107424370965 0.004422458994763288 0.0090544088513784347 0.0066218252494446303 0.0072063650682641957 0.0056266704225874228 0.00061514129109000836 0.0011189257601657381 0.0024037921124363685 0.0041633549234977151 0.0016956808414201247 0.0035939604783921841 0.0051980280061562859 0.00020359843138242903 0.0080741364984341698 0.0031110515540050719 -0.00010658562050617218 0.0065984793473297448 0.0053413722111898309
leaf_count=266098 2151 16638 359 7744 33703 1657 590 12278 4874 21115 74766 2343 342 4317 1137 812 678 14837 9973 4765 1549 6754 804 600 17547 503 2316 18975 355 1020
internal_value=0 -0.0229573 0.543804 0.103658 -0.0457673 0.39068 0.817892 0.0692951 0.180145 -0.00664 -0.0562522 0.333375 0.503552 0.890202 0.691665 0.711333 0.547725 0.0495986 0.0971565 0.220636 0.378852 0.153224 0.299796 0.456678 0.0109211 0.75383 0.289069 -0.0195286 0.596064 0.511063
internal_count=531600 510067 21533 77863 432204 13815 7718 53726 24137 91340 340864 9163 4652 4907 2811 2452 2395 31475 22251 9639 3892 14498 5271 2257 38662 1315 4467 52678 1033 1362
shrinkage=0.01


Tree=3
num_leaves=31
num_cat=0
split_feature=134 2 134 134 2 134 134 134 134 134 2 134 134 134 134 3 2 134 134 2 5 134 173 134 173 134 2 173 172 173
split_gain=6564.17 1381.61 967.686 200.242 157.921 89.084 79.4672 27.2281 26.3374 18.3242 15.5855 12.7958 11.7906 7.27404 5.41314 3.8905 3.69432 3.54244 3.50106 3.2411 2.55821 1.78478 1.73391 1.6153 1.42854 1.34588 1.33545 1.30189 1.18264 1.0996
threshold=1.8218092502577752 0.15421202802333983 4.221446514881829 0.82670628095366727 -0.26472576541795556 2.891578435294067 5.6776111300856638 1.2754450593772619 0.45214729718360969 -0.051552232466239654 -0.41147451326933454 2.3016565207317004 3.5077194131656726 4.8672298574993631 6.4220888871876776 0.60277577567049134 0.33513991609177718 1.5522083019013859 1.0030479924275431 -0.13403301434834264 0.021712452761488369 -0.32852414632834026 2.497287769769418 2.5458166949091559 0.2195965890147753 3.2441556495822579 -0.46293849629862172 5.1687613328193001 0.22240560291063846 0.92312611038104608
decision_type=2 2 2 2 2 2 2 2 2 2 2 2 2 2 2 2 2 2 2 2 2 2 2 2 2 2 2 2 2 2
left_child=1 4 5 8 10 11 13 18 16 19 26 22 25 -4 -8 -10 24 -9 -5 -6 -11 -12 -2 -13 -3 -7 -1 -14 -22 -17
right_child=2 3 6 7 9 12 14 17 15 20 21 23 27 -15 -16 29 -18 -19 -20 -21 28 -23 -24 -25 -26 -27 -28 -29 -30 -31
leaf_value=-0.00060715209597149542 0.0027207253295334069 0.00025875315785110634 0.0063046866321800569 0.0012630632351751591 -0.0002584980569446581 0.0042159067457631328 0.0081801459025241646 0.0019288267459419447 0.00074690683094970074 -5.8383305690306642e-06 -0.00047162126032883973 0.0033701945510556984 0.0052121855246081176 0.007297340623195191 0.0090183834286899911 0.00093507628937515065 0.00056481102293697298 0.0023066774608071351 0.0015623826398221984 -9.9558105100597995e-05 0.00011184643914412472 -0.00037059284011535645 0.0031372553976768218 0.0037703631440610575 0.00043570090686055499 0.0046696487850759671 -0.00055230106709707588 0.0057992206589445386 0.00027882130418781324 0.0011448402037356254
leaf_count=205852 3778 10022 1510 7295 35757 1873 958 6052 12009 15208 43491 1953 1789 1456 4048 7713 12331 4266 8573 20300 12853 30076 1391 2168 8704 1039 58220 493 6574 3848
internal_value=0 -0.023337 0.529118 0.0965926 -0.045964 0.375109 0.808931 0.168494 0.0621258 -0.00891192 -0.0559164 0.316458 0.480011 0.679198 0.885797 0.0873449 0.0429863 0.208505 0.142478 -0.0200941 0.0091865 -0.0430318 0.283282 0.358072 0.0341 0.43778 -0.0595059 0.533901 0.016835 0.100489
internal_count=531600 509144 22456 80813 428331 14484 7972 26186 54627 90692 337639 9290 5194 2966 5006 23570 31057 10318 15868 56057 34635 73567 5169 4121 18726 2912 264072 2282 19427 11561
shrinkage=0.01


Tree=4
num_leaves=31
num_cat=0
split_feature=134 134 134 134 0 134 134 134 134 0 9 134 134 134 134 134 0 3 134 0 134 134 169 134 134 169 134 173 177 176
split_gain=6433.54 1354.01 948.428 187.831 162.687 87.3106 77.8853 26.6948 23.1063 19.5378 15.861 12.5405 11.5553 7.12869 5.30482 3.97029 3.77306 3.56886 3.32934 3.09751 2.94224 2.10146 1.77592 1.58256 1.4584 1.39315 1.3185 1.29336 1.23324 1.11845
threshold=1.8218092502577752 0.17673929165822386 4.221446514881829 0.82670628095366727 -0.26186249040105319 2.891578435294067 5.6776111300856638 1.3019298263733139 0.47180423563951929 -0.062507731041760425 -0.40842260816824688 2.3016565207317004 3.5077194131656726 4.8672298574993631 6.4220888871876776 1.0437556431250632 0.33076007460759543 0.65070967790757817 -0.14373165648261857 0.1112459373892118 1.5522083019013859 -0.32852414632834026 2.3603601669405507 2.5458166949091559 -0.46584338409378045 4.721642913622337 3.2441556495822579 0.2195965890147753 -0.071788683025205344 0.41330286452085924
decision_type=2 2 2 2 2 2 2 2 2 2 2 2 2 2 2 2 2 2 2 2 2 2 2 2 2 2 2 2 2 2
left_child=1 4 5 8 10 11 13 15 16 18 24 22 26 -4 -8 -5 27 29 -6 28 -9 -12 -2 -13 -1 -14 -7 -3 -11 -10
right_child=2 3 6 7 9 12 14 20 17 19 21 23 25 -15 -16 -17 -18 -19 -20 -21 -22 -23 -24 -25 -26 -27 -28 -29 -30 -31
leaf_value=-0.00059809635661023039 0.0026803553051635643 0.0002740672960476988 0.0062416396066053027 0.0012773133388357342 -0.00026476481756713087 0.0041737476475320525 0.0080983444877233291 0.0019301140075114226 0.00066800468976057834 -4.1415355377080623e-05 -0.00046737767461036648 0.0033364925951841424 0.0051474206880562359 0.0072243671633999097 0.0089281998120483916 0.0015887539064549658 0.00058374767916953216 0.0010261920112778699 -0.00010283936668278496 0.0002239131922580779 0.0022836106923154252 -0.00035781693561155655 0.0030859416870190732 0.003732659481946943 -0.00052982295486061722 0.0057368889283911095 0.0046229522964263674 0.00044760442075852665 9.9018987209895475e-05 0.00085602318821877219
leaf_count=228251 3587 9387 1510 8744 32669 1873 958 5376 6104 12356 43048 1953 1747 1456 4048 7806 12413 9217 21079 12572 4266 30224 1582 2168 37125 535 1039 8262 13300 6945
internal_value=0 -0.0231036 0.523827 0.0976651 -0.0451246 0.371358 0.800842 0.166802 0.0630596 -0.00782497 -0.055255 0.313294 0.475211 0.672406 0.876939 0.142421 0.0449632 0.0874921 -0.0201261 0.00947018 0.208651 -0.0422185 0.280449 0.354491 -0.0588545 0.528562 0.433402 0.0355305 0.00313854 0.0768073
internal_count=531600 509144 22456 78520 430624 14484 7972 26192 52328 91976 338648 9290 5194 2966 5006 16550 30062 22266 53748 38228 9642 73272 5169 4121 265376 2282 2912 17649 25656 13049
shrinkage=0.01


Tree=5
num_leaves=31
num_cat=0
split_feature=134 2 134 134 2 134 134 134 134 134 2 134 134 134 134 2 134 134 2 2 134 2 134 174 175 9 134 134 174 175
split_gain=6305.51 1327.44 929.554 189.086 154.998 85.5725 76.3347 26.1689 24.3905 17.0997 16.3775 12.2904 11.3248 6.98623 5.19865 3.73885 3.39842 3.37186 3.32714 2.91803 2.51454 1.93406 1.55047 1.48312 1.35363 1.33696 1.29166 1.13636 1.06539 1.05166
threshold=1.8218092502577752 0.16095593354822887 4.221446514881829 0.82670628095366727 -0.25555320982974744 2.891578435294067 5.6776111300856638 1.2754450593772619 0.45214729718360969 -0.04697658592860484 -0.41059824406892403 2.3016565207317004 3.5077194131656726 4.8672298574993631 6.4220888871876776 0.59143152700214929 1.5522083019013859 1.0030479924275431 0.33513991609177718 -0.1291632972888557 0.11617372696395549 -0.34102754429876198 2.5458166949091559 2.4174628221455601 0.1604869391694847 -0.45653026367459837 3.2441556495822579 3.7996072023695597 0.29605061695476242 0.052017436148327184
decision_type=2 2 2 2 2 2 2 2 2 2 2 2 2 2 2 2 2 2 2 2 2 2 2 2 2 2 2 2 2 2
left_child=1 4 5 8 10 11 13 17 18 19 25 23 26 -4 -8 -10 -9 -5 24 -6 29 -12 -13 -2 -3 -1 -7 -14 -20 -11
right_child=2 3 6 7 9 12 14 16 15 20 21 22 27 -15 -16 -17 -18 -19 28 -21 -22 -23 -24 -25 -26 -27 -28 -29 -30 -31
leaf_value=-0.00059423146179392761 0.0026688925675122767 0.00025025228207591185 0.0061792232956712611 0.0012375925670341903 -0.00024432847890131708 0.0041320101296637574 0.0080173611939575572 0.0018906186334052067 0.00072723656301112538 -1.833273573519003e-05 -0.00046355191187623683 0.0033031276301411683 0.0049742615141569668 0.0071521236743409553 0.008838917428679146 0.0009803571920751885 0.0022607745820493992 0.0015313958323964478 0.00045701768804819193 -9.1136326709352974e-05 0.0002204173310548259 -0.00036168376819131287 0.0036953328933903595 0.0030486225048232765 0.00042624437184304165 -0.00053691192817780973 0.0045767227741705906 0.0054304849189884055 0.00064558205610343506 0.0001209015433867372
leaf_count=213019 3705 8835 1510 7294 33798 1873 958 6052 11522 13834 40944 1953 989 1456 4048 12018 4266 8573 6006 19993 11377 35197 2168 1464 9036 51704 1039 1293 6325 9351
internal_value=0 -0.0228726 0.518589 0.0954546 -0.0449069 0.367644 0.792834 0.165141 0.0615009 -0.00757787 -0.0545827 0.310161 0.470459 0.665682 0.86817 0.0856464 0.204366 0.139634 0.0426815 -0.018739 0.0097929 -0.0416462 0.350946 0.277644 0.0339238 -0.0583036 0.429068 0.523276 0.0553739 0.00378234
internal_count=531600 509144 22456 79927 429217 14484 7972 26185 53742 88353 340864 9290 5194 2966 5006 23540 10318 15867 30202 53791 34562 76141 4121 5169 17871 264723 2912 2282 12331 23185
shrinkage=0.01


Tree=6
num_leaves=31
num_cat=0
split_feature=2 2 2 2 2 2 2 2 2 2 2 2 2 50 43 5 2 43 2 177 50 171 177 50 177 171 43 171 171 183
split_gain=6125.48 1286.76 916.768 179.458 148.64 89.9106 74.2562 27.0036 21.6278 17.1894 14.6809 13.9828 10.8022 7.54388 7.21542 6.08704 4.48678 3.82326 3.60305 3.38197 3.25765 2.77243 2.52862 2.51466 2.33313 2.07762 1.97895 1.85598 1.69975 1.68969
threshold=1.7732683515649146 0.15421202802333983 4.2449189011683162 0.77967468108947158 -0.26472576541795556 2.8815150424112574 5.7315316542584087 1.2674668213474698 0.40966933271598621 -0.073390185727445975 -0.41230984565748247 2.2350884818910632 3.5433477593732996 -3.3068807025601088 -0.38922201583189869 4.8703761323308585 1.0485552786971473 2.7609220740765017 0.59143152700214929 1.4131467459121951 -0.57621180381772075 1.5481075611895767 0.15290662695339213 2.6440455206144673 0.057431015859424471 -0.084473275384565241 3.1469609597395247 1.1089763229610281 -0.25225039885825079 0.8725345476937395
decision_type=2 2 2 2 2 2 2 2 2 2 2 2 2 2 2 2 2 2 2 2 2 2 2 2 2 2 2 2 2 2
left_child=1 4 5 8 10 11 13 16 22 25 -1 23 17 -4 -8 -15 -5 -7 -10 -13 -14 -9 -3 27 -11 -6 -21 -2 -12 -17
right_child=2 3 6 7 9 12 14 21 18 24 28 19 20 15 -16 29 -18 -19 -20 26 -22 -23 -24 -25 -26 -27 -28 -29 -30 -31
leaf_value=-0.00057759655104657522 0.0022530640590239575 0.00029554136999973682 0.0052808686899929189 0.001233678695942526 -0.00024889919603739001 0.0040678935123827625 0.0073114490685767912 0.0018775610383628017 0.0006975984157308895 1.0120837271560441e-05 -0.00045087631810460441 0.0030913187674345361 0.0046552852810917214 0.0062546639064256148 0.0086704262948632642 0.0064957285037747139 0.0015617559842841552 0.0048830855418766569 0.00094014016792724785 0.0035110356181590092 0.0054848408139189751 0.0022271530939573687 0.00048864404647532293 0.0031687441160593412 0.00017083124289978609 -0.00011669701254591525 0.0041847536161242283 0.0027087104983533807 -0.0003468681288593563 0.0073835173267592646
leaf_count=263444 1316 13020 398 11233 34484 2268 430 5983 14155 22000 50876 1879 721 1264 4477 270 6699 779 10956 2319 1416 3718 14507 844 15664 18544 547 2933 23319 1137
internal_value=0 -0.0228262 0.504804 0.0933656 -0.0446011 0.359318 0.778812 0.15863 0.0591044 -0.00865403 -0.0542567 0.303149 0.465912 0.65678 0.855134 0.675957 0.135624 0.427631 0.080342 0.34225 0.520496 0.201155 0.0397308 0.266721 0.00769583 -0.0202668 0.363962 0.256759 -0.0418187 0.721315
internal_count=531600 508602 22998 80271 428331 15022 7976 27633 52638 90692 337639 9838 5184 3069 4907 2671 17932 3047 25111 4745 2137 9701 27527 5093 37664 53028 2866 4249 74195 1407
shrinkage=0.01


Tree=7
num_leaves=31
num_cat=0
split_feature=134 134 134 134 2 134 134 134 134 2 2 134 134 134 134 134 2 3 134 134 168 134 9 173 134 134 173 134 176 174
split_gain=6058.46 1275.4 893.177 176.82 154.001 82.1934 73.3221 25.1636 21.7328 17.7901 15.7482 11.8016 10.8779 6.70322 4.99883 3.74532 3.59271 3.32598 3.22045 2.77303 2.45097 1.85672 1.69978 1.63222 1.61439 1.49117 1.11087 1.09368 1.08608 1.03791
threshold=1.8218092502577752 0.17673929165822386 4.221446514881829 0.82670628095366727 -0.25555320982974744 2.891578435294067 5.6776111300856638 1.3019298263733139 0.47180423563951929 -0.042107891511516539 -0.4009253768131969 2.3016565207317004 3.3903705257830947 4.8672298574993631 6.4220888871876776 1.0437556431250632 0.30569984154814028 0.65070967790757817 -0.14373165648261857 1.5522083019013859 0.21435249779184437 3.7996072023695597 -0.45234779164130862 2.497287769769418 -0.27935486625077433 2.5458166949091559 0.33232562060206844 -0.0042328020710223346 0.3841622056252178 0.30036412281574787
decision_type=2 2 2 2 2 2 2 2 2 2 2 2 2 2 2 2 2 2 2 2 2 2 2 2 2 2 2 2 2 2
left_child=1 4 5 8 10 11 13 15 16 18 22 23 -7 -4 -8 -5 26 28 -6 -9 27 -14 -1 -2 -12 -13 -3 -11 -10 -18
right_child=2 3 6 7 9 12 14 19 17 20 24 25 21 -15 -16 -17 29 -19 -20 -21 -22 -23 -24 -25 -26 -27 -28 -29 -30 -31
leaf_value=-0.00058159767651550084 0.0026128273404904929 0.00026893934007903556 0.0060574854170249793 0.0012392785891742664 -0.00024654158971716559 0.0041265145603374331 0.007858367022554661 0.0018731520683709711 0.00064331909399314448 -3.5483800356015206e-05 -0.00042923558551716132 0.0032375440603294742 0.0047968415809088736 0.0070105622489783142 0.008664072086158478 0.0015418350481646512 0.00046224847183061186 0.0009951850215286918 -9.223288645931907e-05 0.0022164392494585625 0.00023118555865941941 0.0053222340018087271 -0.00051760453396767798 0.0030171737382302262 -0.00031851746983605134 0.0036223211785867755 0.00044466720998576119 0.00010776771442194547 0.00082928351045699308 0.00063625713663742456
leaf_count=219458 3778 10101 1510 8744 31550 2451 958 5376 5849 9147 50881 1953 1450 1456 4048 7806 6751 9217 24062 4266 11358 1293 52308 1391 18217 2168 5825 13643 7200 7385
internal_value=0 -0.02242 0.508328 0.0947906 -0.0437922 0.360366 0.777153 0.161871 0.0612146 -0.00693648 -0.0534974 0.304029 0.461131 0.652535 0.850988 0.138198 0.0436636 0.0849108 -0.0179776 0.202504 0.0110446 0.50445 -0.0569281 0.272164 -0.0400046 0.343997 0.0333213 0.00502723 0.0745928 0.0553155
internal_count=531600 509144 22456 78520 430624 14484 7972 26192 52328 89760 340864 9290 5194 2966 5006 16550 30062 22266 55612 9642 34148 2743 271766 5169 69098 4121 15926 22790 13049 14136
shrinkage=0.01


Tree=8
num_leaves=31
num_cat=0
split_feature=134 134 134 134 134 134 134 134 134 7 3 134 134 134 134 3 3 134 134 7 134 172 134 171 134 171 134 173 167 173
split_gain=5937.9 1250.02 875.402 173.3 148.674 80.5572 71.8624 24.6702 21.2997 18.3833 15.3231 11.5661 10.6694 6.56923 4.89876 3.41162 3.2592 3.20354 3.18304 2.56956 2.42203 2.39176 1.96634 1.60099 1.4609 1.25694 1.22441 1.17458 1.05912 1.04602
threshold=1.8218092502577752 0.17673929165822386 4.221446514881829 0.82670628095366727 -0.23565668118703603 2.891578435294067 5.6776111300856638 1.2754450593772619 0.47180423563951929 -0.396902699688713 -0.043447894032782042 2.3016565207317004 3.5077194131656726 4.8672298574993631 6.4220888871876776 0.32974755705383924 0.65070967790757817 1.5522083019013859 1.0030479924275431 -0.27030433601805848 -0.14333829617510122 0.21188830217550872 -0.46584338409378045 2.8848278293248275 2.5458166949091559 3.9492046085850383 3.2441556495822579 0.32736329275947079 1.6508730916728094 0.68353048714768683
decision_type=2 2 2 2 2 2 2 2 2 2 2 2 2 2 2 2 2 2 2 2 2 2 2 2 2 2 2 2 2 2
left_child=1 4 5 8 9 11 13 18 15 22 20 23 26 -4 -8 27 29 -9 -5 -11 -6 -12 -1 -2 -13 -14 -7 -3 -20 -10
right_child=2 3 6 7 10 12 14 17 16 19 21 24 25 -15 -16 -17 -18 -19 28 -21 -22 -23 -24 -25 -26 -27 -28 -29 -30 -31
leaf_value=-0.00057440290425521379 0.0026078025329393296 0.00027606765636684804 0.0059969105282366673 0.0012007526998099359 -0.00023910439393638871 0.0040088339763043627 0.0077797831349183727 0.0018347927674619447 0.00066982577208585497 -0.00042250010904317344 5.1254943871995361e-05 0.0032051686083071056 0.0049072692795251293 0.0069404564860307584 0.0085774313705594182 0.00055747541625832131 0.0009852331766202517 0.0021942748551039078 0.0014281575421119447 -0.00029170760090620429 -9.8774015671886423e-05 0.00023273019905538795 -0.00050077587303456713 0.0030586963571225408 0.0035860979625597818 0.0054084085163922848 0.0044420836739693841 0.00044788507094211083 0.001705009320717682 0.00085859752282359746
leaf_count=229559 4176 10825 1510 7300 24170 1873 958 6052 8304 52039 23048 1953 1505 1456 4048 12688 9217 4266 6776 21464 25682 10799 43863 993 2168 777 1039 6549 1798 4745
internal_value=0 -0.0221958 0.503244 0.0938427 -0.0433543 0.356762 0.769382 0.160252 0.0606025 -0.0524818 -0.00552132 0.300988 0.45652 0.646009 0.842479 0.0432269 0.0840617 0.198342 0.135494 -0.0384307 -0.0166811 0.0109155 -0.0562591 0.269442 0.340557 0.50779 0.416342 0.0340833 0.148621 0.0738469
internal_count=531600 509144 22456 78520 430624 14484 7972 26192 52328 346925 83699 9290 5194 2966 5006 30062 22266 10318 15874 73503 49852 33847 273422 5169 4121 2282 2912 17374 8574 13049
shrinkage=0.01


Tree=9
num_leaves=31
num_cat=0
split_feature=2 2 2 2 2 2 2 2 2 2 2 2 2 1 1 2 1 1 1 1 2 1 1 175 2 172 40 1 172 173
split_gain=5768.17 1183.76 895.684 160.119 139.877 82.1972 78.7606 22.73 20.3497 17.7484 15.1341 12.2024 8.60123 8.2433 7.44715 5.97807 4.75099 4.69106 4.07431 3.70314 3.37597 3.2696 2.75217 2.48279 2.48185 2.18061 2.04547 2.04093 1.96528 1.63167
threshold=1.7289025590878928 0.15421202802333983 4.1498210290788977 0.77967468108947158 -0.27640618781725229 2.8815150424112574 5.7315316542584087 1.1740045918005924 0.40966933271598621 -0.083341242839834448 2.204216891542115 -0.41866974161292742 4.9231438347266971 2.4070031037194601 -0.41342986742606264 3.4624652432212635 0.23251234589148359 -0.77322810009204057 -2.0660580462856046 0.6880758856825876 0.59143152700214929 -0.25964892705963316 0.095509648019996049 0.18295806191967756 0.031643924363439442 -0.093950263935279041 3.4489759465655978 -1.5683217750082539 0.76758610589454845 1.381851938736286
decision_type=2 2 2 2 2 2 2 2 2 2 2 2 2 2 2 2 2 2 2 2 2 2 2 2 2 2 2 2 2 2
left_child=1 4 5 8 11 10 12 22 23 25 21 -1 17 15 -8 -7 29 -4 -14 28 -10 -2 -5 -3 -11 -6 -15 -17 -9 -12
right_child=2 3 6 7 9 13 14 19 20 24 16 -13 18 26 -16 27 -18 -19 -20 -21 -22 -23 -24 -25 -26 -27 -28 -29 -30 -31
leaf_value=-0.00056193237476216294 0.0022644004711840633 0.00028689121567474434 0.0052384030685644449 0.0011393407869954631 -0.00025652405210242762 0.0039029745116809116 0.0072564795862052065 0.0015072795251599078 0.00067727934147376184 -5.4310926379681314e-06 0.002712505845322078 -0.00041678917651316919 0.0060297853517823109 0.0048226142755725928 0.0084437866436221452 0.0042735539636077433 0.0036345286106706028 0.0062651006508237378 0.0072091176972882811 0.0020933068209793531 0.00091211915704516699 0.0027593686985349359 0.0014084769354673807 0.00047809133067271728 0.00015415880978253819 -0.00012349145306723007 0.0056958156440857499 0.00498889673872298 0.001846668633559643 0.0032188369352462941
leaf_count=258431 2420 13288 749 7985 36095 2154 605 2761 14155 21802 1084 74893 410 570 4302 678 2319 1114 1053 4203 10956 3037 7401 14239 18009 19101 521 1004 4649 1612
internal_value=0 -0.0224678 0.482943 0.0894892 -0.0432832 0.34059 0.7492 0.152105 0.0573727 -0.0094311 0.290466 -0.0529321 0.630376 0.447123 0.82974 0.425269 0.330161 0.585233 0.687861 0.185524 0.0779741 0.253987 0.12688 0.0385794 0.00667614 -0.0210487 0.523961 0.470055 0.172021 0.301525
internal_count=531600 507968 23632 79637 428331 15399 8233 26999 52638 95007 10472 333324 3326 4927 4907 3836 5015 1863 1463 11613 25111 5457 15386 27527 39811 55196 1091 1682 7410 2696
shrinkage=0.01


Tree=10
num_leaves=31
num_cat=0
split_feature=134 134 134 134 9 134 134 134 134 0 9 134 134 134 3 134 134 3 134 168 134 134 134 173 173 134 134 134 170 170
split_gain=5704.84 1201.13 840.968 166.537 143.991 77.4433 69.0845 26.4756 18.0502 16.881 14.5165 11.1077 10.2412 6.32008 4.97842 4.70022 3.72088 2.86173 2.61114 2.318 2.14199 1.91586 1.76233 1.56733 1.50867 1.40452 1.33638 1.16004 1.0374 0.974282
threshold=1.8218092502577752 0.17673929165822386 4.221446514881829 0.89819612944081439 -0.25907706295660887 2.891578435294067 5.6776111300856638 0.53889743402063306 1.3019298263733139 -0.037530433726695046 -0.40842260816824688 2.3016565207317004 3.3903705257830947 4.8672298574993631 0.36386191181611793 6.4220888871876776 -0.14333829617510122 0.69336936570276853 1.5522083019013859 0.22465827923909804 -0.32852414632834026 1.1093514464826153 3.7996072023695597 2.497287769769418 0.31682276413141802 2.5458166949091559 -0.46584338409378045 -0.010711831117266032 0.63545666800647493 -0.092683837375534525
decision_type=2 2 2 2 2 2 2 2 2 2 2 2 2 2 2 2 2 2 2 2 2 2 2 2 2 2 2 2 2 2
left_child=1 4 5 7 10 11 13 14 21 16 26 23 -7 -4 24 -8 29 -9 -10 27 -12 -5 -14 -2 -3 -13 -1 -11 -16 -6
right_child=2 3 6 8 9 12 15 17 18 19 20 25 22 -15 28 -17 -18 -19 -20 -21 -22 -23 -24 -25 -26 -27 -28 -29 -30 -31
leaf_value=-0.00056336461188448591 0.0025342857904235259 0.00028739104355403523 0.0058771951976201399 0.001295179964834113 -0.00028178268898156506 0.0040046503936612739 0.0076260328176188325 0.00080054778845170321 0.0018179395911625935 -4.1513432994273954e-05 -0.00044252637217901059 0.0031413254314433653 0.0046540565186533435 0.0068027585492070235 0.00053771288174477851 0.0084074499879194346 -8.0591565831255509e-05 0.0010400854598396311 0.0021511659203230396 0.00022800176000641547 -0.00033320881329327445 0.0015398879758650077 0.0051661372818600183 0.0029306603776388762 0.00046282025752913107 0.0035149831764874255 -0.00049794962313408559 0.00010730265782691044 0.00071796888847875816 -0.00016400400293529893
leaf_count=228251 3778 12390 1510 7792 22718 2451 958 10877 5376 8822 42634 1953 1450 1456 9431 4048 24145 9391 4266 10875 31681 5574 1293 1391 8382 2168 37125 13747 5041 10626
internal_value=0 -0.0217559 0.49327 0.0919907 -0.0424964 0.349697 0.75412 0.0623389 0.163532 -0.00715005 -0.0519584 0.295012 0.447509 0.633155 0.0457683 0.825791 -0.0175514 0.0911535 0.196537 0.0107295 -0.0395924 0.139723 0.489544 0.264095 0.0358181 0.33379 -0.0554213 0.00491319 0.0600501 -0.0244249
internal_count=531600 509144 22456 78520 430624 14484 7972 55512 23008 90933 339691 9290 5194 2966 35244 5006 57489 20268 9642 33444 74315 13366 2743 5169 20772 4121 265376 22569 14472 33344
shrinkage=0.01


Tree=11
num_leaves=31
num_cat=0
split_feature=2 2 2 2 2 2 2 2 2 2 2 2 2 8 15 2 15 2 2 22 2 178 22 15 2 15 22 173 177 178
split_gain=5541.7 1230.33 753.643 171.266 147.9 74.4201 58.6633 24.5369 22.0202 16.7436 15.1462 11.7016 7.96853 7.08509 6.31103 4.98459 3.65519 3.24957 3.23732 3.1736 3.1658 3.01322 2.89565 2.82622 2.27076 2.1665 2.13601 2.11073 2.00899 1.94746
threshold=1.8889466277872022 0.18441629409110274 4.3476314936363467 0.88716653022682845 -0.2403169847006377 3.0305213901175843 5.7315316542584087 0.50260739153801037 1.3574120509076821 -0.39926693884215425 -0.031695272366085471 2.4272139246937718 3.5433477593732996 -0.28086892162517646 -4.8018119262477823 4.9231438347266971 -0.80812866349865742 0.33513991609177718 1.091926368900084 2.7110793679177632 0.68663561032330245 0.6982256176900753 2.9352104812498321 5.1039278529928742 -0.13403301434834264 6.4399871487330573 2.6382605322328305 1.4592952471209839 0.11969775625763769 0.85635413797372983
decision_type=2 2 2 2 2 2 2 2 2 2 2 2 2 2 2 2 2 2 2 2 2 2 2 2 2 2 2 2 2 2
left_child=1 4 5 7 9 11 14 17 18 -1 24 22 23 -8 -4 -16 -14 -3 -5 29 -9 -10 27 -7 -6 -18 -23 -2 -12 -13
right_child=2 3 6 8 10 12 13 20 21 -11 28 19 16 -15 15 -17 25 -19 -20 -21 -22 26 -24 -25 -26 -27 -28 -29 -30 -31
leaf_value=-0.00054660397574371347 0.0023837371780237519 0.00035677862763014781 0.0049250932344018592 0.0012705922886661674 -0.00020859695610972104 0.0040631207081955152 0.0071022722415499777 0.00077928234469520463 0.0017931266326288112 -0.00037616250311455743 5.7191572024423233e-05 0.0029085252287649093 0.0044815518997644108 0.0082730679968205864 0.0060132744736683388 0.0069066870399806472 0.0051787019575057526 0.00056126661854369797 0.0015644569327705382 0.0040182740217751464 0.0010202659777146584 0.0021035911510187623 0.0032956902054949336 0.005314904192835093 -7.5082148509136043e-05 0.0064970378052416466 0.0026898587508541018 0.0028271219248711277 0.00021768781131509401 0.0034739296626451329
leaf_count=272840 1881 16638 292 7744 30682 2057 590 12278 3223 73239 20112 859 864 4317 1198 1321 1392 14837 7398 823 9973 5052 804 200 22278 139 720 2586 13053 2210
internal_value=0 -0.0209782 0.496926 0.0947348 -0.0418243 0.35709 0.747226 0.0632966 0.164712 -0.0510534 -0.00473862 0.304784 0.460119 0.81323 0.632009 0.648179 0.500372 0.0453172 0.141417 0.346425 0.0887292 0.203928 0.274037 0.417405 -0.0152433 0.529839 0.217672 0.264042 0.0120359 0.331568
internal_count=531600 510067 21533 77863 432204 13815 7718 53726 24137 346079 86125 9163 4652 4907 2811 2519 2395 31475 15142 3892 22251 8995 5271 2257 52960 1531 5772 4467 33165 3069
shrinkage=0.01


Tree=12
num_leaves=31
num_cat=0
split_feature=134 134 134 134 134 134 134 134 134 7 3 134 134 134 134 3 134 134 3 5 7 169 134 134 169 134 174 175 134 169
split_gain=5481.26 1154.08 807.944 160.078 137.441 74.3963 66.3989 22.7785 19.6856 16.8823 13.969 10.6665 9.8425 6.06656 4.50348 3.07929 2.96205 2.93822 2.93349 2.37991 2.34152 2.31699 1.84882 1.6852 1.60018 1.34702 1.11322 1.06735 1.04467 1.02405
threshold=1.8218092502577752 0.17673929165822386 4.221446514881829 0.82670628095366727 -0.23565668118703603 2.891578435294067 5.6776111300856638 1.2754450593772619 0.47180423563951929 -0.396902699688713 -0.043447894032782042 2.3016565207317004 3.3903705257830947 4.8672298574993631 6.4220888871876776 0.32974755705383924 1.5522083019013859 1.0030479924275431 0.60277577567049134 -0.16222251418709391 -0.27374301590340361 0.2277696674684824 -0.46584338409378045 3.7996072023695597 2.3603601669405507 2.5458166949091559 -0.0063666614702920102 0.015835691400948964 0.037813641030686657 1.08673300285607
decision_type=2 2 2 2 2 2 2 2 2 2 2 2 2 2 2 2 2 2 2 2 2 2 2 2 2 2 2 2 2 2
left_child=1 4 5 8 9 11 13 17 15 22 19 24 -7 -4 -8 26 -9 -5 -10 -6 -11 28 -1 -14 -2 -13 -3 -21 -12 -20
right_child=2 3 6 7 10 12 14 16 18 20 21 25 23 -15 -16 -17 -18 -19 29 27 -22 -23 -24 -25 -26 -27 -28 -29 -30 -31
leaf_value=-0.00055197593674050592 0.0024709088813746152 0.00021498471975244979 0.0057607386171423048 0.0011538683944606681 -0.0002336528204169822 0.0039252909359391835 0.0074758976487936703 0.0017630305181904943 0.00069045096760552793 -0.00040709613720376134 -1.4781779514233223e-05 0.0030792562357978338 0.0045624891383894564 0.006667637742728323 0.0082408916817705621 0.00053419817626711716 0.0021088284152209324 0.0014282392075069858 0.00086339786601982412 -0.00013991064356525757 -0.00028348328619585294 0.00022746580933876362 -0.00048054889779379771 0.0050634312309318979 0.0028562559422892052 0.0034453490281621908 0.00038635911859580773 -3.77970270521764e-06 0.00012165005688559866 0.0010822455853277016
leaf_count=229559 3587 5888 1510 7300 23276 2451 958 6052 10945 51239 12562 1953 1450 1456 4048 12688 4266 8574 8330 17670 22264 10601 43863 1293 1582 2168 11486 8906 10684 2991
internal_value=0 -0.0213253 0.483507 0.0901715 -0.0416556 0.342782 0.739185 0.153998 0.0582242 -0.0504317 -0.00527963 0.289182 0.438651 0.620593 0.809449 0.0415191 0.1906 0.130206 0.0807783 -0.0159359 -0.0369654 0.0104157 -0.0540517 0.479862 0.258885 0.327185 0.0328281 -0.00942912 0.00479231 0.0921217
internal_count=531600 509144 22456 78520 430624 14484 7972 26192 52328 346925 83699 9290 5194 2966 5006 30062 10318 15874 22266 49852 73503 33847 273422 2743 5169 4121 17374 26576 23246 11321
shrinkage=0.01


Tree=13
num_leaves=31
num_cat=0
split_feature=134 134 134 134 134 134 134 134 134 16 3 134 134 134 3 134 134 3 172 134 134 134 16 172 173 170 171 134 171 178
split_gain=5372.28 1150.81 768.753 163.582 134.706 68.8093 65.077 24.9534 18.6514 16.6978 13.6904 9.65747 9.28019 5.94524 4.63745 4.41326 2.72472 2.65962 2.24269 2.22232 2.13646 2.02453 1.94422 1.45403 1.36367 1.32502 1.21923 1.12638 1.03772 0.998565
threshold=1.8569812304330273 0.17673929165822386 4.221446514881829 0.89819612944081439 -0.23565668118703603 2.891578435294067 5.6776111300856638 0.53889743402063306 1.3688859070489452 -0.38731350975049 -0.043447894032782042 3.5077194131656726 2.3016565207317004 4.8672298574993631 0.36386191181611793 6.4220888871876776 1.1093514464826153 0.69336936570276853 0.21188830217550872 -0.14333829617510122 -0.46584338409378045 1.6429899409412063 -0.26202979204363736 0.31992805831883175 2.6532655137494188 2.7135124062728271 3.9492046085850383 3.2441556495822579 0.61104377292285073 -0.056734421835371758
decision_type=2 2 2 2 2 2 2 2 2 2 2 2 2 2 2 2 2 2 2 2 2 2 2 2 2 2 2 2 2 2
left_child=1 4 5 7 9 12 13 14 16 20 19 27 24 -4 23 -8 -5 -9 -12 -6 -1 -10 -11 -3 -2 -14 -13 -7 -16 -21
right_child=2 3 6 8 10 11 15 17 21 22 18 26 25 -15 28 -17 -18 -19 -20 29 -22 -23 -24 -25 -26 -27 -28 -29 -30 -31
leaf_value=-0.00054625614333906063 0.0024909791934470734 0.00027807215113066368 0.0057031312699349513 0.0012567884979088875 -0.00022705246042004849 0.0038119102641144542 0.0074011385391052186 0.00077759988053331772 0.0018555246976194992 -0.00039295359258890528 4.702493519861484e-05 0.0046623831773022085 0.0030986305261989245 0.0066009612575910247 0.0005175187606547805 0.0081584828948462196 0.0015292478136495382 0.0010086151077345678 0.00022282627842143085 -0.00014495531095676928 -0.00047249056702115355 0.0021771864327476639 -0.0002740787229948751 0.00045018824088215729 0.0028918185624672689 0.0034731549295424491 0.0051561252099666822 0.0042278873414174079 0.00069650981669798929 -1.6122572876262821e-05
leaf_count=230888 3568 12338 1510 7792 24170 1873 958 10877 5468 48264 23048 1505 2575 1456 9268 4048 7085 9391 10799 15237 48111 3118 19662 8434 1146 1546 777 1039 5204 10445
internal_value=0 -0.0208879 0.483817 0.09008 -0.041239 0.342904 0.731793 0.0604889 0.160091 -0.0499273 -0.00522684 0.434264 0.289194 0.614387 0.0444012 0.801355 0.138654 0.0884639 0.0103115 -0.0157766 -0.0533536 0.197234 -0.0358544 0.0347956 0.258843 0.323913 0.48305 0.396033 0.0581882 -0.00925584
internal_count=531600 509599 22001 78975 430624 14029 7972 55512 23463 346925 83699 5194 8835 2966 35244 5006 14877 20268 33847 49852 278999 8586 67926 20772 4714 4121 2282 2912 14472 25682
shrinkage=0.01


Tree=14
num_leaves=31
num_cat=0
split_feature=2 2 2 2 2 2 2 2 2 2 2 2 2 1 1 2 1 1 1 1 2 1 1 175 2 29 8 173 173 1
split_gain=5218.44 1071.37 809.752 144.738 126.484 74.3891 71.1662 20.5923 18.3667 15.9649 11.8254 11.0485 9.2268 7.87243 6.79111 5.91768 4.92829 4.18793 3.33247 3.23587 3.04268 2.97109 2.49855 2.32511 2.26392 2.14488 2.04545 1.98425 1.75012 1.69793
threshold=1.7289025590878928 0.15421202802333983 4.1498210290788977 0.77967468108947158 -0.27640618781725229 2.7105198234429801 5.7315316542584087 1.1740045918005924 0.40966933271598621 -0.083341242839834448 3.2997656504881752 -0.41866974161292742 2.204216891542115 -2.0660580462856046 -0.41342986742606264 4.9231438347266971 -0.65473266155852416 1.6644660326229201 0.6880758856825876 0.32291815590471457 0.59143152700214929 -0.25964892705963316 0.61281763293577696 0.18295806191967756 0.031643924363439442 -4.8882324453542179 7.1275220651214672 -0.11051398956694387 0.74794399658879129 3.0721138733084299
decision_type=2 2 2 2 2 2 2 2 2 2 2 2 2 2 2 2 2 2 2 2 2 2 2 2 2 2 2 2 2 2
left_child=1 4 5 8 11 12 13 22 23 27 17 -1 21 25 -8 29 -12 -7 28 -14 -10 -2 -5 -3 -11 -4 -18 -6 -9 -15
right_child=2 3 6 7 9 10 14 18 20 24 16 -13 19 15 -16 -17 26 -19 -20 -21 -22 -23 -24 -25 -26 -27 -28 -29 -30 -31
leaf_value=-0.00053451964776955253 0.0021532252449927127 0.00027173611403567691 0.0041257922466724148 0.0011123444111526984 -0.00024587758667495653 0.0034692754104720682 0.0068965627523985776 0.0014382626827632275 0.00064445683151672869 -6.0299742576998482e-06 0.0040803787216220208 -0.00039639175203635675 0.0027904792283631168 0.0056394349696672506 0.0080305875640367692 0.0068602383917892766 0.0048432573619319871 0.0042714237360479803 0.0019907738717938519 0.0033712248818180655 0.00086751066916131213 0.0026252734171950949 0.0013809441405616882 0.00045684011651674457 0.00014647965834522884 0.0054252409981930347 0.0062900392626816376 -0.00012044587652428552 0.0017577560731363215 0.0064401677355290744
leaf_count=258431 2420 13288 155 9986 35014 2331 605 2808 14155 21802 1150 74893 2138 985 4302 1053 1535 912 4203 1770 10956 3037 5400 14239 18009 762 106 20182 4602 371
internal_value=0 -0.0213703 0.459353 0.0851395 -0.041173 0.324001 0.712517 0.144672 0.0546041 -0.00898198 0.410607 -0.0503484 0.268199 0.599564 0.789077 0.629638 0.458387 0.369486 0.176484 0.305351 0.0741776 0.241594 0.120661 0.0367486 0.00629597 0.52056 0.493671 -0.0200014 0.163668 0.585851
internal_count=531600 507968 23632 79637 428331 15399 8233 26999 52638 95007 6034 333324 9365 3326 4907 2409 2791 3243 11613 3908 25111 5457 15386 27527 39811 917 1641 55196 7410 1356
shrinkage=0.01


Tree=15
num_leaves=31
num_cat=0
split_feature=2 2 2 2 2 2 2 2 2 2 2 2 1 1 1 5 5 2 1 1 1 173 2 2 172 174 5 171 2 173
split_gain=5114.71 1135.88 695.307 158.173 136.515 68.6575 54.073 22.5867 20.3749 15.4466 13.9136 10.8044 8.04409 6.94228 6.65537 4.89173 4.61188 4.01404 3.70264 3.40362 3.36574 3.01197 2.98095 2.88574 2.25298 1.97207 1.96406 1.75244 1.59123 1.57863
threshold=1.8889466277872022 0.18441629409110274 4.3476314936363467 0.88716653022682845 -0.2403169847006377 3.0305213901175843 5.7315316542584087 0.50260739153801037 1.3574120509076821 -0.39877308504678183 -0.031695272366085471 2.4272139246937718 1.0602919143215763 -2.1724212252265969 -0.41342986742606264 4.8703761323308585 3.778020895638714 3.5433477593732996 -0.48035703087913012 0.12589914017728696 0.57888165993606222 0.33232562060206844 1.091926368900084 0.68663561032330245 -0.069351331614571674 0.19414232064355919 1.6572439963675751 -0.25225039885825079 -0.4544086171116401 1.6887132964409028
decision_type=2 2 2 2 2 2 2 2 2 2 2 2 2 2 2 2 2 2 2 2 2 2 2 2 2 2 2 2 2 2
left_child=1 4 5 7 9 11 13 21 22 28 24 20 17 -4 -8 -15 -14 -7 -13 -10 29 -3 -5 -9 -6 -12 -21 -11 -1 -2
right_child=2 3 6 8 10 12 14 23 19 27 25 18 16 15 -16 -17 -18 -19 -20 26 -22 -23 -24 -25 -26 -27 -28 -29 -30 -31
leaf_value=-0.00053697122486633944 0.0022139982445405944 0.00034473954220906567 0.0052530726643183487 0.001220865561297404 -0.0001968577326590637 0.0037209256749327589 0.0068275970811686243 0.00074901589248289966 0.0017704504390050721 -0.00039707726587119617 6.0062874488686178e-05 0.0029737921657242146 0.004505865653498268 0.0058545632632565209 0.007950281632855459 0.0068358466820791367 0.0055494751243127718 0.0044654546504855324 0.0035988998074116562 0.0019643670747719068 0.0029423824202374749 0.00054195997023078195 0.0015029656619929973 0.00097919828569327082 -6.1085244573334867e-05 0.0002246337839484332 0.0023934167247131669 -0.00029318108857984718 -0.0004752947399187617 0.0026669847141661636
leaf_count=220371 1685 16966 759 7744 33211 1435 605 12278 4633 47581 22043 1683 977 964 4302 1088 756 1484 2209 2359 2120 14509 7398 9973 19749 11122 2003 25289 52838 1466
internal_value=0 -0.0201538 0.477398 0.091029 -0.0401838 0.343084 0.717817 0.0608162 0.158279 -0.0490507 -0.0045537 0.292842 0.442044 0.607196 0.781186 0.637485 0.496113 0.409944 0.332859 0.196003 0.263294 0.0435652 0.135869 0.0852185 -0.0146228 0.0115252 0.216138 -0.0361021 -0.0525043 0.242475
internal_count=531600 510067 21533 77863 432204 13815 7718 53726 24137 346079 86125 9163 4652 2811 4907 2052 1733 2919 3892 8995 5271 31475 15142 22251 52960 33165 4362 72870 273209 3151
shrinkage=0.01


Tree=16
num_leaves=31
num_cat=0
split_feature=134 134 134 134 2 134 134 134 134 2 2 134 134 134 2 134 134 2 2 134 134 16 171 171 177 176 171 171 134 176
split_gain=5059.29 1084.23 723.992 154.195 128.426 64.8598 61.3314 23.5145 17.5922 14.6854 13.1358 9.10381 8.74631 5.60103 4.42281 4.15012 2.56339 2.4294 2.41974 2.36097 1.9073 1.53017 1.50216 1.30923 1.28644 1.22432 1.186 1.12871 1.05777 1.04907
threshold=1.8569812304330273 0.17673929165822386 4.221446514881829 0.89819612944081439 -0.25555320982974744 2.891578435294067 5.6776111300856638 0.53889743402063306 1.3688859070489452 -0.059288292041888589 -0.39964423864768467 3.5077194131656726 2.3016565207317004 4.8672298574993631 0.33513991609177718 6.4220888871876776 1.1093514464826153 0.11628902710651103 0.68663561032330245 -0.14373165648261857 1.6429899409412063 -0.45482418300205851 -0.25225039885825079 2.8848278293248275 1.7281305723998792 0.21026778852055081 3.9492046085850383 0.61104377292285073 3.2441556495822579 -0.12756568949633637
decision_type=2 2 2 2 2 2 2 2 2 2 2 2 2 2 2 2 2 2 2 2 2 2 2 2 2 2 2 2 2 2
left_child=1 4 5 7 10 12 13 14 16 19 21 28 23 -4 25 -8 -5 29 -9 -6 -10 -1 -12 -2 -14 -3 -13 -16 -7 -11
right_child=2 3 6 8 9 11 15 18 20 17 22 26 24 -15 27 -17 -18 -19 -20 -21 -22 -23 -24 -25 -26 -27 -28 -29 -30 -31
leaf_value=-0.00053255456437838026 0.0024279193174610572 0.00024906199517808303 0.0055339663713578355 0.0012200293978536691 -0.0002284425980659556 0.0036994585895874068 0.0071829237098298138 0.00075444853548314536 0.0018014418156177994 -4.4547829890373678e-05 -0.00039835730387304425 0.0045224803060887261 0.0029480217314340642 0.0064055525363105673 0.00048916854055203835 0.0079174994004397054 0.0014843901873539676 0.00020807347252910097 0.0009746408316616209 -9.0857706466732947e-05 0.0021137917704965067 -0.00047449020096982481 -0.00029803781868430282 0.0028514693033711244 0.0033068786354454685 0.00041290691897440525 0.0050096119096457118 0.00066483152573502523 0.0041029071023363237 8.6841128521097645e-05
leaf_count=213520 3784 9999 1510 7792 30874 1873 958 10674 5468 10578 45345 1505 1879 1456 10684 4048 7085 11652 9594 21376 3118 59080 22919 930 2242 8771 777 5790 1039 15280
internal_value=0 -0.0202703 0.469512 0.08744 -0.040024 0.332763 0.710161 0.0587104 0.155413 -0.0063669 -0.048887 0.421463 0.280617 0.596183 0.0430928 0.777692 0.134593 0.00874481 0.0858678 -0.0172155 0.191487 -0.051997 -0.0364676 0.251148 0.314326 0.0325625 0.468834 0.0550908 0.384341 0.00330925
internal_count=531600 509599 22001 78975 430624 14029 7972 55512 23463 89760 340864 5194 8835 2966 35244 5006 14877 37510 20268 52250 8586 272600 68264 4714 4121 18770 2282 16474 2912 25858
shrinkage=0.01


Tree=17
num_leaves=31
num_cat=0
split_feature=134 134 134 134 0 134 134 134 134 134 134 134 134 134 134 3 134 134 0 134 0 134 173 170 170 16 173 179 174 170
split_gain=4958.61 1044.48 730.893 151.536 118.251 67.3501 60.1103 20.6535 19.6741 15.8544 9.92016 9.64918 8.92879 5.48897 4.06693 3.17924 3.07155 3.04229 2.868 2.28414 2.23771 1.56071 1.4352 1.33499 1.27156 1.19813 1.02373 0.983613 0.957804 0.955525
threshold=1.8218092502577752 0.15915484649931902 4.221446514881829 0.82670628095366727 -0.28282225141799161 2.891578435294067 5.6776111300856638 1.3019298263733139 0.45214729718360969 -0.089086331110523886 -0.41868253221986679 2.3016565207317004 3.3903705257830947 4.8672298574993631 6.4220888871876776 0.042603721475671284 1.0437556431250632 0.63735808357028845 0.29057340714069768 1.5522083019013859 -0.15622222715244052 3.7996072023695597 2.6532655137494188 -0.29848276629892406 2.7135124062728271 -0.44692363377195865 0.68353048714768683 0.040681010273266219 2.8474254709693247 0.59661291789608473
decision_type=2 2 2 2 2 2 2 2 2 2 2 2 2 2 2 2 2 2 2 2 2 2 2 2 2 2 2 2 2 2
left_child=1 4 5 8 10 11 13 16 18 20 25 22 -7 -4 -8 -11 -5 26 27 -9 -6 -14 -2 -12 -13 -1 -10 -3 -15 -20
right_child=2 3 6 7 9 12 14 19 17 15 23 24 21 28 -16 -17 -18 -19 29 -21 -22 -23 -24 -25 -26 -27 -28 -29 -30 -31
leaf_value=-0.00052631209115602698 0.0023684783872348924 0.00019181113306650574 0.005478626629769408 0.0011215933837747125 -0.0002519719788635039 0.0037331329879317903 0.007111094675973712 0.00169559233020079 0.00059136849350648762 -1.8700548950167343e-05 -0.00041324030123985082 0.0029741188052933194 0.0043376672237083833 0.0059899417943386143 0.0078383247604365408 0.00015959562915446586 0.0013958260386391236 0.00088585466735260606 0.00041977736001790256 0.0020075084834007668 -0.00011907996786579554 0.0048200876031240939 0.0027648526500913574 -0.00031788314703087769 0.0033411806490257828 -0.00046820915458897501 0.00077592662716282463 0.00035008797754626758 0.0065344785547002838 0.00059755239955527689
leaf_count=222346 3948 7020 1510 8744 35461 2451 958 5376 8735 24678 41700 2575 1450 516 4048 17084 7806 10316 9564 4266 20130 1293 1221 23455 1546 43495 4790 9551 940 4627
internal_value=0 -0.0202831 0.459878 0.0840066 -0.0399542 0.326031 0.70306 0.146543 0.0540091 -0.00931375 -0.0489662 0.275032 0.417249 0.590221 0.769915 0.00542369 0.125094 0.0755873 0.0372857 0.18336 -0.0203851 0.456507 0.246211 -0.0378913 0.311182 -0.0516806 0.0656731 0.0283037 0.63415 0.0477741
internal_count=531600 509144 22456 80795 428349 14484 7972 26192 54603 97353 330996 9290 5194 2966 5006 41762 16550 23841 30762 9642 55591 2743 5169 65155 4121 265841 13525 16571 1456 14191
shrinkage=0.01


Tree=18
num_leaves=31
num_cat=0
split_feature=2 2 2 2 2 2 2 2 2 2 2 2 2 1 5 1 1 1 1 1 2 1 2 1 173 5 2 5 169 169
split_gain=4816.37 988.89 747.035 133.628 116.696 68.689 65.6277 19.018 17.0079 14.7594 10.8971 10.2057 8.54758 7.32368 6.94263 6.28313 4.59084 3.88772 3.0586 2.99056 2.80113 2.72538 2.43783 2.32582 2.19312 2.08865 1.87659 1.75007 1.73603 1.68941
threshold=1.7289025590878928 0.15421202802333983 4.1498210290788977 0.77967468108947158 -0.27640618781725229 2.7105198234429801 5.7315316542584087 1.1740045918005924 0.40966933271598621 -0.09629553153336641 3.2997656504881752 -0.41866974161292742 2.204216891542115 -2.0660580462856046 4.8703761323308585 -0.41342986742606264 -0.65473266155852416 1.6644660326229201 0.6880758856825876 0.32291815590471457 0.56872179597666828 -0.25964892705963316 0.031643924363439442 0.095509648019996049 0.2195965890147753 3.778020895638714 4.9231438347266971 1.5366018421101442 -0.13321244075040578 1.2011155314896635
decision_type=2 2 2 2 2 2 2 2 2 2 2 2 2 2 2 2 2 2 2 2 2 2 2 2 2 2 2 2 2 2
left_child=1 4 5 8 11 12 13 23 24 28 17 -1 21 26 -15 -8 -12 -7 29 -14 -10 -2 -11 -5 -3 -18 -4 -20 -6 -9
right_child=2 3 6 7 9 10 15 18 20 22 16 -13 19 14 -16 -17 25 -19 27 -21 -22 -23 -24 -25 -26 -27 -28 -29 -30 -31
leaf_value=-0.00051352231296144819 0.0020689157105381949 0.00026221163862701248 0.004587778954728115 0.0010401122525040987 -0.0002455439135857314 0.0033330157077789357 0.0066233970357859433 0.0014232316858158942 0.00060737869247403026 -1.3135537063329827e-05 0.0039178596272416736 -0.00038075275525698465 0.0026814204216100011 0.0055650669106466601 0.0066468554177769911 0.0077143788303069777 0.0044590677115807003 0.004106091092291631 0.001730234023229795 0.0032399297246320097 0.00081974490640954569 0.0025212276206837258 0.00014088419039387319 0.0012877695936686963 0.00044195106454821036 0.0051967988957570301 0.0055048797632135998 0.0021449284543583629 -0.0001265769699082838 0.0017279355129134932
leaf_count=258431 2420 13663 507 7985 31851 2331 605 3770 12629 24632 1150 74893 2138 1329 1080 4302 1006 912 2358 1770 12482 3037 18009 7401 13864 635 410 1845 20515 3640
internal_value=0 -0.0205306 0.441303 0.0817975 -0.0395558 0.311297 0.684465 0.139 0.0524573 -0.00863507 0.39452 -0.0483691 0.257675 0.575995 0.605005 0.757987 0.440392 0.355042 0.169573 0.293438 0.071294 0.232064 0.00519132 0.115924 0.0352738 0.474454 0.499782 0.191227 -0.0198937 0.157291
internal_count=531600 507968 23632 79637 428331 15399 8233 26999 52638 95007 6034 333324 9365 3326 2409 4907 2791 3243 11613 3908 25111 5457 42641 15386 27527 1641 917 4203 52366 7410
shrinkage=0.01


Tree=19
num_leaves=31
num_cat=0
split_feature=2 2 2 2 2 2 2 2 2 2 2 2 2 8 29 2 15 22 175 178 2 172 29 15 172 175 43 15 172 8
split_gain=4720.62 1048.47 641.445 146.152 125.959 63.3638 49.8558 20.8298 18.8187 14.2997 12.8275 9.98406 6.78147 6.14284 5.74861 3.62765 3.22885 2.86656 2.84724 2.79235 2.749 2.72051 2.60407 2.51478 2.16088 2.09627 1.96139 1.94886 1.84138 1.83452
threshold=1.8889466277872022 0.18441629409110274 4.3476314936363467 0.88716653022682845 -0.2403169847006377 3.0305213901175843 5.7315316542584087 0.50260739153801037 1.3574120509076821 -0.39192032728153808 -0.031695272366085471 2.4272139246937718 3.5433477593732996 -0.28086892162517646 -3.3068807025601088 4.9231438347266971 -0.80812866349865742 2.7110793679177632 0.3389526357640727 0.6982256176900753 1.091926368900084 0.79505437426799153 3.5012146819964562 5.1039278529928742 -0.069351331614571674 2.2920972708883398 2.6560940992184849 6.4399871487330573 0.20464897396905923 1.891801621507027
decision_type=2 2 2 2 2 2 2 2 2 2 2 2 2 2 2 2 2 2 2 2 2 2 2 2 2 2 2 2 2 2
left_child=1 4 5 7 9 11 14 18 20 -1 24 22 23 -8 -4 -16 -14 -13 -3 -10 -5 -9 25 -7 -6 -2 -21 -18 -12 -17
right_child=2 3 6 8 10 12 13 21 19 -11 28 17 16 -15 15 29 27 -19 -20 26 -22 -23 -24 -25 -26 -27 -28 -29 -30 -31
leaf_value=-0.00050313628805644637 0.0023059553645163058 0.00033296433188952681 0.0046484190860664612 0.0011732257888165626 -0.00019009416839082337 0.0037481333250899774 0.0065446700486591304 0.00073134866956839904 0.0016465389736964853 -0.00034145930107306428 5.8172165117803922e-05 0.0030570829280123476 0.0041274384565271986 0.0076351894941875612 0.0055914826577131227 0.0060696116194422613 0.0047819711415139935 0.0037251647857367487 0.00052537773055504511 0.0019467239206783244 0.0014442423126596021 0.00096033489121801125 0.0031740872515200937 0.0049297023706138133 -5.7088591417300698e-05 0.0027614060027007633 0.002514316747229631 0.0060332891709512946 0.0002182325774526446 0.0068444032792305612
leaf_count=277780 3196 17487 359 7744 33211 2057 590 13782 3223 68299 22303 3069 864 4317 1137 812 1392 823 13988 5068 7398 8469 566 200 19749 1509 704 139 10862 503
internal_value=0 -0.0193619 0.458638 0.0874573 -0.0386057 0.32963 0.689557 0.058415 0.152102 -0.0471229 -0.00438061 0.281363 0.424701 0.750407 0.583335 0.600684 0.461847 0.319836 0.0418476 0.188359 0.130564 0.0818504 0.252956 0.385284 -0.0140496 0.245203 0.201595 0.489558 0.0110594 0.636598
internal_count=531600 510067 21533 77863 432204 13815 7718 53726 24137 346079 86125 9163 4652 4907 2811 2452 2395 3892 31475 8995 15142 22251 5271 2257 52960 4705 5772 1531 33165 1315
shrinkage=0.01


Tree=20
num_leaves=31
num_cat=0
split_feature=5 7 5 5 7 5 5 7 7 7 7 8 43 5 5 8 176 8 18 173 175 176 29 179 173 12 170 5 29 176
split_gain=4606.37 1018.76 626.346 137.804 125.092 66.011 45.5076 19.7796 17.463 13.5867 13.3788 11.4023 10.3436 8.79612 8.5953 5.70558 4.33162 3.66777 3.41048 3.39144 3.34352 3.33705 2.83143 2.73952 2.58322 2.4816 2.35616 2.15405 1.8377 1.82378
threshold=1.963253339546027 0.18640477221948473 4.1262842242313278 0.91383309794136436 -0.24826186560714988 5.9305634174112605 3.0808440269480473 1.3188242594420811 0.49931815495097814 -0.049117845101551962 -0.40223226016659225 -2.5562452539798675 -3.5260733496964662 4.8703761323308585 2.497003868459613 -1.1580631557584102 0.28624205604060277 -1.5634774882827982 3.401236392852379 0.74794399658879129 0.26348499765242556 0.70629755776039393 1.9872974661678622 0.19608852353789316 0.19992829081978894 3.5085038652619063 -0.079158318803743605 1.6103559447420264 -0.044806306075051622 -0.25694477773466978
decision_type=2 2 2 2 2 2 2 2 2 2 2 2 2 2 2 2 2 2 2 2 2 2 2 2 2 2 2 2 2 2
left_child=1 4 6 8 10 12 14 16 20 26 -1 -7 -4 -14 21 18 -5 -16 -8 -9 -3 -2 -18 -10 -11 -17 -6 -21 -13 -12
right_child=2 3 5 7 9 11 15 19 23 24 29 28 13 -15 17 25 22 -19 -20 27 -22 -23 -24 -25 -26 -27 -28 -29 -30 -31
leaf_value=-0.00049984831372042865 0.00207755700374595 0.00030852418279598556 0.0042665659331675597 0.00097260083117587401 -0.00020264291904288796 0.0053201141208410263 0.0029798878072941487 0.0015354150378824455 0.0006227985844839231 4.2581957626516087e-05 -0.00038425609910365234 0.0067129105557883839 0.0053241361788127061 0.0063624094375842825 0.002621344233389087 0.004040450010076412 0.0012720604246438114 0.003311379402761628 0.003983532337076736 0.0017578766018896852 0.00051870866861035783 0.0026487328296196273 0.0016827150916835613 0.00086830411581139333 0.00022275351305542254 0.0046618604967321696 -6.2925994070207699e-05 0.0021170098723433226 0.0075844668225946502 -0.00027891828803533692
leaf_count=269945 1414 15353 477 4330 32663 246 645 3044 6813 24905 48045 261 1632 1643 1079 1511 9712 2771 726 3357 15193 3821 2056 14114 11895 1142 19534 3417 4243 25613
internal_value=0 -0.0191622 0.452201 0.086511 -0.0380664 0.6636 0.315095 0.145987 0.0565654 -0.00464956 -0.0467217 0.741931 0.564434 0.584502 0.275869 0.403654 0.124396 0.311799 0.351136 0.181389 0.0413066 0.249446 0.134381 0.0788377 0.0100819 0.430794 -0.0150356 0.193903 0.753396 -0.0347627
internal_count=531600 509989 21611 77389 432600 8502 13109 25916 51473 88997 343603 4750 3752 3275 9085 4024 16098 3850 1371 9818 30546 5235 11768 20927 36800 2653 52197 6774 4504 73658
shrinkage=0.01


Tree=21
num_leaves=31
num_cat=0
split_feature=134 134 134 134 2 134 134 134 134 2 134 134 134 134 134 2 134 134 9 167 173 134 9 173 170 173 173 177 173 134
split_gain=4578.72 981.672 655.03 139.705 115.874 58.6144 55.454 21.3313 15.9378 12.9815 12.2907 8.24625 7.92855 5.07736 3.72563 3.66232 2.4387 2.30073 2.22382 2.07178 1.7407 1.56324 1.45846 1.24858 1.22709 1.1546 1.12336 1.04506 1.01141 0.986291
threshold=1.8569812304330273 0.17673929165822386 4.221446514881829 0.89819612944081439 -0.24644939204984964 2.891578435294067 5.6776111300856638 0.52701316853583513 1.3688859070489452 -0.39926693884215425 -0.051552232466239654 3.5077194131656726 2.3016565207317004 4.8672298574993631 6.4220888871876776 0.33513991609177718 0.68385428513080793 1.1093514464826153 0.089480430605091185 -0.011840702046228916 1.6887132964409028 -0.28118774739569435 -0.45503531765734867 2.497287769769418 2.4905162715606255 5.1687613328193001 0.42406617581042078 3.9235863409540719 1.0564504562197266 -0.1898722379670886
decision_type=2 2 2 2 2 2 2 2 2 2 2 2 2 2 2 2 2 2 2 2 2 2 2 2 2 2 2 2 2 2
left_child=1 4 5 7 9 12 13 15 17 22 19 27 23 -4 -8 26 -9 -5 -12 29 -10 -11 -1 -2 -14 -13 -3 -7 -18 -6
right_child=2 3 6 8 10 11 14 16 20 21 18 25 24 -15 -16 -17 28 -19 -20 -21 -22 -23 -24 -25 -26 -27 -28 -29 -30 -31
leaf_value=-0.00050662106638264728 0.0022876339239290919 0.00025651709982433245 0.0052642785457783191 0.001161531220027801 -0.00025405995421677304 0.0035497518283332937 0.0068347071543615892 0.00069913113497349416 0.0017166267339239602 -0.00037287329465809108 2.8260564553165705e-05 0.0043403931318164342 0.0028409753375399842 0.0060943485076467574 0.0075309871754097374 0.0005177586829956082 0.00085064419674072257 0.0014121476887277204 0.00019318204270408053 -5.7549317560537647e-05 0.0020173224661145083 -0.00026848313530926284 -0.00044935924135072888 0.0026557992394167953 0.0031942945006471031 0.0048940162324397612 0.00042570256642820027 0.0040041458685724654 0.0010651708138341284 -0.00014633756969348286
leaf_count=215318 3410 12779 1510 7792 16621 2233 958 10368 5564 50555 23086 1789 2370 1456 4048 15754 7482 7085 12926 15514 3022 20569 57522 1304 1751 493 5885 679 3244 18513
internal_value=0 -0.0192836 0.446657 0.083206 -0.0380798 0.316583 0.675558 0.0558593 0.147907 -0.0463146 -0.00539488 0.400907 0.26701 0.567176 0.739774 0.0405022 0.0809165 0.128088 0.00874568 -0.0154492 0.182246 -0.0342684 -0.0494549 0.238948 0.29911 0.446 0.0309863 0.36557 0.0915526 -0.0197298
internal_count=531600 509599 22001 78975 430624 14029 7972 55512 23463 343964 86660 5194 8835 2966 5006 34418 21094 14877 36012 50648 8586 71124 272840 4714 4121 2282 18664 2912 10726 35134
shrinkage=0.01


Tree=22
num_leaves=31
num_cat=0
split_feature=0 0 0 0 0 4 0 0 0 0 0 1 0 1 4 1 4 1 5 1 1 175 175 200 1 5 5 172 172 4
split_gain=4438.55 989.959 597.416 138.976 118.028 54.6201 52.7029 20.1881 17.5354 13.7237 11.8132 8.73972 7.87498 7.77055 5.19968 4.82122 4.67693 4.31187 3.92309 3.72202 3.18321 2.73548 2.62061 2.42784 2.38855 2.27085 2.26073 2.0339 1.9379 1.87775
threshold=1.8987270294792427 0.18329653014591488 4.2360248964069784 0.85395840647342991 -0.23798605035232326 5.7339354527925428 2.9550372495057089 1.3140013425389727 0.48995045446407665 -0.39459383485556437 -0.037530433726695046 2.3727610412039311 2.2639715598176835 1.0602919143215763 3.6268752985044381 -0.0068112789005315109 5.0153529555559446 -0.62823922639763652 3.778020895638714 0.12045980441073344 0.61816979350491319 0.33124145783555248 0.94325764607395834 -0.1005118993782069 0.89598099623839145 5.3763029176362895 1.6572439963675751 -0.069351331614571674 0.20464897396905923 1.0649102122288183
decision_type=2 2 2 2 2 2 2 2 2 2 2 2 2 2 2 2 2 2 2 2 2 2 2 2 2 2 2 2 2 2
left_child=1 4 6 8 9 11 12 20 21 -1 27 16 24 14 -8 -7 23 -14 -15 -9 29 -3 -10 -4 -2 -13 -21 -6 -12 -5
right_child=2 3 5 7 10 15 13 19 22 -11 28 25 17 18 -16 -17 -18 -19 -20 26 -22 -23 -24 -25 -26 -27 -28 -29 -30 -31
leaf_value=-0.00048842205853503139 0.0021824442932125822 0.00031410621180801224 0.0052478028005814251 0.0010125217982364977 -0.00018632158587295104 0.0065204635595523868 0.0034124145710282871 0.001614730597715722 0.00069999102635877471 -0.00033213417784701884 5.0506156004450691e-05 0.0059996140926736391 0.002609801722494942 0.0041712042760854665 0.0042905525558769473 0.007421809060197947 0.0058202109593348426 0.003217064496907447 0.0051526076903491988 0.0018065126185831651 0.0014222529039587468 0.00050532028420101208 0.00094274697591017369 0.0043781010650665213 0.0027150660240878761 0.0070169857995850708 0.0022436062101131118 -5.483068810034921e-05 0.00021279627725419263 0.0012949424819910696
leaf_count=276056 2499 16991 790 6262 32152 698 1993 5258 15486 70736 23086 526 1972 1052 1028 4132 915 2922 673 2706 5409 13632 6339 552 1294 385 2153 18986 11047 3870
internal_value=0 -0.0187281 0.445826 0.084879 -0.0374576 0.662209 0.316991 0.145194 0.0553723 -0.0456544 -0.00412201 0.560142 0.270681 0.401758 0.371123 0.729155 0.526716 0.297237 0.455409 0.179986 0.122546 0.0399226 0.0770499 0.489007 0.236415 0.642957 0.200019 -0.0137503 0.0103031 0.112039
internal_count=531600 510169 21431 78106 432063 7998 13433 25658 52448 346792 85271 3168 8687 4746 3021 4830 2257 4894 1725 10117 15541 30623 21825 1342 3793 911 4859 51138 34133 10132
shrinkage=0.01


Tree=23
num_leaves=31
num_cat=0
split_feature=134 134 134 134 2 134 134 134 134 134 134 134 134 134 2 134 134 2 3 134 173 171 173 16 173 176 180 171 134 174
split_gain=4398.84 943.442 629.282 134.24 111.201 56.3883 53.2759 20.5372 15.3383 12.7151 11.5697 7.92578 7.61511 4.88318 3.71444 3.58774 2.20532 2.19886 2.15616 2.12102 1.70103 1.58033 1.47052 1.22663 1.22135 1.20245 1.09774 1.02989 0.98048 0.935874
threshold=1.8569812304330273 0.17673929165822386 4.221446514881829 0.89819612944081439 -0.25555320982974744 2.891578435294067 5.6776111300856638 0.53889743402063306 1.3688859070489452 -0.051552232466239654 -0.41580455555047774 3.3903705257830947 2.3016565207317004 4.8672298574993631 0.33513991609177718 6.4220888871876776 1.1093514464826153 -0.1291632972888557 0.0879137138231917 0.71963400206154626 1.6887132964409028 -0.25225039885825079 5.1687613328193001 -0.44685006160048341 2.6532655137494188 2.1344674534446955 0.12182234947201259 0.49169431284488563 3.6796159892696303 2.8474254709693247
decision_type=2 2 2 2 2 2 2 2 2 2 2 2 2 2 2 2 2 2 2 2 2 2 2 2 2 2 2 2 2 2
left_child=1 4 5 7 10 12 13 14 16 17 23 -7 24 -4 26 -8 -5 -6 -11 -9 -10 -12 28 -1 -2 -14 -3 -16 -13 -15
right_child=2 3 6 8 9 11 15 19 20 18 21 22 25 29 27 -17 -18 -19 -20 -21 -22 -23 -24 -25 -26 -27 -28 -29 -30 -31
leaf_value=-0.0004958908217250769 0.0022494286603311018 0.00022352271601793611 0.0051595371981330261 0.0011386484701295249 -0.00020764103131759901 0.0035160905793491597 0.006698361351339454 0.00071199475321757466 0.0016822041027206229 2.6328736758756193e-05 -0.00037562671925507423 0.0039217364161433874 0.0027726391346688667 0.0056260434854342491 0.00044114154152357938 0.0073817398531634817 0.0013840813864844958 -7.447325257605987e-05 0.00018807136106742631 0.00092007644105967482 0.0019795122246943973 -0.00027431294219042499 0.0047629006978751939 -0.00043818249859262591 0.002629249927053069 0.0031197711198494354 0.00037875357758981616 0.00060287656123670568 0.0043596519708334943 0.0061645019961164352
leaf_count=222766 3568 8902 1510 7792 33582 2451 958 11551 5564 22950 49756 887 2236 516 9285 4048 7085 20086 13142 8717 3022 22913 558 45429 1146 1885 9868 7189 1298 940
internal_value=0 -0.018901 0.437796 0.0815732 -0.0373276 0.310304 0.662154 0.0547665 0.144996 -0.00600824 -0.045575 0.393012 0.26168 0.555919 0.0401697 0.725096 0.125553 -0.0157801 0.00852233 0.0801488 0.178685 -0.0343682 0.430008 -0.0486116 0.234177 0.293142 0.0305133 0.051172 0.418188 0.597367
internal_count=531600 509599 22001 78975 430624 14029 7972 55512 23463 89760 340864 5194 8835 2966 35244 5006 14877 53668 36092 20268 8586 72669 2743 268195 4714 4121 18770 16474 2185 1456
shrinkage=0.01


Tree=24
num_leaves=31
num_cat=0
split_feature=134 134 134 134 134 134 134 134 134 9 9 134 134 134 134 134 134 134 170 170 134 171 173 171 134 170 173 134 175 170
split_gain=4311.39 908.871 635.26 134.217 100.543 58.5451 52.2152 19.4275 16.4063 13.3012 8.55609 8.39563 7.76746 4.78541 3.51575 2.75065 2.68483 2.42083 2.34767 2.27907 2.09273 1.51424 1.44066 1.32967 1.24842 1.18074 1.02545 0.962002 0.92517 0.909725
threshold=1.8218092502577752 0.15246599693739399 4.221446514881829 0.80544078129610219 -0.28118774739569435 2.891578435294067 5.6776111300856638 1.2539133801294213 0.42468141934607889 -0.098476799946311991 -0.41898017641448093 2.3016565207317004 3.3903705257830947 4.8672298574993631 6.4220888871876776 0.62557698417437879 1.5522083019013859 0.99597390251061346 0.19512724581503696 0.40322149254822215 -0.14373165648261857 -0.25225039885825079 5.1687613328193001 2.8848278293248275 -0.0049720817467656985 2.7135124062728271 0.67673054043198644 3.7281199144909727 2.7723856020366031 1.6134880437566883
decision_type=2 2 2 2 2 2 2 2 2 2 2 2 2 2 2 2 2 2 2 2 2 2 2 2 2 2 2 2 2 2
left_child=1 4 5 8 10 11 13 17 19 20 -1 23 -7 -4 -8 26 29 -5 24 -3 -6 -12 27 -2 -11 -13 -10 -14 -15 -9
right_child=2 3 6 7 9 12 14 16 15 18 21 25 22 28 -16 -17 -18 -19 -20 -21 -22 -23 -24 -25 -26 -27 -28 -29 -30 -31
leaf_value=-0.00048398047100473257 0.0022168362000873501 0.00026213230076072735 0.0051079418203293881 0.0010090248894501091 -0.00023542931307365448 0.00348092967982513 0.0066313777618219058 0.0014695413450333704 0.00053191508104631115 -6.4792357854438355e-05 -0.00039169525591472654 0.0027692946090173086 0.0039140135023003654 0.0055748816914786012 0.0073079224808413994 0.0008072431560437977 0.0018756442290567149 0.0012536409057758862 0.00016244098323187872 0.00044647527973170037 -0.00010386392196332152 -0.00029209966291210052 0.0047152716791971612 0.0026285209052437264 6.8414772003204676e-05 0.0031233196165340376 0.00070749085212654496 0.004340906217694283 0.0061074230733941413 0.0017254186463817498
leaf_count=256897 4176 18564 1510 8072 36691 2451 958 4466 9914 15616 51883 2575 1028 529 4048 10027 4266 8315 12332 10718 18420 22242 558 993 13376 1546 5230 1157 927 2115
internal_value=0 -0.0189131 0.428817 0.0777381 -0.0373832 0.304033 0.655532 0.135061 0.0490687 -0.00896435 -0.0456623 0.256482 0.389082 0.55036 0.717845 0.0678074 0.167915 0.113315 0.00461364 0.0329607 -0.0191456 -0.0361811 0.425707 0.229592 -0.000333476 0.290211 0.059255 0.414006 0.591394 0.155178
internal_count=531600 509144 22456 81687 427457 14484 7972 27234 54453 96435 331022 9290 5194 2966 5006 25171 10847 16387 41324 29282 55111 74125 2743 5169 28992 4121 15144 2185 1456 6581
shrinkage=0.01


Tree=25
num_leaves=31
num_cat=0
split_feature=5 7 5 5 7 4 5 4 5 7 1 16 1 1 5 5 1 1 4 5 4 1 4 4 4 170 178 5 4 178
split_gain=4167.34 922.059 566.219 124.723 113.179 65.2878 41.1826 19.2465 15.8582 13.455 12.4267 10.9789 9.14208 7.75634 6.93096 6.80256 5.41177 4.53863 4.38919 3.41474 3.23721 3.04768 2.94014 2.75499 2.52635 2.44963 2.4093 2.21376 2.0565 1.70033
threshold=1.963253339546027 0.18640477221948473 4.1262842242313278 0.91383309794136436 -0.25963257421478919 5.7339354527925428 3.0808440269480473 1.2950945930334428 0.56708878870779456 -0.049117845101551962 -2.0660580462856046 -0.40353534045315187 -1.4963258190639341 -1.5507612753659699 2.3304735871718609 4.8703761323308585 -0.55309943450150312 -0.0068112789005315109 4.0320168220384565 1.2120909843677337 1.9752264768806238 -1.2476321966181032 0.34750691466147915 1.6267835029695168 0.80560783511397471 -0.079158318803743605 0.010978908779687354 3.5965720767816425 2.9532098379079401 0.70937274101069536
decision_type=2 2 2 2 2 2 2 2 2 2 2 2 2 2 2 2 2 2 2 2 2 2 2 2 2 2 2 2 2 2
left_child=1 4 6 8 11 10 12 16 22 25 18 -1 20 28 -14 -12 24 -7 -4 -18 -2 -10 -3 -9 -5 -6 -11 -15 -8 -23
right_child=2 3 5 7 9 17 13 23 21 26 15 -13 14 27 -16 -17 19 -19 -20 -21 -22 29 -24 -25 -26 -27 -28 -29 -30 -31
leaf_value=-0.00047606861176242469 0.0017071769371813669 0.0003228588782913886 0.0034266968781935469 0.00070455220769771666 -0.00020080138547800796 0.0063270459334795661 0.0026366460822194954 0.0016235547822350753 0.00050846958857440146 1.7232903488388949e-05 0.0052362373906102069 -0.00033610771257579686 0.0024537366817460127 0.0038978961564581412 0.0031136764293703744 0.0062891578334253974 0.0012053952286329916 0.0072017449192479177 0.004821990593309791 0.001595534178226263 0.0024258853477892783 0.00072925224257128479 0.00052100549793361302 0.001985393047590159 0.0011112543667096285 -6.2863222204314543e-05 0.00018016772405844746 0.0044790395516660312 0.0034863467750919368 0.000939682566957706
leaf_count=268506 1098 19418 307 2308 35690 698 432 5452 3859 19055 1381 71076 2841 1564 3654 1113 6525 4132 871 3465 1492 8727 12393 3488 4678 20528 17745 1155 873 7076
internal_value=0 -0.0182262 0.430112 0.0823071 -0.0362108 0.631109 0.299752 0.138891 0.0538178 -0.00530178 0.530584 -0.0446774 0.262436 0.384001 0.282501 0.570613 0.119099 0.707534 0.445836 0.134071 0.21212 0.076165 0.0400053 0.176473 0.097689 -0.0150433 0.00958003 0.414476 0.320507 0.0823475
internal_count=531600 509989 21611 77389 432600 8502 13109 25916 51473 93018 3672 339582 9085 4024 6495 2494 16976 4830 1178 9990 2590 19662 31811 8940 6986 56218 36800 2719 1305 15803
shrinkage=0.01


Tree=26
num_leaves=31
num_cat=0
split_feature=134 134 134 134 2 134 134 134 2 134 134 134 134 134 134 168 134 134 134 134 168 134 171 177 168 171 167 177 171 173
split_gain=4142.34 873.534 610.247 121.295 104.736 56.2434 50.1934 17.2814 15.3709 15.0325 8.04848 7.54212 7.44879 4.59792 3.38073 2.55185 2.53582 2.39809 2.31698 2.17878 2.14387 1.35178 1.29637 1.17095 1.11706 1.0898 1.03545 1.01801 0.95914 0.907523
threshold=1.8218092502577752 0.17673929165822386 4.221446514881829 0.82670628095366727 -0.28971557256084335 2.891578435294067 5.6776111300856638 1.2754450593772619 -0.083341242839834448 0.45214729718360969 2.3016565207317004 -0.42009504260835001 3.5077194131656726 4.8672298574993631 6.4220888871876776 0.22020813747944165 0.63735808357028845 -0.1898722379670886 1.5522083019013859 1.0030479924275431 0.44357230913498719 -0.0039874131682295913 2.8848278293248275 1.7281305723998792 -0.28995505046450104 3.9492046085850383 -0.3911865996246004 0.78647546101916166 1.3139692941820986 0.68353048714768683
decision_type=2 2 2 2 2 2 2 2 2 2 2 2 2 2 2 2 2 2 2 2 2 2 2 2 2 2 2 2 2 2
left_child=1 4 5 9 11 10 13 19 17 20 22 26 27 -4 -8 21 29 -6 -9 -5 -3 -10 -2 -12 -13 -14 -1 -7 -21 -11
right_child=2 3 6 7 8 12 14 18 15 16 23 24 25 -15 -16 -17 -18 -19 -20 28 -22 -23 -24 -25 -26 -27 -28 -29 -30 -31
leaf_value=-0.00048017934567567261 0.0021727455547128926 0.0002861834380365863 0.0050062805800051092 0.0010051430726479463 -0.00024515104852765876 0.0030967126282698972 0.0064997276257809126 0.0015325074871788758 -5.9749217363926276e-05 0.00053974581301761168 0.0026579508671674646 -0.00038083774519812909 0.0040833251113907443 0.0057964301154344944 0.007163266554224515 0.00018180446554774132 0.00081078707401923192 -0.00011760482440653466 0.0018387691316602423 0.0011648778006765092 0.00046846313685103199 7.6948371315034054e-05 0.0025793587377769467 0.0030007047804004373 -0.00029013532677510921 0.0045507902133265369 -0.00041829931668581745 0.0035723359506471914 0.0013917520304948369 0.00071383039352346494
leaf_count=233614 4176 18305 1510 7300 32241 578 958 6052 14156 8735 1879 42165 1505 1456 4048 12757 10316 27791 4266 5666 10182 15482 993 2242 20831 777 31587 2334 2908 4790
internal_value=0 -0.0185386 0.420326 0.0784646 -0.0362262 0.298023 0.642533 0.134025 -0.0083059 0.0506545 0.251416 -0.0449399 0.381384 0.539416 0.703628 0.00628561 0.0692001 -0.0186105 0.165913 0.113298 0.0351335 0.00116575 0.225086 0.284442 -0.0350845 0.424249 -0.0472809 0.347793 0.124183 0.0601399
internal_count=531600 509144 22456 78520 430624 14484 7972 26192 102427 52328 9290 328197 5194 2966 5006 42395 23841 60032 10318 15874 28487 29638 5169 4121 62996 2282 265201 2912 8574 13525
shrinkage=0.01


Tree=27
num_leaves=31
num_cat=0
split_feature=134 134 134 134 2 134 134 134 134 134 134 134 134 134 134 2 171 134 9 2 171 171 171 10 176 171 178 134 171 178
split_gain=4059.99 871.042 580.636 123.851 102.674 52.0175 49.1939 18.9693 14.1464 12.2647 10.4666 7.31881 6.99991 4.50582 3.31287 3.24448 2.16756 2.02145 1.89186 1.75629 1.74714 1.61944 1.31163 1.15431 1.14074 1.13818 1.04017 0.988537 0.924973 0.845294
threshold=1.8569812304330273 0.17673929165822386 4.221446514881829 0.89819612944081439 -0.2403169847006377 2.891578435294067 5.6776111300856638 0.52701316853583513 1.3688859070489452 -0.41580455555047774 -0.04802427458374129 3.3903705257830947 2.3016565207317004 4.8672298574993631 6.4220888871876776 0.33513991609177718 0.77970228431443411 1.1093514464826153 0.089480430605091185 -0.34102754429876198 -0.062386581324558384 1.71613216407749 3.9492046085850383 -0.46394908906908533 2.1344674534446955 2.8848278293248275 0.12160101209964862 0.71963400206154626 0.49169431284488563 -0.0593829112602609
decision_type=2 2 2 2 2 2 2 2 2 2 2 2 2 2 2 2 2 2 2 2 2 2 2 2 2 2 2 2 2 2
left_child=1 4 5 7 9 12 13 15 17 23 20 -7 25 -4 -8 26 27 -5 29 -11 -6 -10 -13 -1 -14 -2 -3 -9 -17 -12
right_child=2 3 6 8 10 11 14 16 21 19 18 22 24 -15 -16 28 -18 -19 -20 -21 -22 -23 -24 -25 -26 -27 -28 -29 -30 -31
leaf_value=-0.00047715781877228524 0.0021725035301088718 0.00021125213177647121 0.0049562177299861086 0.0010943240751969422 -0.00018544753114446819 0.0033777817349040424 0.0064347303790936641 0.00061231566978884613 0.0016147337863135888 -0.00036940634650025608 -3.4600522149488165e-05 0.0039771030194056447 0.0026612227156052109 0.005738465819344089 0.0070916342635900381 0.00041934262949052032 0.00088907273986491139 0.0013294465505708951 0.00018296864991642172 -0.00027330453698889886 -6.022157898141164e-05 0.0019051938520698666 0.0044485330048412777 -0.0004235015505613494 0.002999552845836318 0.0025680821968883439 0.00036299826741781766 0.0007976672980220716 0.00057638232564230269 9.0351433788968751e-05
leaf_count=217737 3784 8744 1510 7792 31576 2451 958 8089 5575 41051 10910 1846 2236 1456 4048 8898 8325 7085 12850 36573 17677 3011 897 50718 1885 930 9920 4680 6856 11532
internal_value=0 -0.0181584 0.420596 0.0783837 -0.0358639 0.298131 0.636108 0.052635 0.139304 -0.043497 -0.00461842 0.37757 0.251429 0.534022 0.696592 0.0381519 0.0762664 0.12063 0.00854468 -0.0324127 -0.0140504 0.171659 0.413127 -0.0467021 0.281598 0.225055 0.0291906 0.0680249 0.0487685 0.0029607
internal_count=531600 509599 22001 78975 430624 14029 7972 55512 23463 346079 84545 5194 8835 2966 5006 34418 21094 14877 35292 77624 49253 8586 2743 268455 4121 4714 18664 12769 15754 22442
shrinkage=0.01


Tree=28
num_leaves=31
num_cat=0
split_feature=134 134 134 134 134 134 134 134 134 0 0 134 134 134 134 134 134 169 134 169 169 169 169 169 134 169 134 7 178 173
split_gain=3979.22 839.197 586.171 123.828 93.0114 54.0151 48.2144 17.906 15.1854 12.3197 7.80797 7.72398 7.17547 4.41556 3.24634 2.51816 2.51692 2.4569 2.21802 2.2149 1.6479 1.53359 1.35106 1.15134 1.13211 1.10978 1.00439 0.993609 0.965922 0.959223
threshold=1.8218092502577752 0.15246599693739399 4.221446514881829 0.80544078129610219 -0.28118774739569435 2.891578435294067 5.6776111300856638 1.2539133801294213 0.42468141934607889 -0.10828928380075269 -0.42347925258856184 2.3016565207317004 3.5077194131656726 4.8672298574993631 6.4220888871876776 1.4733367689486563 0.62557698417437879 0.080671885930637108 0.99597390251061346 0.3979007482013372 -0.13756895649598946 -0.22979241379337137 2.3603601669405507 4.721642913622337 2.6493588824665957 1.9995964936836821 -0.010711831117266032 0.2129705200288716 4.2805402510171078 0.67673054043198644
decision_type=2 2 2 2 2 2 2 2 2 2 2 2 2 2 2 2 2 2 2 2 2 2 2 2 2 2 2 2 2 2
left_child=1 4 5 8 10 11 13 18 19 20 -1 22 28 -4 -8 -9 29 26 -5 -3 -6 -12 -2 -14 -13 -17 -11 -19 -7 -10
right_child=2 3 6 7 9 12 14 15 16 17 21 24 23 -15 -16 25 -18 27 -20 -21 -22 -23 -24 -25 -26 -27 -28 -29 -30 -31
leaf_value=-0.00046550716394682171 0.0020977456384459301 0.00024907739401070042 0.0049066555902657922 0.00096996890262000856 -0.00023182308602945012 0.0033172935071085563 0.0063703831115694788 0.0014496072239368659 0.00051139201139696285 -8.156461929177767e-05 -0.00037742858382080677 0.0026595804748204806 0.0040327815516171079 0.0056810811246428032 0.0070207178490346838 0.0016694962750251198 0.00077556593493840976 9.6063110868099876e-05 0.001204245021466036 0.00043009237707124242 -0.00011506428884608788 -0.00027536291373708461 0.0024524282329208332 0.0045698405963795208 0.0030077184437346501 0.0019830107721010388 4.5096562079366513e-05 0.00029966479997355544 0.0037843241969639243 0.00068136978881613299
leaf_count=254436 3587 18348 1510 8072 33298 2345 958 5075 9914 14072 56093 2603 1747 1456 4048 4165 10027 14671 8315 10934 19525 20493 1582 535 1518 1607 11900 2969 567 5230
internal_value=0 -0.01817 0.411967 0.074703 -0.035918 0.292101 0.629747 0.129764 0.0471651 -0.00858398 -0.043881 0.246426 0.373795 0.528682 0.689626 0.161306 0.0651945 0.00387031 0.108884 0.0316669 -0.0188665 -0.0350118 0.22063 0.415869 0.278782 0.175678 -0.00235303 0.0130331 0.340823 0.0570094
internal_count=531600 509144 22456 81687 427457 14484 7972 27234 54453 96435 331022 9290 5194 2966 5006 10847 25171 43612 16387 29282 52823 76586 5169 2282 4121 5772 25972 17640 2912 15144
shrinkage=0.01


Tree=29
num_leaves=31
num_cat=0
split_feature=134 134 134 2 134 134 134 134 2 134 134 134 134 134 134 169 134 134 168 169 134 169 169 169 169 173 171 169 175 134
split_gain=3900.09 836.828 557.734 115.052 104.797 49.9585 47.2543 14.9923 13.1609 12.6597 11.9562 7.05111 6.7451 4.32709 3.18114 2.18578 2.17804 2.14834 2.14262 2.04858 1.94739 1.4827 1.45128 1.37283 1.36611 0.9693 0.913719 0.913707 0.904162 0.896181
threshold=1.8569812304330273 0.22805867899832533 4.221446514881829 -0.22714100587020736 0.91858236226617695 2.891578435294067 5.6776111300856638 0.53889743402063306 -0.37814665274200049 1.4100466357775103 -0.010711831117266032 3.3903705257830947 2.3975190705449454 4.8672298574993631 6.4220888871876776 0.44902864862583952 1.1629971783682989 0.71963400206154626 -0.06275091352193754 0.26519693964102492 -0.46584338409378045 2.6045586710621054 1.9995964936836821 -0.20350911854651446 4.4504748378815018 2.2158980796128578 1.2519170260652916 0.82140322999493975 2.7723856020366031 0.37819537890852878
decision_type=2 2 2 2 2 2 2 2 2 2 2 2 2 2 2 2 2 2 2 2 2 2 2 2 2 2 2 2 2 2
left_child=1 3 5 8 7 12 13 15 20 16 18 -7 21 -4 -8 29 26 27 -5 -12 -1 -2 -11 -10 -13 -14 -6 -9 -15 -3
right_child=2 4 6 10 9 11 14 17 23 22 19 24 25 28 -16 -17 -18 -19 -20 -21 -22 -23 -24 -25 -26 -27 -28 -29 -30 -31
leaf_value=-0.00046543243369924411 0.0021486285216412429 0.00027826805862086286 0.0048575890299105487 -0.00016592719231333533 0.0010364675949389192 0.0033099601641586123 0.0063066793024726597 0.00060611508616277197 -0.00032531492868327324 0.001628679226968116 7.5417993320923168e-05 0.0039180438085465999 0.0026555466421109178 0.0052889634932202969 0.0069505107299730239 0.00051643394368791065 0.0013527577259400251 0.00087503885689232106 -3.4220159030282535e-05 0.00024288134013078681 -0.00039739816189108808 0.0025233708611455091 0.0019440202874298753 -0.00022373212710354143 0.0044364973386728217 0.0030022519649808232 0.0012599202922981723 0.00079717670980619648 0.0058156158615148825 0.00042862345922640727
leaf_count=233995 4031 10165 1510 30979 5904 2451 958 7645 44497 5536 23771 2047 1752 529 4048 11966 6404 9518 21025 10770 52262 1470 2038 19575 696 1582 2780 3906 927 6863
internal_value=0 -0.0177973 0.41223 -0.0343312 0.0815253 0.292204 0.623449 0.0559815 -0.0423981 0.137954 -0.00167675 0.370057 0.246435 0.523395 0.68273 0.041215 0.121189 0.0763023 -0.0112679 0.0127634 -0.0453011 0.224877 0.171353 -0.029428 0.404959 0.282006 0.1108 0.0670723 0.562427 0.0338868
internal_count=531600 509599 22001 436874 72725 14029 7972 50063 350329 22662 86545 5194 8835 2966 5006 28994 15088 21069 52004 34541 286257 5501 7574 64072 2743 3334 8684 11551 1456 17028
shrinkage=0.01


Tree=30
num_leaves=31
num_cat=0
split_feature=134 134 134 134 134 134 134 134 134 134 134 16 134 134 134 3 134 3 134 167 167 167 134 134 134 183 167 181 180 182
split_gain=3822.57 790.886 581.218 113.893 89.4375 55.1059 46.3133 16.5598 13.6997 11.7269 8.35852 7.50086 6.91163 4.24039 3.11724 2.47398 2.41074 2.39093 2.0248 1.98195 1.8389 1.17502 1.12329 1.0998 1.09713 0.998675 0.954832 0.908332 0.86975 0.822748
threshold=1.7821411799651954 0.15246599693739399 4.221446514881829 0.78898581624813058 -0.28118774739569435 2.891578435294067 5.6776111300856638 1.2539133801294213 0.41137003537854328 -0.091875440363408889 2.3016565207317004 -0.40353534045315187 3.5077194131656726 4.8672298574993631 6.4220888871876776 0.59703336582545863 0.97379071857159649 0.042603721475671284 1.4733367689486563 -0.11591166147266217 0.37163909010167895 -0.20561899960626065 -0.46584338409378045 2.0868000631650632 2.5458166949091559 1.995259453870708 1.5809589216849347 0.58952243063296994 0.30401156308804772 -0.075533740032274449
decision_type=2 2 2 2 2 2 2 2 2 2 2 2 2 2 2 2 2 2 2 2 2 2 2 2 2 2 2 2 2 2
left_child=1 4 5 8 11 10 13 16 20 19 23 22 27 -4 -8 28 -5 29 -9 -6 -3 -13 -1 -2 -12 -14 -18 -7 -10 -11
right_child=2 3 6 7 9 12 14 18 15 17 24 21 25 -15 -16 -17 26 -19 -20 -21 -22 -23 -24 -25 -26 -27 -28 -29 -30 -31
leaf_value=-0.00046199159228951575 0.0020329340962964176 0.00023880203910606806 0.0048090131255175105 0.00093037816422214569 -0.00022644530012236796 0.0030027320964803594 0.0062436124298231588 0.0014206753806348116 0.00045381814868246959 -7.3570179567048841e-05 0.0025585238475455529 -0.00035803319696601338 0.0038449210093683796 0.005568027652308836 0.0068810051858881598 0.00074077183643731371 0.0011132023150576991 0.00013648189823857877 0.0017027667011956784 -9.9861516412205178e-05 0.00040573523652238426 -0.0002587152239463361 -0.00040343057139420726 0.002325502711595367 0.0028897366940423613 0.0042711590311580129 0.0013617483711555051 0.0034354962965448084 0.0006108058156179412 4.2299514167629171e-05
leaf_count=228137 3600 17151 1510 8058 34876 643 958 5075 6656 13523 1953 46925 1042 1456 4048 10722 7098 16439 5257 19620 11013 16516 39444 2084 2168 1240 2056 2269 8086 11977
internal_value=0 -0.0180209 0.399023 0.0724706 -0.0352048 0.283054 0.617215 0.124744 0.0456221 -0.00840092 0.238926 -0.0430134 0.366356 0.518161 0.675903 0.0624495 0.10573 0.0041855 0.156421 -0.0180872 0.0304078 -0.0332177 -0.0453359 0.21402 0.273277 0.407653 0.116903 0.333994 0.0539926 -0.00191478
internal_count=531600 508629 22971 81172 427457 14999 7972 27544 53628 96435 9805 331022 5194 2966 5006 25464 17212 41939 10332 54496 28164 63441 267581 5684 4121 2282 9154 2912 14742 25500
shrinkage=0.01


Tree=31
num_leaves=31
num_cat=0
split_feature=2 2 2 2 2 2 2 2 2 2 2 2 2 29 43 2 29 43 174 179 174 29 173 173 174 172 172 174 174 172
split_gain=3712.98 763.233 574.64 103.302 90.0765 52.9644 50.4855 14.614 13.1866 12.597 8.36253 6.75109 6.60199 5.65267 4.85127 4.54169 2.703 2.66577 2.46846 2.30695 2.17094 1.96219 1.91178 1.8991 1.84621 1.79326 1.5945 1.5864 1.41699 1.35006
threshold=1.7289025590878928 0.15421202802333983 4.1498210290788977 0.77967468108947158 -0.28971557256084335 2.7105198234429801 5.7315316542584087 1.1740045918005924 0.40966933271598621 -0.10473874391459322 3.2997656504881752 -0.43262306311331117 2.204216891542115 -3.1975426678746546 -0.53793580785840678 4.9231438347266971 2.9784054460267861 4.527975628408309 1.2752751651998471 0.22801387778161589 0.19414232064355919 2.7123179978640062 1.3250133973332139 1.3706861056275164 0.049868811199276435 3.5887434109204759 -0.070463974478454941 0.97694059992742421 0.89008796214306474 -0.29615040490430117
decision_type=2 2 2 2 2 2 2 2 2 2 2 2 2 2 2 2 2 2 2 2 2 2 2 2 2 2 2 2 2 2
left_child=1 4 5 8 11 12 13 22 24 26 16 -1 21 -4 -8 -15 28 25 -9 -10 -11 27 -5 -14 -3 -12 -6 -2 -7 -13
right_child=2 3 6 7 9 10 14 18 19 20 17 29 23 15 -16 -17 -18 -19 -20 -21 -22 -23 -24 -25 -26 -27 -28 -29 -30 -31
leaf_value=-0.00045378082223893301 0.0016880446374947309 0.00019942729654630058 0.0040370183255761232 0.00095114534468225651 -0.00022081468797489453 0.0024887408697723996 0.0055621143872788218 0.0013584988427913999 0.00050058077056950537 -4.1310265611224149e-06 0.0035266043192960107 -0.00037774201849406574 0.0022790167184262673 0.0048589621917941635 0.0067435270031525789 0.0056625857092670083 0.0036541711006989968 0.0045896168952004627 0.001653666864965803 0.00070046891321285472 0.00015105205493915443 0.0024898371101998522 0.0012043844890963714 0.0027431248811593634 0.00037137752199152454 0.0041076213204889103 -0.00010286364934577918 0.0020871302544116974 0.0030838807960406195 -0.00029070214012520332
leaf_count=246059 1503 9922 470 11242 38878 514 379 6449 9274 31730 1516 54868 1390 1560 4528 1296 738 436 5164 15837 12837 829 4144 2518 17605 839 16689 3125 1991 27270
internal_value=0 -0.0180261 0.387471 0.0718721 -0.0347404 0.273448 0.600739 0.122168 0.0460742 -0.00848218 0.346531 -0.0427518 0.226359 0.505595 0.665228 0.522363 0.311933 0.386732 0.148975 0.0626646 0.00405676 0.203839 0.101935 0.257805 0.0309399 0.37336 -0.0185389 0.195752 0.296176 -0.0348845
internal_count=531600 507968 23632 79637 428331 15399 8233 26999 52638 100134 6034 328197 9365 3326 4907 2856 3243 2791 11613 25111 44567 5457 15386 3908 27527 2355 55567 4628 2505 82138
shrinkage=0.01


Tree=32
num_leaves=31
num_cat=0
split_feature=134 134 134 134 134 134 134 134 134 134 16 134 134 134 134 3 10 134 134 169 169 169 134 169 169 177 169 169 175 176
split_gain=3672.81 759.937 558.452 109.477 85.9636 52.9327 44.4976 15.9217 13.1602 10.1879 8.29202 8.02312 6.66263 4.07265 2.99815 2.35942 2.34107 2.31567 1.95081 1.92853 1.72303 1.38402 1.35736 1.30861 1.19552 1.09279 0.956409 0.92997 0.886083 0.882194
threshold=1.7821411799651954 0.15246599693739399 4.221446514881829 0.78898581624813058 -0.26763381468145148 2.891578435294067 5.6776111300856638 1.2539133801294213 0.41137003537854328 -0.051552232466239654 -0.39303111002197061 2.3016565207317004 3.3903705257830947 4.8672298574993631 6.4220888871876776 0.59703336582545863 -0.16780392850598633 0.97379071857159649 1.4733367689486563 0.3979007482013372 0.080671885930637108 2.3603601669405507 -0.46584338409378045 4.4504748378815018 -0.1573184405492368 1.6672126355032852 1.9194972445844563 1.5010706936965164 2.7723856020366031 0.35869960220194114
decision_type=2 2 2 2 2 2 2 2 2 2 2 2 2 2 2 2 2 2 2 2 2 2 2 2 2 2 2 2 2 2
left_child=1 4 5 8 10 11 13 17 19 16 22 21 -7 -4 -8 29 -6 -5 -9 -3 -11 -2 -1 -14 -12 -13 -20 -19 -15 -10
right_child=2 3 6 7 9 12 14 18 15 20 24 25 23 28 -16 -17 -18 27 26 -21 -22 -23 -24 -25 -26 -27 -28 -29 -30 -31
